{
  "conv_1_1": {
    "input_shape": [
      64,
      64,
      3
    ],
    "output_shape": [
      62,
      62,
      10
    ],
    "num_neurons": 10,
    "weights": [
      {
        "bias": 0.035168830305337906,
        "weights": [
          [
            [
              -0.05580167472362518,
              -0.198690727353096,
              0.05409577116370201
            ],
            [
              0.15838193893432617,
              -0.17984002828598022,
              -0.17811720073223114
            ],
            [
              0.16983886063098907,
              0.12458007782697678,
              -0.05222995951771736
            ]
          ],
          [
            [
              0.03332117199897766,
              -0.17279700934886932,
              -0.05972399190068245
            ],
            [
              0.0057279327884316444,
              -0.15322211384773254,
              -0.03333645686507225
            ],
            [
              -0.16640704870224,
              -0.13466696441173553,
              0.0657874196767807
            ]
          ],
          [
            [
              0.012096147052943707,
              0.23407365381717682,
              0.09584420919418335
            ],
            [
              -0.13227665424346924,
              0.18095648288726807,
              -0.018505876883864403
            ],
            [
              -0.022412536665797234,
              -0.0703820288181305,
              0.2769898772239685
            ]
          ]
        ]
      },
      {
        "bias": 0.12923476099967957,
        "weights": [
          [
            [
              0.11973156780004501,
              -0.07944772392511368,
              -0.20274798572063446
            ],
            [
              -0.09900996834039688,
              -0.2272932380437851,
              0.06435949355363846
            ],
            [
              0.049474380910396576,
              0.0024149504024535418,
              -0.22421549260616302
            ]
          ],
          [
            [
              0.03344837203621864,
              0.11341170221567154,
              -0.11297538131475449
            ],
            [
              -0.0031406336929649115,
              0.16225776076316833,
              0.03449133038520813
            ],
            [
              0.31292638182640076,
              0.15190178155899048,
              0.22838659584522247
            ]
          ],
          [
            [
              -0.07977522164583206,
              -0.10169197618961334,
              0.2590181231498718
            ],
            [
              0.10721718519926071,
              -0.07094127684831619,
              -0.15644191205501556
            ],
            [
              -0.1966795027256012,
              0.07555548846721649,
              -0.07495299726724625
            ]
          ]
        ]
      },
      {
        "bias": 0.0032594779040664434,
        "weights": [
          [
            [
              -0.015303932130336761,
              0.0015885635511949658,
              -0.1208495944738388
            ],
            [
              0.21925540268421173,
              -0.0815054327249527,
              -0.14228951930999756
            ],
            [
              -0.07383829355239868,
              -0.17362241446971893,
              0.16431419551372528
            ]
          ],
          [
            [
              -0.11150970309972763,
              0.016106270253658295,
              0.13077515363693237
            ],
            [
              -0.05625516548752785,
              -0.08914230018854141,
              -0.040677573531866074
            ],
            [
              -0.1789577454328537,
              -0.2133975327014923,
              -0.18513615429401398
            ]
          ],
          [
            [
              -0.1830773502588272,
              0.09789766371250153,
              -0.2035171389579773
            ],
            [
              -0.09502363204956055,
              0.01850411482155323,
              -0.051183875650167465
            ],
            [
              -0.12662798166275024,
              -0.21490739285945892,
              -0.17998872697353363
            ]
          ]
        ]
      },
      {
        "bias": 0.0023985363077372313,
        "weights": [
          [
            [
              -0.170673668384552,
              0.3049183487892151,
              -0.22671015560626984
            ],
            [
              -0.03229140490293503,
              0.1598646491765976,
              0.15260866284370422
            ],
            [
              -0.2788313329219818,
              0.14045293629169464,
              -0.045739226043224335
            ]
          ],
          [
            [
              -0.1389114111661911,
              0.38490787148475647,
              -0.14402931928634644
            ],
            [
              0.07474261522293091,
              0.030641641467809677,
              -0.020709803327918053
            ],
            [
              -0.011563018895685673,
              -0.20812822878360748,
              0.008762381970882416
            ]
          ],
          [
            [
              -0.3218033015727997,
              0.2705739736557007,
              -0.344007283449173
            ],
            [
              0.06878840923309326,
              0.10736183822154999,
              0.18007822334766388
            ],
            [
              0.0409637913107872,
              0.06323249638080597,
              -0.057379040867090225
            ]
          ]
        ]
      },
      {
        "bias": 0.09957417845726013,
        "weights": [
          [
            [
              0.42073604464530945,
              0.3587641417980194,
              0.46066930890083313
            ],
            [
              0.01413485873490572,
              0.0327557697892189,
              0.39153191447257996
            ],
            [
              0.3009525537490845,
              -0.029257675632834435,
              0.32918789982795715
            ]
          ],
          [
            [
              0.1668592244386673,
              0.052674032747745514,
              0.07288707047700882
            ],
            [
              0.06990472227334976,
              -0.3549003601074219,
              0.04685623198747635
            ],
            [
              0.09770528227090836,
              0.003696812316775322,
              -0.094561867415905
            ]
          ],
          [
            [
              -0.42802292108535767,
              -0.42922648787498474,
              -0.11872109770774841
            ],
            [
              -0.05388045683503151,
              -0.4483264982700348,
              -0.1474144160747528
            ],
            [
              -0.2964780628681183,
              -0.35325631499290466,
              0.03515572100877762
            ]
          ]
        ]
      },
      {
        "bias": -0.0020498898811638355,
        "weights": [
          [
            [
              0.258328914642334,
              -0.12095189839601517,
              0.24958845973014832
            ],
            [
              -0.018199626356363297,
              -0.38312020897865295,
              0.17859219014644623
            ],
            [
              0.2524746358394623,
              0.005159812979400158,
              0.07034127414226532
            ]
          ],
          [
            [
              0.3194858431816101,
              -0.2617226839065552,
              0.1759233921766281
            ],
            [
              -0.20929767191410065,
              -0.38228297233581543,
              0.20260506868362427
            ],
            [
              0.039445001631975174,
              0.03517695516347885,
              -0.1627289354801178
            ]
          ],
          [
            [
              0.3015865683555603,
              0.02888098917901516,
              -0.04374600946903229
            ],
            [
              -0.10367279499769211,
              -0.06218617409467697,
              0.23893113434314728
            ],
            [
              0.08754491806030273,
              -0.013064475730061531,
              0.24150097370147705
            ]
          ]
        ]
      },
      {
        "bias": -0.01934993639588356,
        "weights": [
          [
            [
              0.09052406996488571,
              -0.11509176343679428,
              -0.18392853438854218
            ],
            [
              0.09964843839406967,
              0.003190709976479411,
              -0.06699228286743164
            ],
            [
              0.27242013812065125,
              0.3041481375694275,
              0.12579470872879028
            ]
          ],
          [
            [
              -0.09786604344844818,
              -0.21589939296245575,
              0.06053374335169792
            ],
            [
              -0.08724590390920639,
              -0.2759345769882202,
              -0.014789912849664688
            ],
            [
              0.25788038969039917,
              0.22297240793704987,
              -0.18740922212600708
            ]
          ],
          [
            [
              -0.2004736065864563,
              -0.08673234283924103,
              -0.05473330244421959
            ],
            [
              -0.11362259835004807,
              0.05454188957810402,
              0.11302991211414337
            ],
            [
              0.14583012461662292,
              -0.18816065788269043,
              0.1482594758272171
            ]
          ]
        ]
      },
      {
        "bias": 0.13465134799480438,
        "weights": [
          [
            [
              -0.05012154206633568,
              -0.010752839036285877,
              0.13285645842552185
            ],
            [
              0.24833323061466217,
              0.05179310590028763,
              0.03520822525024414
            ],
            [
              -0.012711106799542904,
              -0.1342596411705017,
              0.21126343309879303
            ]
          ],
          [
            [
              -0.19186055660247803,
              -0.19642473757266998,
              -0.06866323202848434
            ],
            [
              -0.023207232356071472,
              -0.24337926506996155,
              -0.025531228631734848
            ],
            [
              -0.25370439887046814,
              -0.27266624569892883,
              0.19399356842041016
            ]
          ],
          [
            [
              -0.023450640961527824,
              0.19744476675987244,
              0.28007715940475464
            ],
            [
              0.27518850564956665,
              0.2506122887134552,
              0.08237854391336441
            ],
            [
              0.21841631829738617,
              -0.009688004851341248,
              0.23188698291778564
            ]
          ]
        ]
      },
      {
        "bias": 0.087295763194561,
        "weights": [
          [
            [
              -0.102227583527565,
              0.06260733306407928,
              -0.03799185901880264
            ],
            [
              0.16117247939109802,
              0.047943782061338425,
              -0.25697362422943115
            ],
            [
              -0.18286369740962982,
              0.20358435809612274,
              0.17492778599262238
            ]
          ],
          [
            [
              0.11324469745159149,
              0.10970323532819748,
              -0.0381159633398056
            ],
            [
              0.2866002023220062,
              0.121337890625,
              0.19820544123649597
            ],
            [
              0.27895382046699524,
              0.41458067297935486,
              0.15495769679546356
            ]
          ],
          [
            [
              -0.349574476480484,
              -0.15127329528331757,
              -0.12685640156269073
            ],
            [
              -0.04861266165971756,
              0.1495732069015503,
              -0.039057884365320206
            ],
            [
              -0.07790718972682953,
              0.07416369765996933,
              0.12530913949012756
            ]
          ]
        ]
      },
      {
        "bias": -0.10621444135904312,
        "weights": [
          [
            [
              0.39601969718933105,
              0.5209633708000183,
              0.00016613744082860649
            ],
            [
              0.0533888004720211,
              0.5101242661476135,
              -0.04669734090566635
            ],
            [
              -0.08141924440860748,
              -0.007939505390822887,
              -0.1322370171546936
            ]
          ],
          [
            [
              -0.10374095290899277,
              0.11754632741212845,
              -0.2576103210449219
            ],
            [
              -0.24390393495559692,
              0.13657806813716888,
              0.04126855358481407
            ],
            [
              -0.43723243474960327,
              -0.04833411052823067,
              -0.47683754563331604
            ]
          ],
          [
            [
              -0.19726772606372833,
              -0.06745224446058273,
              0.0070089963264763355
            ],
            [
              -0.12876485288143158,
              0.10578669607639313,
              0.20127660036087036
            ],
            [
              0.047450777143239975,
              -0.07907965779304504,
              -0.15229536592960358
            ]
          ]
        ]
      }
    ]
  },
  "relu_1_1": {
    "input_shape": [
      62,
      62,
      10
    ],
    "output_shape": [
      62,
      62,
      10
    ],
    "num_neurons": 10
  },
  "conv_1_2": {
    "input_shape": [
      62,
      62,
      10
    ],
    "output_shape": [
      60,
      60,
      10
    ],
    "num_neurons": 10,
    "weights": [
      {
        "bias": 0.011256040073931217,
        "weights": [
          [
            [
              0.177080899477005,
              0.004745879210531712,
              0.003520634025335312
            ],
            [
              0.016375241801142693,
              -0.12792882323265076,
              0.13028426468372345
            ],
            [
              0.02866523712873459,
              0.07102345675230026,
              0.056720685213804245
            ]
          ],
          [
            [
              0.09287737309932709,
              -0.17469891905784607,
              0.011576852761209011
            ],
            [
              -0.016600027680397034,
              -0.15074945986270905,
              -0.10595870018005371
            ],
            [
              0.07527604699134827,
              0.026470936834812164,
              -0.10481222718954086
            ]
          ],
          [
            [
              -0.13041241466999054,
              0.09403056651353836,
              0.14555123448371887
            ],
            [
              0.10997653752565384,
              0.025023503229022026,
              -0.050256725400686264
            ],
            [
              0.08945886045694351,
              0.04134098067879677,
              0.0895678848028183
            ]
          ],
          [
            [
              -0.14377461373806,
              0.1451093703508377,
              -0.0886358767747879
            ],
            [
              0.14871777594089508,
              0.08011136949062347,
              -0.11844556778669357
            ],
            [
              -0.0619618184864521,
              0.08822740614414215,
              0.12462528049945831
            ]
          ],
          [
            [
              0.114850714802742,
              0.16955363750457764,
              -0.0857008546590805
            ],
            [
              -0.09068997949361801,
              -0.14246021211147308,
              0.13188078999519348
            ],
            [
              0.053521573543548584,
              0.1449720710515976,
              0.02030322514474392
            ]
          ],
          [
            [
              0.22928200662136078,
              -0.1266651302576065,
              -0.013352058827877045
            ],
            [
              0.08886788785457611,
              -0.13370108604431152,
              0.11421550810337067
            ],
            [
              -0.062242694199085236,
              -0.1723828911781311,
              -0.12486839294433594
            ]
          ],
          [
            [
              -0.1466149091720581,
              0.18879574537277222,
              0.22363999485969543
            ],
            [
              0.05116189643740654,
              -0.05608458071947098,
              -0.10972525924444199
            ],
            [
              -0.0278647318482399,
              -0.0017098452663049102,
              0.09405212104320526
            ]
          ],
          [
            [
              0.12008310109376907,
              -0.15834197402000427,
              0.0883929580450058
            ],
            [
              -0.04251536726951599,
              0.20069125294685364,
              0.11983464658260345
            ],
            [
              0.010300124064087868,
              0.10958503186702728,
              0.05460243672132492
            ]
          ],
          [
            [
              -0.09531302005052567,
              -0.03260715678334236,
              -0.08553926646709442
            ],
            [
              -0.10136296600103378,
              0.011759852059185505,
              0.12233445793390274
            ],
            [
              -0.10568220168352127,
              -0.20349279046058655,
              -0.17965160310268402
            ]
          ],
          [
            [
              0.13055875897407532,
              -0.12607420980930328,
              -0.1665663719177246
            ],
            [
              -0.102460578083992,
              -0.14510409533977509,
              -0.15130947530269623
            ],
            [
              -0.06457912176847458,
              0.12382516264915466,
              0.2004123032093048
            ]
          ]
        ]
      },
      {
        "bias": -0.040632858872413635,
        "weights": [
          [
            [
              -0.12962231040000916,
              -0.17629438638687134,
              -0.148575097322464
            ],
            [
              -0.15365158021450043,
              0.02909005992114544,
              -0.13770464062690735
            ],
            [
              0.0007694078958593309,
              -0.18631191551685333,
              0.029674556106328964
            ]
          ],
          [
            [
              -0.04389089718461037,
              -0.0059760138392448425,
              -0.09375238418579102
            ],
            [
              0.1307498961687088,
              -0.009755834937095642,
              -0.07507608085870743
            ],
            [
              -0.12020319700241089,
              0.0405878908932209,
              0.11011938005685806
            ]
          ],
          [
            [
              0.176442950963974,
              0.1319584846496582,
              0.0809105783700943
            ],
            [
              0.11429281532764435,
              0.13063539564609528,
              0.020210878923535347
            ],
            [
              0.031832367181777954,
              -0.020621445029973984,
              0.00020006284466944635
            ]
          ],
          [
            [
              -0.15110383927822113,
              -0.09418479353189468,
              0.048348426818847656
            ],
            [
              -0.011510890908539295,
              -0.13953743875026703,
              -0.018262621015310287
            ],
            [
              -0.08099448680877686,
              0.20344583690166473,
              0.009285347536206245
            ]
          ],
          [
            [
              0.28414931893348694,
              -0.045176152139902115,
              0.30923745036125183
            ],
            [
              0.1705479621887207,
              0.1756325662136078,
              0.08792086690664291
            ],
            [
              -0.09532904624938965,
              0.12299434095621109,
              0.3106309473514557
            ]
          ],
          [
            [
              -0.16846905648708344,
              -0.19841158390045166,
              -0.11892338842153549
            ],
            [
              0.16486264765262604,
              0.03303642198443413,
              0.04564938321709633
            ],
            [
              -0.1558467298746109,
              0.06783023476600647,
              0.1093076691031456
            ]
          ],
          [
            [
              0.2124965935945511,
              0.16506457328796387,
              -0.04655056074261665
            ],
            [
              -0.09355410933494568,
              0.17243298888206482,
              0.005260111298412085
            ],
            [
              0.12280464172363281,
              -0.017090292647480965,
              -0.06310203671455383
            ]
          ],
          [
            [
              -0.03807348012924194,
              0.15683631598949432,
              0.0516560822725296
            ],
            [
              -0.008629298768937588,
              0.06765379756689072,
              0.09068169444799423
            ],
            [
              -0.1070980429649353,
              0.007043301127851009,
              0.08159320056438446
            ]
          ],
          [
            [
              0.004454385489225388,
              0.020089924335479736,
              0.17053961753845215
            ],
            [
              -0.09781200438737869,
              -0.1837785392999649,
              0.040325991809368134
            ],
            [
              -0.1627330631017685,
              -0.012027429416775703,
              -0.1282855123281479
            ]
          ],
          [
            [
              -0.06149871647357941,
              0.0937122255563736,
              -0.1496991366147995
            ],
            [
              -0.10974431037902832,
              0.1651250720024109,
              0.07258637249469757
            ],
            [
              -0.06589219719171524,
              -0.09925980865955353,
              0.1256493180990219
            ]
          ]
        ]
      },
      {
        "bias": -0.009355143643915653,
        "weights": [
          [
            [
              0.17385908961296082,
              0.06267628073692322,
              -0.04613396152853966
            ],
            [
              -0.02810697816312313,
              0.10310105979442596,
              -0.0616639107465744
            ],
            [
              0.04466569796204567,
              0.10126159340143204,
              0.1364704817533493
            ]
          ],
          [
            [
              0.14842535555362701,
              -0.004476707428693771,
              -0.06809640675783157
            ],
            [
              0.18557316064834595,
              0.0848192498087883,
              0.03212932497262955
            ],
            [
              -0.16504567861557007,
              0.005776511505246162,
              0.08689801394939423
            ]
          ],
          [
            [
              -0.006094495300203562,
              -0.03597088158130646,
              0.14858749508857727
            ],
            [
              -0.0845085084438324,
              0.06802923232316971,
              -0.1751473993062973
            ],
            [
              -0.1520949751138687,
              0.1240728572010994,
              -0.14716064929962158
            ]
          ],
          [
            [
              -0.07282136380672455,
              -0.14378951489925385,
              0.006345521658658981
            ],
            [
              0.06085456907749176,
              0.05362747609615326,
              -0.033760879188776016
            ],
            [
              -0.15427297353744507,
              -0.05047288164496422,
              -0.013078879565000534
            ]
          ],
          [
            [
              0.17870646715164185,
              0.22233174741268158,
              0.13121823966503143
            ],
            [
              0.2550744414329529,
              0.20825040340423584,
              0.11104697734117508
            ],
            [
              0.2949261963367462,
              0.35646677017211914,
              0.3692305386066437
            ]
          ],
          [
            [
              -0.02107967808842659,
              -0.09575530141592026,
              -0.030950358137488365
            ],
            [
              0.08192959427833557,
              0.061954621225595474,
              0.06380593776702881
            ],
            [
              0.04328504204750061,
              -0.012311276979744434,
              0.03924470394849777
            ]
          ],
          [
            [
              0.12974600493907928,
              -0.014265558682382107,
              -0.03300296515226364
            ],
            [
              -0.11078400909900665,
              -0.050545819103717804,
              -0.1343737691640854
            ],
            [
              -0.12130730599164963,
              -0.10290021449327469,
              0.18198029696941376
            ]
          ],
          [
            [
              -0.20772379636764526,
              -0.2176719754934311,
              -0.1308814287185669
            ],
            [
              -0.06271643191576004,
              -0.10179760307073593,
              -0.07387951761484146
            ],
            [
              -0.08764897286891937,
              -0.08086475729942322,
              -0.05075187236070633
            ]
          ],
          [
            [
              0.027402061969041824,
              -0.07755514234304428,
              -0.090404212474823
            ],
            [
              0.06954441219568253,
              0.14382396638393402,
              0.12594886124134064
            ],
            [
              0.2211228758096695,
              0.06521987169981003,
              0.1393042504787445
            ]
          ],
          [
            [
              0.07828085124492645,
              0.2175779938697815,
              -0.009539212100207806
            ],
            [
              0.21324345469474792,
              0.29050981998443604,
              0.12344764918088913
            ],
            [
              0.0994407907128334,
              0.31154751777648926,
              0.3728150725364685
            ]
          ]
        ]
      },
      {
        "bias": 0.27141112089157104,
        "weights": [
          [
            [
              0.11535346508026123,
              -0.03767108544707298,
              0.13153378665447235
            ],
            [
              0.06137418374419212,
              -0.06838937848806381,
              -0.03679684177041054
            ],
            [
              -0.19007869064807892,
              -0.06890872120857239,
              -0.14453116059303284
            ]
          ],
          [
            [
              -0.08006171882152557,
              0.11984721571207047,
              -0.09630027413368225
            ],
            [
              0.0051743388175964355,
              -0.1655988246202469,
              0.1587206870317459
            ],
            [
              -0.01693992130458355,
              -0.1069570928812027,
              -0.1724817454814911
            ]
          ],
          [
            [
              0.0891370177268982,
              -0.1187799796462059,
              -0.01759103126823902
            ],
            [
              0.155575230717659,
              0.03034801036119461,
              0.1363801211118698
            ],
            [
              0.09426979720592499,
              0.08524993807077408,
              -0.11347359418869019
            ]
          ],
          [
            [
              -0.07234754413366318,
              0.08675472438335419,
              -0.1618996560573578
            ],
            [
              0.02845948189496994,
              0.1555791199207306,
              -0.14115899801254272
            ],
            [
              0.10059727728366852,
              -0.16362978518009186,
              0.08034951239824295
            ]
          ],
          [
            [
              0.050251223146915436,
              0.0814669281244278,
              0.15117202699184418
            ],
            [
              0.11715453118085861,
              0.11745648831129074,
              0.04134554788470268
            ],
            [
              0.23894473910331726,
              0.09912166744470596,
              0.14754684269428253
            ]
          ],
          [
            [
              0.017235351726412773,
              0.11800096929073334,
              -0.12262081354856491
            ],
            [
              0.16984540224075317,
              0.2148755043745041,
              0.013005395419895649
            ],
            [
              0.13374705612659454,
              0.1999964714050293,
              -0.04988939315080643
            ]
          ],
          [
            [
              -0.17454668879508972,
              -0.05518181622028351,
              0.0361771434545517
            ],
            [
              -0.14132913947105408,
              0.06702777743339539,
              -0.12200337648391724
            ],
            [
              -0.08716501295566559,
              -0.05916106328368187,
              0.08183348178863525
            ]
          ],
          [
            [
              0.1499466598033905,
              0.07028326392173767,
              -0.13032138347625732
            ],
            [
              0.1892796903848648,
              0.1960301250219345,
              0.16895996034145355
            ],
            [
              0.09051980078220367,
              -0.006854815874248743,
              -0.030586134642362595
            ]
          ],
          [
            [
              0.10420592129230499,
              0.20851626992225647,
              0.21808165311813354
            ],
            [
              0.2801383137702942,
              0.20937490463256836,
              0.1987883746623993
            ],
            [
              0.03137526288628578,
              0.22210901975631714,
              -0.13185983896255493
            ]
          ],
          [
            [
              -0.052154429256916046,
              -0.21049048006534576,
              -0.20858287811279297
            ],
            [
              0.12667137384414673,
              0.030000271275639534,
              -0.002311836229637265
            ],
            [
              -0.17498646676540375,
              0.06939782947301865,
              0.05337176471948624
            ]
          ]
        ]
      },
      {
        "bias": 0.009527072310447693,
        "weights": [
          [
            [
              -0.0051469579339027405,
              0.11704245209693909,
              0.10148951411247253
            ],
            [
              -0.12165816873311996,
              0.01349305734038353,
              -0.15919148921966553
            ],
            [
              -0.1290326565504074,
              0.14450283348560333,
              -0.17440380156040192
            ]
          ],
          [
            [
              0.1708364486694336,
              0.033154260367155075,
              0.01219139527529478
            ],
            [
              -0.042441967874765396,
              0.061522986739873886,
              -0.12413220852613449
            ],
            [
              0.030505405738949776,
              0.044045355170965195,
              0.0038290894590318203
            ]
          ],
          [
            [
              0.04735984280705452,
              -0.04457496479153633,
              0.08621688932180405
            ],
            [
              -0.07510904222726822,
              -0.10527803748846054,
              -0.13320808112621307
            ],
            [
              -0.05026290938258171,
              -0.14636333286762238,
              0.0023403342347592115
            ]
          ],
          [
            [
              -0.09428750723600388,
              -0.06144440174102783,
              -0.08845696598291397
            ],
            [
              0.28883177042007446,
              0.09587196260690689,
              -0.015253246761858463
            ],
            [
              0.17527465522289276,
              0.18455803394317627,
              0.021450329571962357
            ]
          ],
          [
            [
              -0.15303993225097656,
              -0.07622169703245163,
              -0.08036139607429504
            ],
            [
              -0.07433377206325531,
              0.14558054506778717,
              -0.06503348052501678
            ],
            [
              -0.09023333340883255,
              0.32567769289016724,
              0.16161152720451355
            ]
          ],
          [
            [
              -0.19122076034545898,
              0.2428164929151535,
              0.1776019036769867
            ],
            [
              -0.09054261445999146,
              -0.17062468826770782,
              -0.12403849512338638
            ],
            [
              -0.04584548622369766,
              0.40460312366485596,
              -0.020062489435076714
            ]
          ],
          [
            [
              0.08376043289899826,
              0.12061787396669388,
              0.12982788681983948
            ],
            [
              0.10426117479801178,
              -0.010914484970271587,
              -0.06923778355121613
            ],
            [
              -0.012314742431044579,
              -0.1322079300880432,
              -0.020894821733236313
            ]
          ],
          [
            [
              0.046141091734170914,
              0.11771036684513092,
              -0.08392186462879181
            ],
            [
              -0.10208730399608612,
              0.11059308052062988,
              -0.10502208024263382
            ],
            [
              -0.2731356918811798,
              -0.09994519501924515,
              -0.1589490920305252
            ]
          ],
          [
            [
              0.15717819333076477,
              0.23828566074371338,
              0.1267542541027069
            ],
            [
              -0.23258981108665466,
              0.19347774982452393,
              0.10723196715116501
            ],
            [
              -0.13204209506511688,
              -0.3178611397743225,
              0.02177671156823635
            ]
          ],
          [
            [
              -0.0047797090373933315,
              0.07845097035169601,
              -0.0870102196931839
            ],
            [
              0.03265400230884552,
              0.12872740626335144,
              0.08998747915029526
            ],
            [
              -0.06263112276792526,
              0.03991745412349701,
              0.12657137215137482
            ]
          ]
        ]
      },
      {
        "bias": -0.005278795026242733,
        "weights": [
          [
            [
              -0.08578469604253769,
              0.03761961683630943,
              0.16198386251926422
            ],
            [
              0.01279122568666935,
              -0.11534800380468369,
              0.10719190537929535
            ],
            [
              0.02077878639101982,
              -0.039911750704050064,
              0.20829956233501434
            ]
          ],
          [
            [
              0.021951256319880486,
              0.07359305024147034,
              0.01059697289019823
            ],
            [
              0.04867864027619362,
              0.12353372573852539,
              -0.08114539831876755
            ],
            [
              -0.0720302015542984,
              0.07341764867305756,
              0.0730581283569336
            ]
          ],
          [
            [
              -0.1559484452009201,
              -0.0007128008874133229,
              0.05185244232416153
            ],
            [
              -0.05452525615692139,
              -0.0305448230355978,
              0.11528663337230682
            ],
            [
              -0.1324882060289383,
              0.12985879182815552,
              0.15899789333343506
            ]
          ],
          [
            [
              -0.07410570234060287,
              -0.029206113889813423,
              -0.04969678074121475
            ],
            [
              -0.041818708181381226,
              -0.015413246117532253,
              -0.20033082365989685
            ],
            [
              -0.16612212359905243,
              -0.01792839728295803,
              0.007638594601303339
            ]
          ],
          [
            [
              -0.2629932761192322,
              -0.16622406244277954,
              -0.23905867338180542
            ],
            [
              -0.1434125304222107,
              0.06738818436861038,
              0.17932112514972687
            ],
            [
              0.02970038168132305,
              0.018831949681043625,
              -0.05459316819906235
            ]
          ],
          [
            [
              -0.06023998185992241,
              0.10008199512958527,
              -0.042560938745737076
            ],
            [
              0.19889874756336212,
              0.05026320740580559,
              0.11368405818939209
            ],
            [
              -0.09499473124742508,
              0.024154016748070717,
              -0.10597077757120132
            ]
          ],
          [
            [
              0.10085032880306244,
              0.04968862608075142,
              0.11822644621133804
            ],
            [
              -0.04307664930820465,
              0.09229490160942078,
              0.19209304451942444
            ],
            [
              0.07203059643507004,
              0.13310830295085907,
              0.1531314104795456
            ]
          ],
          [
            [
              0.2360643893480301,
              0.15436483919620514,
              0.07837818562984467
            ],
            [
              0.027172600850462914,
              0.06781181693077087,
              0.052310116589069366
            ],
            [
              0.005979352165013552,
              0.13237258791923523,
              0.18119995296001434
            ]
          ],
          [
            [
              -0.15986751019954681,
              -0.050174813717603683,
              0.021430013701319695
            ],
            [
              0.1420440822839737,
              -0.044333867728710175,
              -0.0034456909634172916
            ],
            [
              0.06074921786785126,
              -0.10372266173362732,
              0.015255197882652283
            ]
          ],
          [
            [
              0.25284406542778015,
              0.05454917624592781,
              0.31015974283218384
            ],
            [
              0.2438538372516632,
              0.16557542979717255,
              0.29926174879074097
            ],
            [
              0.39868247509002686,
              0.22204139828681946,
              0.35212966799736023
            ]
          ]
        ]
      },
      {
        "bias": 0.02821478247642517,
        "weights": [
          [
            [
              -0.04143176227807999,
              -0.14214681088924408,
              0.1061675101518631
            ],
            [
              -0.14120839536190033,
              0.07165054231882095,
              -0.08306510001420975
            ],
            [
              -0.05034901574254036,
              -0.14743392169475555,
              -0.02918280102312565
            ]
          ],
          [
            [
              -0.1380656212568283,
              0.12404444813728333,
              -0.08458889275789261
            ],
            [
              0.048569049686193466,
              -0.16561272740364075,
              -0.14258672297000885
            ],
            [
              -0.0762382447719574,
              -0.05958091840147972,
              -0.11169569194316864
            ]
          ],
          [
            [
              0.10146037489175797,
              0.036909058690071106,
              -0.08812496811151505
            ],
            [
              0.06867989152669907,
              -0.14499738812446594,
              0.09707637131214142
            ],
            [
              0.13019099831581116,
              0.16338182985782623,
              -0.038500502705574036
            ]
          ],
          [
            [
              -0.026242908090353012,
              0.1287374347448349,
              0.004042946267873049
            ],
            [
              0.3042412996292114,
              0.3694421052932739,
              0.252390593290329
            ],
            [
              -0.09999274462461472,
              0.22480061650276184,
              0.04326430335640907
            ]
          ],
          [
            [
              0.22027891874313354,
              0.14392441511154175,
              0.44076183438301086
            ],
            [
              0.25023046135902405,
              -0.32391151785850525,
              -0.058494824916124344
            ],
            [
              0.15025070309638977,
              -0.21190045773983002,
              -0.07721704244613647
            ]
          ],
          [
            [
              0.15345270931720734,
              -0.28005754947662354,
              0.3299840986728668
            ],
            [
              0.1731129139661789,
              -0.09015051275491714,
              -0.020847981795668602
            ],
            [
              0.33496972918510437,
              -0.24052831530570984,
              0.12104598432779312
            ]
          ],
          [
            [
              -0.009471463039517403,
              -0.064376100897789,
              0.1408815234899521
            ],
            [
              0.09746585041284561,
              0.058878540992736816,
              0.24937593936920166
            ],
            [
              0.261921763420105,
              0.17641498148441315,
              0.09091893583536148
            ]
          ],
          [
            [
              0.30991679430007935,
              0.04914547875523567,
              0.008594268001616001
            ],
            [
              0.21383604407310486,
              -0.16893702745437622,
              -0.10676980763673782
            ],
            [
              0.0773814246058464,
              -0.01192195899784565,
              0.008401645347476006
            ]
          ],
          [
            [
              0.04292820766568184,
              0.044654641300439835,
              -0.12574149668216705
            ],
            [
              -0.16693229973316193,
              -0.03593369573354721,
              -0.1270938366651535
            ],
            [
              0.11198364198207855,
              -0.05441069230437279,
              -0.1827412098646164
            ]
          ],
          [
            [
              -0.0814017653465271,
              -0.20058254897594452,
              0.13596175611019135
            ],
            [
              0.052150048315525055,
              0.09955619275569916,
              -0.15401291847229004
            ],
            [
              -0.23225155472755432,
              -0.05469266697764397,
              0.03777170181274414
            ]
          ]
        ]
      },
      {
        "bias": -0.01980282925069332,
        "weights": [
          [
            [
              0.0669718012213707,
              0.08834855258464813,
              -0.05630796030163765
            ],
            [
              0.1529533565044403,
              0.027626827359199524,
              -0.039912186563014984
            ],
            [
              -0.09730259329080582,
              0.1804559826850891,
              -0.13360163569450378
            ]
          ],
          [
            [
              -0.03265460953116417,
              0.054809462279081345,
              0.17854224145412445
            ],
            [
              0.1621432602405548,
              0.06778984516859055,
              -0.025197558104991913
            ],
            [
              0.17021901905536652,
              0.07800779491662979,
              0.07431457936763763
            ]
          ],
          [
            [
              0.1793823391199112,
              -0.1499125212430954,
              -0.043499622493982315
            ],
            [
              0.07192353904247284,
              -0.1339627206325531,
              -0.17595945298671722
            ],
            [
              0.05323387682437897,
              0.12440337985754013,
              -0.13970448076725006
            ]
          ],
          [
            [
              -0.09064396470785141,
              -0.10738611221313477,
              0.03259885311126709
            ],
            [
              0.05022589862346649,
              -0.17608565092086792,
              -0.027305152267217636
            ],
            [
              -0.11359275132417679,
              -0.13195684552192688,
              0.11132648587226868
            ]
          ],
          [
            [
              0.1605323702096939,
              -0.1494113802909851,
              -0.07573749125003815
            ],
            [
              0.09780197590589523,
              0.07312037795782089,
              0.0985184907913208
            ],
            [
              -0.09687277674674988,
              0.02195710502564907,
              -0.14781534671783447
            ]
          ],
          [
            [
              -0.16520152986049652,
              0.12646141648292542,
              -0.07487853616476059
            ],
            [
              -0.029681967571377754,
              -0.06255540996789932,
              -0.07230573892593384
            ],
            [
              -0.00916034635156393,
              -0.16888904571533203,
              0.07298114150762558
            ]
          ],
          [
            [
              0.11018216609954834,
              0.05310754105448723,
              0.02150682546198368
            ],
            [
              -0.14148938655853271,
              0.1162634938955307,
              -0.03913211077451706
            ],
            [
              0.1369290053844452,
              0.07352554798126221,
              0.17011921107769012
            ]
          ],
          [
            [
              0.10489727556705475,
              -0.11767897009849548,
              -0.07579178363084793
            ],
            [
              -0.17629525065422058,
              -0.16914910078048706,
              -0.017382383346557617
            ],
            [
              0.05247506871819496,
              -0.06902067363262177,
              0.17746154963970184
            ]
          ],
          [
            [
              0.14002494513988495,
              -0.03222585842013359,
              -0.0840359777212143
            ],
            [
              0.005887395702302456,
              -0.08209431916475296,
              -0.15868084132671356
            ],
            [
              -0.14779965579509735,
              0.058924347162246704,
              -0.17943622171878815
            ]
          ],
          [
            [
              -0.03330657258629799,
              0.11211412400007248,
              -0.06838403642177582
            ],
            [
              -0.03377915918827057,
              -0.07529544085264206,
              -0.09261195361614227
            ],
            [
              0.05989515408873558,
              0.036368370056152344,
              0.0519229955971241
            ]
          ]
        ]
      },
      {
        "bias": 0.1776905059814453,
        "weights": [
          [
            [
              -0.18800844252109528,
              0.12871235609054565,
              0.07980073988437653
            ],
            [
              -0.03125157207250595,
              0.06713356822729111,
              0.11599233746528625
            ],
            [
              0.10780253261327744,
              0.0002213075931649655,
              -0.133250892162323
            ]
          ],
          [
            [
              0.1713201403617859,
              0.16052627563476562,
              0.17133758962154388
            ],
            [
              -0.026926273480057716,
              0.13532878458499908,
              0.22602103650569916
            ],
            [
              0.09658681601285934,
              0.04223860800266266,
              0.1871110051870346
            ]
          ],
          [
            [
              -0.08854613453149796,
              -0.1574469953775406,
              0.17708423733711243
            ],
            [
              -0.13192087411880493,
              -0.03718384727835655,
              -0.08636074513196945
            ],
            [
              -0.05818340927362442,
              0.00045641674660146236,
              -0.023970620706677437
            ]
          ],
          [
            [
              -0.05245181545615196,
              0.09981906414031982,
              -0.01847129315137863
            ],
            [
              0.0759027823805809,
              -0.025241568684577942,
              0.06309713423252106
            ],
            [
              0.15867537260055542,
              -0.08754446357488632,
              0.04173629358410835
            ]
          ],
          [
            [
              0.014795834198594093,
              -0.19215820729732513,
              0.08459187299013138
            ],
            [
              0.05100072920322418,
              -0.09297314286231995,
              0.02889810875058174
            ],
            [
              -0.09228632599115372,
              0.03709828481078148,
              -0.29010456800460815
            ]
          ],
          [
            [
              0.08191480487585068,
              -0.12374459952116013,
              -0.116489939391613
            ],
            [
              0.017060112208127975,
              -0.11452767997980118,
              0.037642452865839005
            ],
            [
              -0.18526595830917358,
              -0.054328057914972305,
              -0.11539863795042038
            ]
          ],
          [
            [
              -0.19257576763629913,
              -0.09232049435377121,
              -0.14945372939109802
            ],
            [
              -0.19025129079818726,
              -0.07962501794099808,
              -0.05089603364467621
            ],
            [
              -0.1651178002357483,
              0.003903592238202691,
              0.005192778538912535
            ]
          ],
          [
            [
              -0.017675308510661125,
              -0.026726434007287025,
              -0.0006746974540874362
            ],
            [
              0.013873896561563015,
              0.05912432447075844,
              -0.16414648294448853
            ],
            [
              -0.3198195695877075,
              -0.13257230818271637,
              -0.16885484755039215
            ]
          ],
          [
            [
              0.25149837136268616,
              -0.010918031446635723,
              -0.009384348057210445
            ],
            [
              0.21692578494548798,
              0.22000998258590698,
              0.17479002475738525
            ],
            [
              0.07113777846097946,
              -0.07900521159172058,
              0.2685239613056183
            ]
          ],
          [
            [
              -0.1812066286802292,
              -0.1603478193283081,
              0.08558156341314316
            ],
            [
              0.007044789381325245,
              -0.05184902623295784,
              0.017207855358719826
            ],
            [
              0.05618997663259506,
              -0.10286395996809006,
              -0.2236614227294922
            ]
          ]
        ]
      },
      {
        "bias": 0.018696868792176247,
        "weights": [
          [
            [
              -0.11786088347434998,
              0.1453484743833542,
              -0.05341126397252083
            ],
            [
              0.16041319072246552,
              0.14792875945568085,
              0.0012812716886401176
            ],
            [
              -0.01898682303726673,
              -0.1280031055212021,
              0.02827511727809906
            ]
          ],
          [
            [
              -0.06058025732636452,
              0.11276939511299133,
              -0.10371390730142593
            ],
            [
              0.15331092476844788,
              0.1042344868183136,
              0.10242333263158798
            ],
            [
              -0.03821215778589249,
              0.11731554567813873,
              -0.00912692304700613
            ]
          ],
          [
            [
              -0.08243513107299805,
              0.017834026366472244,
              -0.09758907556533813
            ],
            [
              0.10009416937828064,
              -0.04743866249918938,
              0.011700348928570747
            ],
            [
              -0.157217875123024,
              -0.1333419233560562,
              0.13779713213443756
            ]
          ],
          [
            [
              -0.17664740979671478,
              -0.0039528184570372105,
              0.011613765731453896
            ],
            [
              -0.050772227346897125,
              -0.06539195775985718,
              -0.14383777976036072
            ],
            [
              -0.013087284751236439,
              0.14941222965717316,
              0.11840943992137909
            ]
          ],
          [
            [
              -0.008784083649516106,
              -0.05551167577505112,
              0.06567804515361786
            ],
            [
              0.07594984769821167,
              -0.06345202773809433,
              -0.02529604360461235
            ],
            [
              -0.05256476625800133,
              0.030009442940354347,
              0.005075246095657349
            ]
          ],
          [
            [
              -0.08538074791431427,
              -0.1363750547170639,
              -0.10627713799476624
            ],
            [
              0.0038416129536926746,
              -0.14559103548526764,
              -0.08294197171926498
            ],
            [
              0.05763286352157593,
              -0.13792750239372253,
              0.08575016260147095
            ]
          ],
          [
            [
              0.10259784013032913,
              -0.05085708200931549,
              -0.1875438541173935
            ],
            [
              -0.13658657670021057,
              -0.04127399995923042,
              -0.14808058738708496
            ],
            [
              0.09855309873819351,
              0.011928077787160873,
              -0.08200549334287643
            ]
          ],
          [
            [
              -0.165610209107399,
              -0.14293283224105835,
              0.11677306145429611
            ],
            [
              -0.012497673742473125,
              0.11762917041778564,
              -0.178334578871727
            ],
            [
              -0.07049766182899475,
              0.09285034984350204,
              -0.14166678488254547
            ]
          ],
          [
            [
              0.07766466587781906,
              0.08528045564889908,
              0.039893705397844315
            ],
            [
              0.06890395283699036,
              -0.04342252016067505,
              0.10119955986738205
            ],
            [
              0.11987882107496262,
              0.08945559710264206,
              -0.05321502313017845
            ]
          ],
          [
            [
              0.07202373445034027,
              -0.011121939867734909,
              0.03950969874858856
            ],
            [
              -0.0002443896955810487,
              -0.14442317187786102,
              0.15301883220672607
            ],
            [
              0.052749089896678925,
              -0.08290141820907593,
              0.15613242983818054
            ]
          ]
        ]
      }
    ]
  },
  "relu_1_2": {
    "input_shape": [
      60,
      60,
      10
    ],
    "output_shape": [
      60,
      60,
      10
    ],
    "num_neurons": 10
  },
  "max_pool_1": {
    "input_shape": [
      60,
      60,
      10
    ],
    "output_shape": [
      30,
      30,
      10
    ],
    "num_neurons": 10
  },
  "conv_2_1": {
    "input_shape": [
      30,
      30,
      10
    ],
    "output_shape": [
      28,
      28,
      10
    ],
    "num_neurons": 10,
    "weights": [
      {
        "bias": 0.2301887571811676,
        "weights": [
          [
            [
              0.03167574107646942,
              0.11777034401893616,
              -0.054257772862911224
            ],
            [
              -0.2185535430908203,
              0.11890875548124313,
              -0.04049515724182129
            ],
            [
              0.029683981090784073,
              0.08297114819288254,
              -0.1716267466545105
            ]
          ],
          [
            [
              -0.003649582387879491,
              0.06849270313978195,
              -0.11103938519954681
            ],
            [
              0.05084819719195366,
              -0.13537584245204926,
              0.020254390314221382
            ],
            [
              0.07275832444429398,
              0.06435198336839676,
              -0.17435719072818756
            ]
          ],
          [
            [
              0.08977393060922623,
              -0.06753888726234436,
              0.09483034163713455
            ],
            [
              0.0523323155939579,
              -0.04065721854567528,
              -0.2594574987888336
            ],
            [
              -0.07188654690980911,
              -0.0017738139722496271,
              -0.1275050938129425
            ]
          ],
          [
            [
              0.004029619507491589,
              0.2513323724269867,
              0.08184707164764404
            ],
            [
              0.23295465111732483,
              0.18777453899383545,
              0.10030511766672134
            ],
            [
              0.10108762979507446,
              0.02228538878262043,
              0.19313614070415497
            ]
          ],
          [
            [
              0.0025299210101366043,
              -0.26452207565307617,
              -0.18482352793216705
            ],
            [
              -0.18140123784542084,
              0.06358960270881653,
              -0.09316371381282806
            ],
            [
              -0.09824410080909729,
              -0.21359997987747192,
              -0.16021351516246796
            ]
          ],
          [
            [
              -0.25114303827285767,
              0.03401271998882294,
              -0.29816776514053345
            ],
            [
              -0.26871946454048157,
              -0.02199859358370304,
              -0.15969091653823853
            ],
            [
              -0.23096926510334015,
              -0.2059737741947174,
              -0.2028341442346573
            ]
          ],
          [
            [
              -0.09615136682987213,
              -0.09940965473651886,
              -0.04381871968507767
            ],
            [
              -0.0831441655755043,
              -0.19959859549999237,
              -0.07056726515293121
            ],
            [
              0.05216396600008011,
              -0.108790822327137,
              -0.23394958674907684
            ]
          ],
          [
            [
              -0.04474003240466118,
              -0.15753595530986786,
              -0.09132013469934464
            ],
            [
              -0.17082059383392334,
              0.1254870444536209,
              0.06971731036901474
            ],
            [
              0.07247240841388702,
              0.15130601823329926,
              0.06306257098913193
            ]
          ],
          [
            [
              0.08242276310920715,
              0.271268755197525,
              0.2883157730102539
            ],
            [
              0.13366597890853882,
              0.12501682341098785,
              -0.006539763882756233
            ],
            [
              0.14678484201431274,
              0.2991550862789154,
              0.19434988498687744
            ]
          ],
          [
            [
              0.04990686476230621,
              0.006478918716311455,
              0.07044724375009537
            ],
            [
              0.18821923434734344,
              0.08093395829200745,
              -0.009463057853281498
            ],
            [
              -0.10594980418682098,
              0.010316705331206322,
              -0.10266350209712982
            ]
          ]
        ]
      },
      {
        "bias": 0.12691141664981842,
        "weights": [
          [
            [
              0.095004603266716,
              0.057495664805173874,
              0.08230188488960266
            ],
            [
              0.0751151368021965,
              0.08533920347690582,
              -0.1476108431816101
            ],
            [
              0.003563244827091694,
              0.06252365559339523,
              0.008075287565588951
            ]
          ],
          [
            [
              0.22248147428035736,
              -0.08831097185611725,
              0.19159293174743652
            ],
            [
              -0.05051371082663536,
              -0.09541474282741547,
              0.09241971373558044
            ],
            [
              -0.07534663379192352,
              -0.09624182432889938,
              -0.13625697791576385
            ]
          ],
          [
            [
              0.1206284761428833,
              -0.08424989134073257,
              0.22155362367630005
            ],
            [
              0.12457100301980972,
              -0.1768004447221756,
              -0.14037184417247772
            ],
            [
              -0.270944744348526,
              -0.009279119782149792,
              -0.15842179954051971
            ]
          ],
          [
            [
              0.29167529940605164,
              -0.02581002749502659,
              0.17228585481643677
            ],
            [
              -0.05830661952495575,
              -0.008454172872006893,
              0.19893324375152588
            ],
            [
              0.049807995557785034,
              -0.12750911712646484,
              0.10136929154396057
            ]
          ],
          [
            [
              0.1281336098909378,
              0.17181409895420074,
              0.2087678760290146
            ],
            [
              0.1379544585943222,
              0.264931857585907,
              0.07997910678386688
            ],
            [
              0.1254739910364151,
              -0.0684017539024353,
              0.11823011189699173
            ]
          ],
          [
            [
              -0.05907338857650757,
              0.039252329617738724,
              -0.016924511641263962
            ],
            [
              0.05843482166528702,
              0.010404744185507298,
              0.03628529980778694
            ],
            [
              -0.11674970388412476,
              0.10940127819776535,
              -0.019721366465091705
            ]
          ],
          [
            [
              -0.03065277449786663,
              0.16771964728832245,
              0.08980891108512878
            ],
            [
              -0.16164037585258484,
              0.06541803479194641,
              0.04538814350962639
            ],
            [
              -0.1427469253540039,
              -0.16902904212474823,
              -0.021711235865950584
            ]
          ],
          [
            [
              -0.0026467840652912855,
              -0.11178041994571686,
              -0.09122263640165329
            ],
            [
              0.08183775842189789,
              0.1637977808713913,
              -0.10772528499364853
            ],
            [
              0.006303181406110525,
              -0.07942409813404083,
              0.13573049008846283
            ]
          ],
          [
            [
              -0.0675048977136612,
              -0.05608570948243141,
              -0.04170915484428406
            ],
            [
              0.16202622652053833,
              0.23985496163368225,
              -0.06602558493614197
            ],
            [
              0.12272092700004578,
              0.18854479491710663,
              0.22055836021900177
            ]
          ],
          [
            [
              -0.07666771858930588,
              -0.1312151551246643,
              -0.059330131858587265
            ],
            [
              -0.15993519127368927,
              0.14641296863555908,
              0.13320587575435638
            ],
            [
              0.1347326785326004,
              -0.03576183319091797,
              -0.14418193697929382
            ]
          ]
        ]
      },
      {
        "bias": -0.10968640446662903,
        "weights": [
          [
            [
              -0.01744810678064823,
              0.1056971624493599,
              0.11960013955831528
            ],
            [
              0.0023590298369526863,
              0.04873611778020859,
              0.03342202678322792
            ],
            [
              -0.062188707292079926,
              0.02822738140821457,
              -0.019220726564526558
            ]
          ],
          [
            [
              -0.12916795909404755,
              -0.032558273524045944,
              -0.148121178150177
            ],
            [
              0.07995869219303131,
              -0.005560434423387051,
              0.0668681263923645
            ],
            [
              0.24875523149967194,
              0.2318093627691269,
              0.05229386314749718
            ]
          ],
          [
            [
              0.12083446234464645,
              -0.05479580909013748,
              0.13075371086597443
            ],
            [
              0.18559543788433075,
              0.3769282400608063,
              0.18982064723968506
            ],
            [
              0.2954248785972595,
              0.22590671479701996,
              0.0673811212182045
            ]
          ],
          [
            [
              -0.16938094794750214,
              -0.12492777407169342,
              0.028078513219952583
            ],
            [
              0.2786126136779785,
              0.04975751414895058,
              0.02509719505906105
            ],
            [
              0.09633579850196838,
              0.07356823235750198,
              0.10349445790052414
            ]
          ],
          [
            [
              0.16078941524028778,
              -0.021383142098784447,
              0.20677393674850464
            ],
            [
              -0.03962302953004837,
              -0.0059917219914495945,
              0.10697461664676666
            ],
            [
              0.01480703055858612,
              0.25743186473846436,
              -0.02519562467932701
            ]
          ],
          [
            [
              -0.1342250406742096,
              0.14991319179534912,
              -0.07938043028116226
            ],
            [
              -0.19385221600532532,
              -0.16834142804145813,
              0.08150437474250793
            ],
            [
              0.06490521132946014,
              0.08813919872045517,
              -0.18968327343463898
            ]
          ],
          [
            [
              0.04263509064912796,
              0.10990054160356522,
              0.1070856899023056
            ],
            [
              0.16540518403053284,
              -0.06985557079315186,
              0.08079075068235397
            ],
            [
              0.05659277364611626,
              0.2844468057155609,
              -0.058046646416187286
            ]
          ],
          [
            [
              -0.15333868563175201,
              -0.09458994120359421,
              -0.08268548548221588
            ],
            [
              -0.09255007654428482,
              0.018032070249319077,
              -0.07718504220247269
            ],
            [
              0.12399549037218094,
              -0.09962792694568634,
              0.0016134425532072783
            ]
          ],
          [
            [
              0.10003723949193954,
              0.049759380519390106,
              -0.09317293763160706
            ],
            [
              0.0827588140964508,
              0.07316888868808746,
              0.0066691008396446705
            ],
            [
              0.08854824304580688,
              0.013126092031598091,
              -0.02850923128426075
            ]
          ],
          [
            [
              -0.05502483248710632,
              -0.1455639898777008,
              0.12410896271467209
            ],
            [
              -0.08284371346235275,
              0.10457852482795715,
              -0.019341960549354553
            ],
            [
              0.03536662459373474,
              0.09797635674476624,
              0.14310845732688904
            ]
          ]
        ]
      },
      {
        "bias": 0.021138804033398628,
        "weights": [
          [
            [
              -0.13853147625923157,
              0.15100277960300446,
              0.17054644227027893
            ],
            [
              -0.14117340743541718,
              -0.06155501306056976,
              -0.17642800509929657
            ],
            [
              -0.049100760370492935,
              -0.12209314852952957,
              -0.010273679159581661
            ]
          ],
          [
            [
              -0.09403865039348602,
              0.056078024208545685,
              0.02139361947774887
            ],
            [
              0.0022700554691255093,
              0.16014699637889862,
              0.003747011534869671
            ],
            [
              -0.04689200595021248,
              -0.09524031728506088,
              -0.13386346399784088
            ]
          ],
          [
            [
              -0.15512977540493011,
              0.10493948310613632,
              0.09391328692436218
            ],
            [
              -0.12058329582214355,
              -0.07215048372745514,
              -0.005219313316047192
            ],
            [
              0.09575092792510986,
              -0.03259788453578949,
              -0.09445242583751678
            ]
          ],
          [
            [
              0.039710596203804016,
              -0.10274168103933334,
              0.16068588197231293
            ],
            [
              -0.02601923607289791,
              -0.04042847082018852,
              0.09428728371858597
            ],
            [
              -0.1052209734916687,
              -0.16419653594493866,
              -0.10485498607158661
            ]
          ],
          [
            [
              -0.03131373971700668,
              0.18303991854190826,
              -0.0048136538825929165
            ],
            [
              0.05013815313577652,
              -0.09123556315898895,
              -0.10820288211107254
            ],
            [
              0.07578756660223007,
              -0.028644949197769165,
              -0.12594999372959137
            ]
          ],
          [
            [
              0.159754678606987,
              0.06600084155797958,
              0.09567184746265411
            ],
            [
              -0.09508608281612396,
              0.1320021003484726,
              -0.13869094848632812
            ],
            [
              -0.17695751786231995,
              0.09681103378534317,
              0.03959456831216812
            ]
          ],
          [
            [
              0.1856178492307663,
              0.07379189878702164,
              0.01061142235994339
            ],
            [
              -0.08342835307121277,
              -0.09181343764066696,
              -0.03681161627173424
            ],
            [
              -0.17040134966373444,
              0.09429309517145157,
              0.12140022963285446
            ]
          ],
          [
            [
              -0.03500473126769066,
              0.05889600142836571,
              -0.06412563472986221
            ],
            [
              -0.05512731149792671,
              -0.139097198843956,
              -0.14667776226997375
            ],
            [
              -0.12539394199848175,
              0.01598811149597168,
              0.120355524122715
            ]
          ],
          [
            [
              -0.14375841617584229,
              0.12003003805875778,
              0.08508424460887909
            ],
            [
              -0.08534049242734909,
              0.06261937320232391,
              0.02986259013414383
            ],
            [
              0.031578291207551956,
              -0.16458182036876678,
              0.17488908767700195
            ]
          ],
          [
            [
              -0.17643409967422485,
              0.017127176746726036,
              -0.17291493713855743
            ],
            [
              0.0506288968026638,
              -0.17348513007164001,
              0.11639586836099625
            ],
            [
              0.1803104430437088,
              0.10413048416376114,
              -0.037119414657354355
            ]
          ]
        ]
      },
      {
        "bias": 0.03816701099276543,
        "weights": [
          [
            [
              0.19950319826602936,
              0.044932518154382706,
              0.11536899209022522
            ],
            [
              0.17221447825431824,
              0.10802076756954193,
              -0.02101399190723896
            ],
            [
              -0.13105221092700958,
              -0.04775421321392059,
              0.03568026050925255
            ]
          ],
          [
            [
              -0.026503615081310272,
              0.04451485723257065,
              -0.07874017208814621
            ],
            [
              0.03768052160739899,
              0.19907146692276,
              0.1316755712032318
            ],
            [
              -0.06456919759511948,
              -0.09795093536376953,
              -0.027005305513739586
            ]
          ],
          [
            [
              -0.0722479596734047,
              -0.1334310621023178,
              0.2169681042432785
            ],
            [
              -0.06498342752456665,
              -0.2374303936958313,
              0.05687247961759567
            ],
            [
              -0.20604607462882996,
              -0.222002774477005,
              -0.012371940538287163
            ]
          ],
          [
            [
              0.2462145835161209,
              0.09240753203630447,
              0.20523755252361298
            ],
            [
              0.009266923181712627,
              0.29245302081108093,
              0.2685898244380951
            ],
            [
              -0.3633206784725189,
              -0.023513680323958397,
              -0.20516149699687958
            ]
          ],
          [
            [
              0.1624385267496109,
              0.0987810492515564,
              0.15423469245433807
            ],
            [
              -0.04734291508793831,
              0.14446310698986053,
              0.007837079465389252
            ],
            [
              0.23764470219612122,
              0.11393222212791443,
              -0.07919716089963913
            ]
          ],
          [
            [
              0.07687348872423172,
              0.2908107340335846,
              0.13934104144573212
            ],
            [
              0.27754029631614685,
              0.11895979940891266,
              0.15798644721508026
            ],
            [
              0.12908320128917694,
              -0.05519244447350502,
              0.01064321305602789
            ]
          ],
          [
            [
              -0.016700610518455505,
              0.01520152110606432,
              0.2489050030708313
            ],
            [
              0.1425599753856659,
              0.05932200327515602,
              0.2530573308467865
            ],
            [
              0.18155831098556519,
              0.1644214540719986,
              0.2120790034532547
            ]
          ],
          [
            [
              -0.054678432643413544,
              -0.030463997274637222,
              0.12679943442344666
            ],
            [
              -0.14680889248847961,
              0.13630397617816925,
              0.1643231064081192
            ],
            [
              -0.14647337794303894,
              -0.14342047274112701,
              0.09559087455272675
            ]
          ],
          [
            [
              0.15909409523010254,
              0.07052376121282578,
              -0.018899833783507347
            ],
            [
              -0.005685504525899887,
              -0.031861644238233566,
              0.1765637844800949
            ],
            [
              -0.07888243347406387,
              0.03334563970565796,
              -0.07614298164844513
            ]
          ],
          [
            [
              0.13263843953609467,
              -0.12517105042934418,
              0.014225293882191181
            ],
            [
              0.021268833428621292,
              -0.16454626619815826,
              -0.17319679260253906
            ],
            [
              -0.08823253959417343,
              0.1476464718580246,
              0.005021880380809307
            ]
          ]
        ]
      },
      {
        "bias": 0.15428730845451355,
        "weights": [
          [
            [
              0.049699366092681885,
              0.011483956128358841,
              0.059064529836177826
            ],
            [
              -0.13818973302841187,
              0.1054728627204895,
              0.012847529724240303
            ],
            [
              0.09723616391420364,
              0.13779067993164062,
              -0.017977263778448105
            ]
          ],
          [
            [
              -0.11987820267677307,
              -0.015909934416413307,
              -0.11592186242341995
            ],
            [
              0.01782560534775257,
              0.03948567435145378,
              -0.10054045170545578
            ],
            [
              0.13157430291175842,
              -0.1317765861749649,
              -0.053491607308387756
            ]
          ],
          [
            [
              0.15477719902992249,
              0.08326273411512375,
              0.13206161558628082
            ],
            [
              -0.10049406439065933,
              -0.03603753820061684,
              0.07604189962148666
            ],
            [
              -0.08566038310527802,
              0.16721858084201813,
              0.13356228172779083
            ]
          ],
          [
            [
              0.0608912855386734,
              0.017448050901293755,
              -0.0847616046667099
            ],
            [
              0.1467456817626953,
              0.030660167336463928,
              -0.16352643072605133
            ],
            [
              -0.1068849191069603,
              -0.043097298592329025,
              -0.025149453431367874
            ]
          ],
          [
            [
              -0.16432535648345947,
              -0.031885549426078796,
              0.10216314345598221
            ],
            [
              -0.13784198462963104,
              9.202060027746484e-05,
              0.033708762377500534
            ],
            [
              -0.10011495649814606,
              -0.06213343143463135,
              -0.019287511706352234
            ]
          ],
          [
            [
              -0.1318567991256714,
              0.03262550011277199,
              -0.17330501973628998
            ],
            [
              0.010238700546324253,
              -0.16091768443584442,
              -0.11839444190263748
            ],
            [
              -0.06287271529436111,
              -0.09031841158866882,
              -0.042625293135643005
            ]
          ],
          [
            [
              -0.11115390807390213,
              -0.10972148925065994,
              0.11420152336359024
            ],
            [
              -0.009300814010202885,
              -0.018426058813929558,
              0.00015485359472222626
            ],
            [
              0.03871900960803032,
              -0.18176113069057465,
              0.03217102587223053
            ]
          ],
          [
            [
              -0.15923868119716644,
              0.155027374625206,
              -0.04816879332065582
            ],
            [
              -0.14427927136421204,
              -0.044388297945261,
              0.04958583042025566
            ],
            [
              -0.026421524584293365,
              -0.06274052709341049,
              -0.0997934490442276
            ]
          ],
          [
            [
              0.06010625883936882,
              -0.010406563058495522,
              0.1086791381239891
            ],
            [
              -0.051692914217710495,
              0.09441264718770981,
              0.020275482907891273
            ],
            [
              0.03230247646570206,
              -0.06197496876120567,
              -0.017729558050632477
            ]
          ],
          [
            [
              -0.1379067450761795,
              0.08484704047441483,
              -0.001948764082044363
            ],
            [
              0.04060939699411392,
              0.1531635820865631,
              -0.019533125683665276
            ],
            [
              0.05290382355451584,
              -0.060976553708314896,
              -0.09989457577466965
            ]
          ]
        ]
      },
      {
        "bias": 0.16380882263183594,
        "weights": [
          [
            [
              0.10624383389949799,
              -0.020379167050123215,
              0.10375300794839859
            ],
            [
              -0.05479181185364723,
              0.1302867978811264,
              0.13841179013252258
            ],
            [
              0.06695502996444702,
              -0.09270069003105164,
              0.15864671766757965
            ]
          ],
          [
            [
              0.01231983583420515,
              -0.04401684179902077,
              -0.012781945057213306
            ],
            [
              -0.04136723652482033,
              -0.10339844226837158,
              -0.212323397397995
            ],
            [
              0.09608457237482071,
              0.0007214254583232105,
              0.17695529758930206
            ]
          ],
          [
            [
              0.002888853196054697,
              0.04915479198098183,
              0.030613597482442856
            ],
            [
              0.18486624956130981,
              0.3046185374259949,
              -0.06988119333982468
            ],
            [
              0.2813541889190674,
              0.07331832498311996,
              0.21750716865062714
            ]
          ],
          [
            [
              -0.05900135636329651,
              0.0550311878323555,
              0.05367698520421982
            ],
            [
              -0.028292708098888397,
              -0.05494921654462814,
              0.03696105629205704
            ],
            [
              0.33304426074028015,
              0.3039368987083435,
              0.23935100436210632
            ]
          ],
          [
            [
              -0.07573695480823517,
              -0.04372846707701683,
              -0.19925740361213684
            ],
            [
              -0.2875365614891052,
              -0.05872182548046112,
              -0.18907326459884644
            ],
            [
              -0.20498301088809967,
              -0.011270681396126747,
              -0.12636005878448486
            ]
          ],
          [
            [
              0.010649120435118675,
              0.23429779708385468,
              0.150393545627594
            ],
            [
              0.01655188575387001,
              -0.14710336923599243,
              -0.15309065580368042
            ],
            [
              0.19587913155555725,
              -0.13815920054912567,
              0.13364750146865845
            ]
          ],
          [
            [
              -0.2846403121948242,
              -0.11602586507797241,
              -0.19483903050422668
            ],
            [
              -0.0067592766135931015,
              -0.0032613715156912804,
              -0.14363238215446472
            ],
            [
              -0.04860527068376541,
              -0.13154934346675873,
              -0.2812000811100006
            ]
          ],
          [
            [
              -0.08845465630292892,
              -0.02587880752980709,
              0.17500406503677368
            ],
            [
              -0.09821603447198868,
              0.010555943474173546,
              -0.026649028062820435
            ],
            [
              -0.14028657972812653,
              0.1803269386291504,
              0.04570646584033966
            ]
          ],
          [
            [
              0.009456141851842403,
              -0.1836146116256714,
              0.08159142732620239
            ],
            [
              -0.1618022918701172,
              0.022123876959085464,
              -0.2086697816848755
            ],
            [
              -0.03761163726449013,
              0.03544611856341362,
              -0.15874794125556946
            ]
          ],
          [
            [
              -0.05011798068881035,
              0.12912984192371368,
              0.097720205783844
            ],
            [
              -0.09659828990697861,
              -0.0028898390009999275,
              0.026434261351823807
            ],
            [
              -0.14614415168762207,
              0.037118297070264816,
              0.1683662384748459
            ]
          ]
        ]
      },
      {
        "bias": 0.07025215029716492,
        "weights": [
          [
            [
              -0.21666786074638367,
              0.060819029808044434,
              -0.12934623658657074
            ],
            [
              -0.17997902631759644,
              -0.038094691932201385,
              -0.005601659882813692
            ],
            [
              0.0027717999182641506,
              -0.13036078214645386,
              -0.1688079684972763
            ]
          ],
          [
            [
              0.22475571930408478,
              0.03783392161130905,
              0.16442126035690308
            ],
            [
              0.11049756407737732,
              -0.03152149170637131,
              0.17161476612091064
            ],
            [
              0.13123053312301636,
              -0.03271602466702461,
              0.2485189437866211
            ]
          ],
          [
            [
              -0.15039432048797607,
              -0.09723090380430222,
              0.0794544592499733
            ],
            [
              -0.03613306209445,
              -0.14005522429943085,
              0.048041198402643204
            ],
            [
              -0.09505846351385117,
              -0.22378981113433838,
              -0.01975993998348713
            ]
          ],
          [
            [
              0.12480516731739044,
              -0.14848783612251282,
              -0.20306578278541565
            ],
            [
              0.2352268099784851,
              0.2204337865114212,
              -0.04250966012477875
            ],
            [
              -0.1970563381910324,
              0.1285719871520996,
              0.2532467246055603
            ]
          ],
          [
            [
              0.08864260464906693,
              -0.008270669728517532,
              -0.06668434292078018
            ],
            [
              0.10693763941526413,
              0.11856596916913986,
              0.14085546135902405
            ],
            [
              0.2922326922416687,
              0.26229196786880493,
              -0.02911371923983097
            ]
          ],
          [
            [
              -0.10497156530618668,
              -0.18592655658721924,
              -0.08816725760698318
            ],
            [
              0.0075113908387720585,
              -0.23121143877506256,
              -0.18429484963417053
            ],
            [
              -0.216764435172081,
              -0.1773345172405243,
              -0.005466556642204523
            ]
          ],
          [
            [
              0.344654381275177,
              0.30389872193336487,
              0.23201261460781097
            ],
            [
              0.2291584312915802,
              0.22157664597034454,
              0.27492719888687134
            ],
            [
              0.1046445369720459,
              0.29360657930374146,
              0.11245724558830261
            ]
          ],
          [
            [
              -0.1806650310754776,
              0.08548460155725479,
              -0.10591709613800049
            ],
            [
              0.17182257771492004,
              -0.1300477385520935,
              -0.02249794639647007
            ],
            [
              0.0571652352809906,
              0.0982920229434967,
              -0.13280247151851654
            ]
          ],
          [
            [
              -0.07976213842630386,
              0.04429916664958,
              -0.14330480992794037
            ],
            [
              0.2358502298593521,
              0.1729101985692978,
              -0.13761164247989655
            ],
            [
              -0.016959428787231445,
              0.20916998386383057,
              -0.017708223313093185
            ]
          ],
          [
            [
              0.09164009243249893,
              0.1323528289794922,
              0.022329794242978096
            ],
            [
              0.08018958568572998,
              0.0832173228263855,
              -0.17450599372386932
            ],
            [
              0.13133127987384796,
              0.06773822754621506,
              0.061783090233802795
            ]
          ]
        ]
      },
      {
        "bias": -0.07614602148532867,
        "weights": [
          [
            [
              -0.004691623151302338,
              0.09638013690710068,
              -0.12917092442512512
            ],
            [
              -0.12676383554935455,
              -0.1061055064201355,
              0.009056816808879375
            ],
            [
              0.009038610383868217,
              -0.09137045592069626,
              0.16205547749996185
            ]
          ],
          [
            [
              -0.13073980808258057,
              0.029549578204751015,
              0.05540456995368004
            ],
            [
              0.1349027156829834,
              -0.015702951699495316,
              -0.10453726351261139
            ],
            [
              0.01647980883717537,
              -0.009188272058963776,
              -0.010644637979567051
            ]
          ],
          [
            [
              0.13698717951774597,
              0.23273542523384094,
              0.05203479528427124
            ],
            [
              0.09062941372394562,
              0.14890103042125702,
              0.05998587980866432
            ],
            [
              0.014690859243273735,
              0.1309213638305664,
              0.2663763165473938
            ]
          ],
          [
            [
              -0.12343039363622665,
              -0.10943225771188736,
              -0.1275145560503006
            ],
            [
              -0.06982141733169556,
              -0.19389888644218445,
              0.02879307046532631
            ],
            [
              -0.016507303342223167,
              -0.16710348427295685,
              0.03001786768436432
            ]
          ],
          [
            [
              0.2567462921142578,
              0.0209913682192564,
              0.2711803615093231
            ],
            [
              0.06676463037729263,
              0.1932012438774109,
              0.04482920840382576
            ],
            [
              0.19916194677352905,
              0.007657404989004135,
              0.019669145345687866
            ]
          ],
          [
            [
              0.028783336281776428,
              0.001207637251354754,
              -0.01161469891667366
            ],
            [
              -0.03340766951441765,
              0.23061084747314453,
              0.1638239175081253
            ],
            [
              -0.011599172838032246,
              -0.10647647827863693,
              0.08207321166992188
            ]
          ],
          [
            [
              0.11927442997694016,
              -0.06438232213258743,
              0.056446634232997894
            ],
            [
              0.06137163192033768,
              0.04624916985630989,
              0.1855638027191162
            ],
            [
              -0.06337984651327133,
              0.009184724651277065,
              -0.05755580589175224
            ]
          ],
          [
            [
              0.12219458073377609,
              0.061610374599695206,
              0.08837315440177917
            ],
            [
              0.17358899116516113,
              0.04493209347128868,
              -0.111162468791008
            ],
            [
              -0.041083864867687225,
              0.09035642445087433,
              -0.08544394373893738
            ]
          ],
          [
            [
              0.10478752106428146,
              0.15468212962150574,
              0.05082818120718002
            ],
            [
              -0.037121113389730453,
              0.19970984756946564,
              0.1338602751493454
            ],
            [
              0.2979697287082672,
              0.08722764998674393,
              0.12908843159675598
            ]
          ],
          [
            [
              0.05494239926338196,
              -0.12358799576759338,
              0.10539066791534424
            ],
            [
              -0.02503363788127899,
              -0.14814017713069916,
              -0.014897760935127735
            ],
            [
              -0.16382797062397003,
              0.12415532022714615,
              0.16484704613685608
            ]
          ]
        ]
      },
      {
        "bias": -0.022345831617712975,
        "weights": [
          [
            [
              0.11608598381280899,
              -0.07544339448213577,
              0.0686686635017395
            ],
            [
              -0.18322136998176575,
              -0.07180652022361755,
              0.09931600838899612
            ],
            [
              -0.05687187239527702,
              0.17738059163093567,
              0.17807796597480774
            ]
          ],
          [
            [
              0.07941566407680511,
              -0.145717054605484,
              -0.1376432180404663
            ],
            [
              -0.013022230938076973,
              0.040211550891399384,
              0.14340516924858093
            ],
            [
              -0.16900990903377533,
              -0.1324632614850998,
              -0.01899942196905613
            ]
          ],
          [
            [
              0.05913413688540459,
              0.15686185657978058,
              -0.018168456852436066
            ],
            [
              0.16255168616771698,
              0.03479427099227905,
              -0.10679981112480164
            ],
            [
              -0.09586640447378159,
              -0.12575292587280273,
              0.048075273633003235
            ]
          ],
          [
            [
              -0.05973271280527115,
              0.07763096690177917,
              -0.044404879212379456
            ],
            [
              -0.0537857711315155,
              0.08731959760189056,
              -0.17890900373458862
            ],
            [
              -0.012218525633215904,
              -0.13124573230743408,
              0.06018954887986183
            ]
          ],
          [
            [
              -0.06772996485233307,
              0.004870228469371796,
              0.04725710675120354
            ],
            [
              -0.08844830095767975,
              0.1026424989104271,
              0.028981821611523628
            ],
            [
              0.0999264046549797,
              -0.12566740810871124,
              0.11002526432275772
            ]
          ],
          [
            [
              0.001958284294232726,
              -0.09890690445899963,
              0.11729692667722702
            ],
            [
              0.15833939611911774,
              -0.12665486335754395,
              -0.03265707939863205
            ],
            [
              0.15494607388973236,
