{
  "conv_1_1": {
    "input_shape": [
      64,
      64,
      3
    ],
    "output_shape": [
      62,
      62,
      10
    ],
    "num_neurons": 10,
    "weights": [
      {
        "bias": 0.07422510534524918,
        "weights": [
          [
            [
              -0.08366629481315613,
              -0.07275588065385818,
              0.02337368205189705
            ],
            [
              -0.18157581984996796,
              0.018181635066866875,
              0.11380826681852341
            ],
            [
              0.280086487531662,
              0.11626771092414856,
              -0.02432086504995823
            ]
          ],
          [
            [
              0.03248276561498642,
              -0.0012840169947594404,
              0.0030401486437767744
            ],
            [
              -0.035771265625953674,
              -0.2670033276081085,
              -0.20045484602451324
            ],
            [
              0.25359395146369934,
              0.0009300390374846756,
              -0.13398094475269318
            ]
          ],
          [
            [
              -0.07942657172679901,
              0.23999641835689545,
              -0.07035568356513977
            ],
            [
              0.2397560179233551,
              0.15564729273319244,
              0.2048848271369934
            ],
            [
              0.2988194227218628,
              0.01896808110177517,
              0.12262115627527237
            ]
          ]
        ]
      },
      {
        "bias": -0.022452665492892265,
        "weights": [
          [
            [
              -0.16156117618083954,
              -0.024990510195493698,
              0.1764606088399887
            ],
            [
              0.1310349553823471,
              -0.0382685586810112,
              -0.015754571184515953
            ],
            [
              0.02663237415254116,
              -0.08638535439968109,
              -0.052815183997154236
            ]
          ],
          [
            [
              -0.2050403356552124,
              -0.14977486431598663,
              -0.1948373168706894
            ],
            [
              0.21894045174121857,
              0.18626268208026886,
              -0.19050826132297516
            ],
            [
              -0.031457219272851944,
              -0.13586385548114777,
              -0.12385086715221405
            ]
          ],
          [
            [
              -0.13491308689117432,
              0.011715169064700603,
              0.1474168300628662
            ],
            [
              -0.1327885091304779,
              -0.18428173661231995,
              0.02737719751894474
            ],
            [
              -0.11721478402614594,
              -0.0300229974091053,
              0.0025515235029160976
            ]
          ]
        ]
      },
      {
        "bias": -0.0066346293315291405,
        "weights": [
          [
            [
              -0.07381537556648254,
              -0.24780821800231934,
              -0.19695471227169037
            ],
            [
              0.12352968007326126,
              0.2534462809562683,
              0.1164669543504715
            ],
            [
              0.07307083159685135,
              -0.003332369262352586,
              0.04288176819682121
            ]
          ],
          [
            [
              0.1194661557674408,
              -0.11354590207338333,
              -0.01723593845963478
            ],
            [
              0.2491106539964676,
              0.21037517488002777,
              0.3573450744152069
            ],
            [
              -0.19037237763404846,
              -0.1926845908164978,
              0.16887368261814117
            ]
          ],
          [
            [
              -0.11713176220655441,
              -0.1866724193096161,
              0.030601415783166885
            ],
            [
              0.26513925194740295,
              0.33731716871261597,
              -0.07072284817695618
            ],
            [
              -0.2615508735179901,
              0.1152932420372963,
              -0.16290457546710968
            ]
          ]
        ]
      },
      {
        "bias": 0.11320928484201431,
        "weights": [
          [
            [
              -0.08396412432193756,
              0.14919772744178772,
              0.019137978553771973
            ],
            [
              0.0012122633634135127,
              0.24697722494602203,
              -0.321086585521698
            ],
            [
              -0.26356250047683716,
              -0.19215025007724762,
              0.15503504872322083
            ]
          ],
          [
            [
              -0.12569624185562134,
              -0.12802593410015106,
              -0.25629451870918274
            ],
            [
              0.26850995421409607,
              0.30184704065322876,
              -0.07646923512220383
            ],
            [
              -0.04536198824644089,
              0.1498253494501114,
              0.17579753696918488
            ]
          ],
          [
            [
              0.10120024532079697,
              0.09676820784807205,
              0.21812793612480164
            ],
            [
              0.11086239665746689,
              0.42016690969467163,
              0.1214531883597374
            ],
            [
              0.16888822615146637,
              0.1607612520456314,
              -0.10577774047851562
            ]
          ]
        ]
      },
      {
        "bias": 0.028421757742762566,
        "weights": [
          [
            [
              -0.11780072003602982,
              -0.19460801780223846,
              -0.19879302382469177
            ],
            [
              0.06576821208000183,
              -0.10209791362285614,
              0.16096873581409454
            ],
            [
              -0.17326749861240387,
              -0.15703818202018738,
              0.06142987683415413
            ]
          ],
          [
            [
              0.17036741971969604,
              -0.15878736972808838,
              -0.06892628967761993
            ],
            [
              0.05858007073402405,
              0.19925260543823242,
              -0.009253352880477905
            ],
            [
              0.1458965390920639,
              -0.21458463370800018,
              0.08407362550497055
            ]
          ],
          [
            [
              0.1693403571844101,
              -0.006074866279959679,
              -0.01177978329360485
            ],
            [
              -0.10098759829998016,
              -0.16635552048683167,
              -0.011105039156973362
            ],
            [
              0.018931861966848373,
              -0.06940560787916183,
              -0.12331342697143555
            ]
          ]
        ]
      },
      {
        "bias": 0.20935103297233582,
        "weights": [
          [
            [
              0.22418564558029175,
              -0.35086604952812195,
              -0.028380265459418297
            ],
            [
              -0.02406565472483635,
              -0.5199651718139648,
              0.10155186057090759
            ],
            [
              0.17618343234062195,
              -0.42705443501472473,
              0.16842541098594666
            ]
          ],
          [
            [
              0.13808557391166687,
              0.2792205810546875,
              0.4353905916213989
            ],
            [
              0.36329254508018494,
              -0.0822817012667656,
              0.3668191432952881
            ],
            [
              0.4919983148574829,
              0.184007927775383,
              0.3801766633987427
            ]
          ],
          [
            [
              0.007807405665516853,
              -0.17344307899475098,
              -0.11361969262361526
            ],
            [
              -0.1137721985578537,
              -0.5661637783050537,
              0.030072346329689026
            ],
            [
              -0.23382428288459778,
              -0.18803684413433075,
              0.05491069331765175
            ]
          ]
        ]
      },
      {
        "bias": 0.11212116479873657,
        "weights": [
          [
            [
              0.14465011656284332,
              0.21149250864982605,
              -0.020670559257268906
            ],
            [
              0.09867537021636963,
              0.11316931992769241,
              -0.25359833240509033
            ],
            [
              0.015669364482164383,
              -0.07760266959667206,
              -0.30064424872398376
            ]
          ],
          [
            [
              0.05264350026845932,
              0.15425491333007812,
              0.142990842461586
            ],
            [
              -0.2909172773361206,
              0.20201577246189117,
              -0.07510869950056076
            ],
            [
              -0.17449821531772614,
              -0.10498809814453125,
              -0.2555064260959625
            ]
          ],
          [
            [
              -0.05162239447236061,
              0.1719062477350235,
              0.2896377444267273
            ],
            [
              0.10400520265102386,
              0.15706132352352142,
              -0.12123744189739227
            ],
            [
              -0.2180909961462021,
              0.1717306524515152,
              0.02114846184849739
            ]
          ]
        ]
      },
      {
        "bias": 0.18312036991119385,
        "weights": [
          [
            [
              0.28964558243751526,
              0.3676634430885315,
              -0.11066584289073944
            ],
            [
              -0.11782337725162506,
              0.2374706268310547,
              0.24528737366199493
            ],
            [
              -0.021787969395518303,
              0.16545194387435913,
              0.13915786147117615
            ]
          ],
          [
            [
              0.123405322432518,
              -0.056094489991664886,
              -0.04234033450484276
            ],
            [
              -0.1307053565979004,
              0.07966001331806183,
              0.07483380287885666
            ],
            [
              -0.031065616756677628,
              0.28526782989501953,
              -0.23556506633758545
            ]
          ],
          [
            [
              -0.014795987866818905,
              0.08273980766534805,
              -0.28255680203437805
            ],
            [
              -0.09596265852451324,
              -0.2211482673883438,
              -0.2867239713668823
            ],
            [
              -0.2707758843898773,
              -0.18876545131206512,
              -0.29089561104774475
            ]
          ]
        ]
      },
      {
        "bias": 0.05084030702710152,
        "weights": [
          [
            [
              -0.10973697900772095,
              -0.010397912934422493,
              0.1783709079027176
            ],
            [
              0.08752808719873428,
              0.16323602199554443,
              0.0656377375125885
            ],
            [
              -0.12749850749969482,
              0.13323082029819489,
              0.06072039529681206
            ]
          ],
          [
            [
              -0.1111428365111351,
              0.12485772371292114,
              -0.13611379265785217
            ],
            [
              -0.002935035154223442,
              -0.23898833990097046,
              -0.14181645214557648
            ],
            [
              -0.2324688881635666,
              -0.11118315905332565,
              0.1502145230770111
            ]
          ],
          [
            [
              -0.14186730980873108,
              0.03780834376811981,
              0.06846503168344498
            ],
            [
              -0.08200007677078247,
              -0.25677913427352905,
              0.05252967029809952
            ],
            [
              0.06766784191131592,
              -0.21287569403648376,
              -0.06944030523300171
            ]
          ]
        ]
      },
      {
        "bias": 0.09044715762138367,
        "weights": [
          [
            [
              0.09797082096338272,
              -0.1414375752210617,
              0.28686362504959106
            ],
            [
              0.2238783836364746,
              0.3957549035549164,
              0.2265009582042694
            ],
            [
              0.09938467293977737,
              0.2194962352514267,
              0.3938789367675781
            ]
          ],
          [
            [
              0.09149696677923203,
              -0.05568498373031616,
              0.12711837887763977
            ],
            [
              0.06386526674032211,
              0.03287625312805176,
              -0.13536085188388824
            ],
            [
              0.24509747326374054,
              0.09860510379076004,
              0.16415052115917206
            ]
          ],
          [
            [
              -0.17106996476650238,
              -0.3914676904678345,
              -0.03723406419157982
            ],
            [
              0.08460862189531326,
              -0.149095356464386,
              -0.41522008180618286
            ],
            [
              0.01512106042355299,
              -0.04547445476055145,
              0.10288529098033905
            ]
          ]
        ]
      }
    ]
  },
  "relu_1_1": {
    "input_shape": [
      62,
      62,
      10
    ],
    "output_shape": [
      62,
      62,
      10
    ],
    "num_neurons": 10
  },
  "conv_1_2": {
    "input_shape": [
      62,
      62,
      10
    ],
    "output_shape": [
      60,
      60,
      10
    ],
    "num_neurons": 10,
    "weights": [
      {
        "bias": -0.017150556668639183,
        "weights": [
          [
            [
              0.19419842958450317,
              -0.004372813273221254,
              0.200497105717659
            ],
            [
              -0.01011919230222702,
              0.15344740450382233,
              0.21939392387866974
            ],
            [
              0.037127215415239334,
              0.19530059397220612,
              0.0844641700387001
            ]
          ],
          [
            [
              0.157876119017601,
              -0.06522320210933685,
              -0.10244586318731308
            ],
            [
              0.15615390241146088,
              0.013609521090984344,
              0.0009040693403221667
            ],
            [
              0.1492171585559845,
              -0.12655866146087646,
              -0.08115728944540024
            ]
          ],
          [
            [
              -0.03303651511669159,
              0.035473596304655075,
              0.15183140337467194
            ],
            [
              -0.022669531404972076,
              0.09113960713148117,
              -0.10766861587762833
            ],
            [
              0.052440375089645386,
              -0.013379126787185669,
              0.15185576677322388
            ]
          ],
          [
            [
              0.06212765350937843,
              0.14563287794589996,
              0.20643295347690582
            ],
            [
              -0.06038879230618477,
              0.005604440812021494,
              0.013876019045710564
            ],
            [
              0.019864046946167946,
              0.009215764701366425,
              -0.00520315719768405
            ]
          ],
          [
            [
              -0.13408975303173065,
              0.034628916531801224,
              0.0653366968035698
            ],
            [
              -0.10654738545417786,
              -0.0354648232460022,
              0.11755567789077759
            ],
            [
              -0.03586002439260483,
              0.11989045143127441,
              -0.08916828036308289
            ]
          ],
          [
            [
              -0.1562107652425766,
              0.011205005459487438,
              0.07923855632543564
            ],
            [
              -0.060956988483667374,
              -0.17820772528648376,
              -0.13572819530963898
            ],
            [
              -0.09118486940860748,
              0.06504812091588974,
              -0.13350698351860046
            ]
          ],
          [
            [
              -0.11942587792873383,
              0.07372333109378815,
              0.09747375547885895
            ],
            [
              0.10640659183263779,
              0.0932154431939125,
              0.21690486371517181
            ],
            [
              -0.024858813732862473,
              -0.059929583221673965,
              -0.060831647366285324
            ]
          ],
          [
            [
              0.13385167717933655,
              -0.04017459601163864,
              -0.1936478167772293
            ],
            [
              -0.06582187116146088,
              0.08279051631689072,
              -0.2037612348794937
            ],
            [
              0.10000365972518921,
              -0.04754934459924698,
              -0.18056492507457733
            ]
          ],
          [
            [
              -0.11517143994569778,
              -0.04298504441976547,
              0.16067452728748322
            ],
            [
              -0.15175102651119232,
              -0.1720176637172699,
              0.05184362083673477
            ],
            [
              0.07543765753507614,
              0.06510712206363678,
              0.10111580789089203
            ]
          ],
          [
            [
              0.09464119374752045,
              -0.02173919416964054,
              0.06854338198900223
            ],
            [
              0.0828242301940918,
              0.0880567878484726,
              -0.1283138543367386
            ],
            [
              0.025461986660957336,
              -0.059127531945705414,
              -0.04176981374621391
            ]
          ]
        ]
      },
      {
        "bias": 0.07776815444231033,
        "weights": [
          [
            [
              0.028187185525894165,
              0.06615843623876572,
              0.17447194457054138
            ],
            [
              -0.12681926786899567,
              -0.014327986165881157,
              -0.10115596652030945
            ],
            [
              0.12218255549669266,
              -0.009474151767790318,
              0.19321581721305847
            ]
          ],
          [
            [
              0.13264469802379608,
              0.10914124548435211,
              0.12815523147583008
            ],
            [
              -0.11779952049255371,
              0.0021354379132390022,
              -0.17313702404499054
            ],
            [
              0.0678747147321701,
              0.13797686994075775,
              -0.06670896708965302
            ]
          ],
          [
            [
              -0.1206372082233429,
              0.11824459582567215,
              0.1460103690624237
            ],
            [
              0.2728753685951233,
              0.3014419376850128,
              0.3079017996788025
            ],
            [
              -0.21943065524101257,
              -0.07674788683652878,
              -0.30331581830978394
            ]
          ],
          [
            [
              0.11331010609865189,
              0.07231058180332184,
              -0.15392537415027618
            ],
            [
              -0.18010902404785156,
              -0.0015552062541246414,
              0.12202310562133789
            ],
            [
              -0.29535219073295593,
              0.03542974591255188,
              -0.21231766045093536
            ]
          ],
          [
            [
              -0.12060827016830444,
              0.17716746032238007,
              -0.005015148781239986
            ],
            [
              -0.020262034609913826,
              -0.08608417958021164,
              0.09662817418575287
            ],
            [
              -0.12478780746459961,
              -0.09943785518407822,
              0.15765397250652313
            ]
          ],
          [
            [
              -0.021191248670220375,
              0.0592757873237133,
              0.05046023800969124
            ],
            [
              0.14916031062602997,
              -0.4990643262863159,
              -0.014391971752047539
            ],
            [
              0.35769280791282654,
              -0.42425766587257385,
              0.2919576168060303
            ]
          ],
          [
            [
              -0.11805274337530136,
              0.11564889550209045,
              0.03678189590573311
            ],
            [
              -0.20400366187095642,
              0.12609581649303436,
              0.1493586003780365
            ],
            [
              0.02511531114578247,
              0.27316924929618835,
              -0.04172400012612343
            ]
          ],
          [
            [
              -0.08021746575832367,
              0.2573919892311096,
              0.03591734170913696
            ],
            [
              -0.1251765489578247,
              0.08492554724216461,
              -0.1811901181936264
            ],
            [
              -0.14808593690395355,
              0.07847470045089722,
              -0.06706555187702179
            ]
          ],
          [
            [
              -0.004379574675112963,
              0.07215496897697449,
              -0.18472614884376526
            ],
            [
              0.09627040475606918,
              -0.22433024644851685,
              -0.13719122111797333
            ],
            [
              -0.07074704766273499,
              -0.06626413017511368,
              -0.0531858466565609
            ]
          ],
          [
            [
              0.3377436399459839,
              0.19506129622459412,
              0.27476969361305237
            ],
            [
              -0.32393020391464233,
              -0.14030149579048157,
              0.10371749848127365
            ],
            [
              -0.16826218366622925,
              -0.25676748156547546,
              -0.03866167739033699
            ]
          ]
        ]
      },
      {
        "bias": -0.010519561357796192,
        "weights": [
          [
            [
              0.05307707190513611,
              0.06507132947444916,
              0.1616816520690918
            ],
            [
              0.10963936150074005,
              0.014733079820871353,
              -0.12651309370994568
            ],
            [
              -0.050545524805784225,
              -0.1824420839548111,
              0.01043922733515501
            ]
          ],
          [
            [
              -0.03968597203493118,
              0.11653265357017517,
              0.13944783806800842
            ],
            [
              0.03278818354010582,
              0.02253446914255619,
              0.026270903646945953
            ],
            [
              -0.1456197202205658,
              -0.10424534976482391,
              0.0924944281578064
            ]
          ],
          [
            [
              0.15756180882453918,
              0.1126563549041748,
              -0.016800642013549805
            ],
            [
              0.12855611741542816,
              -0.04685555398464203,
              0.21294009685516357
            ],
            [
              0.004320085979998112,
              0.11583473533391953,
              -0.18699808418750763
            ]
          ],
          [
            [
              0.010064703412353992,
              -0.024212663993239403,
              0.002380142454057932
            ],
            [
              -0.14967100322246552,
              -0.12507827579975128,
              0.16101495921611786
            ],
            [
              -0.15080225467681885,
              -0.13367041945457458,
              -0.08002626895904541
            ]
          ],
          [
            [
              0.03363547846674919,
              -0.13945752382278442,
              -0.16743893921375275
            ],
            [
              0.009335946291685104,
              0.04614453390240669,
              0.11654489487409592
            ],
            [
              -0.07517390698194504,
              -0.1273968368768692,
              -0.14375583827495575
            ]
          ],
          [
            [
              0.020496146753430367,
              -0.0793514996767044,
              0.2092357575893402
            ],
            [
              -0.04856733977794647,
              -0.06520676612854004,
              -0.042253803461790085
            ],
            [
              0.23207832872867584,
              0.060470592230558395,
              0.2555685043334961
            ]
          ],
          [
            [
              -0.08210434764623642,
              -0.022583957761526108,
              0.12883387506008148
            ],
            [
              0.028087709099054337,
              0.1340038925409317,
              0.1317588835954666
            ],
            [
              -0.015275688841938972,
              0.17946353554725647,
              0.10661398619413376
            ]
          ],
          [
            [
              0.04291826859116554,
              0.03090408444404602,
              -0.20133677124977112
            ],
            [
              0.15635401010513306,
              -0.14501219987869263,
              -0.0508585125207901
            ],
            [
              0.21913467347621918,
              0.08766967058181763,
              -0.032625939697027206
            ]
          ],
          [
            [
              -0.09629105776548386,
              -0.1853298842906952,
              0.06944892555475235
            ],
            [
              0.14640013873577118,
              0.10563094168901443,
              -0.021258264780044556
            ],
            [
              -0.1722387969493866,
              0.14806757867336273,
              -0.11982071399688721
            ]
          ],
          [
            [
              0.17062340676784515,
              -0.08816313743591309,
              -0.06362858414649963
            ],
            [
              0.02737049013376236,
              -0.1104203388094902,
              -0.16178013384342194
            ],
            [
              0.06387121975421906,
              -0.06806632876396179,
              0.07183531671762466
            ]
          ]
        ]
      },
      {
        "bias": 0.0998547375202179,
        "weights": [
          [
            [
              -0.03680814057588577,
              0.11890869587659836,
              -0.11980659514665604
            ],
            [
              -0.11842520534992218,
              -0.18492642045021057,
              -0.21430526673793793
            ],
            [
              -0.11944202333688736,
              -0.02190771885216236,
              -0.20832820236682892
            ]
          ],
          [
            [
              -0.04416550695896149,
              -0.08764013648033142,
              -0.017667675390839577
            ],
            [
              -0.13524392247200012,
              0.13350726664066315,
              -0.10969898849725723
            ],
            [
              -0.025068538263440132,
              0.00959694292396307,
              0.03721540793776512
            ]
          ],
          [
            [
              -0.06492149084806442,
              -0.039258699864149094,
              -0.07292743027210236
            ],
            [
              -0.09280069917440414,
              -0.0010593918850645423,
              -0.0876799076795578
            ],
            [
              0.08158738166093826,
              -0.1505037546157837,
              0.15328027307987213
            ]
          ],
          [
            [
              -0.23529410362243652,
              -0.10942774266004562,
              -0.058177649974823
            ],
            [
              -0.254762202501297,
              -0.11736801266670227,
              -0.16184252500534058
            ],
            [
              -0.236835315823555,
              -0.05232330039143562,
              -0.1655176430940628
            ]
          ],
          [
            [
              0.14093512296676636,
              -0.004316465463489294,
              -0.06330472230911255
            ],
            [
              0.12538275122642517,
              -0.11217038333415985,
              0.07166410982608795
            ],
            [
              -0.042943324893713,
              -0.02661006711423397,
              -0.16188231110572815
            ]
          ],
          [
            [
              -0.000698329065926373,
              0.04703092575073242,
              -0.021824460476636887
            ],
            [
              0.12272416800260544,
              0.20178501307964325,
              0.1305372714996338
            ],
            [
              -0.05082658678293228,
              -0.07211056351661682,
              -0.1465870887041092
            ]
          ],
          [
            [
              -0.037920381873846054,
              -0.02715718373656273,
              -0.005743883550167084
            ],
            [
              -0.14648468792438507,
              0.007064572535455227,
              0.04820282384753227
            ],
            [
              -0.1168341338634491,
              -0.08927731961011887,
              0.16415449976921082
            ]
          ],
          [
            [
              0.21897345781326294,
              0.2748161554336548,
              0.22545206546783447
            ],
            [
              0.29752272367477417,
              0.25997012853622437,
              0.0969419851899147
            ],
            [
              0.24960896372795105,
              0.26467713713645935,
              -0.040075816214084625
            ]
          ],
          [
            [
              -0.070658840239048,
              0.07890285551548004,
              -0.14137409627437592
            ],
            [
              0.00902776513248682,
              0.19484421610832214,
              0.051530010998249054
            ],
            [
              -0.12974251806735992,
              -0.0849808007478714,
              0.09269136190414429
            ]
          ],
          [
            [
              0.23403994739055634,
              0.24063539505004883,
              0.15728937089443207
            ],
            [
              0.3210510313510895,
              0.17614814639091492,
              0.19607794284820557
            ],
            [
              0.238228440284729,
              0.2542993426322937,
              0.22839294373989105
            ]
          ]
        ]
      },
      {
        "bias": 0.2306690812110901,
        "weights": [
          [
            [
              0.08051512390375137,
              0.05472728610038757,
              0.09900607913732529
            ],
            [
              -0.138396218419075,
              0.11044742912054062,
              0.23565100133419037
            ],
            [
              -0.029904067516326904,
              -0.06666207313537598,
              0.047506093978881836
            ]
          ],
          [
            [
              0.022311659529805183,
              -0.013451767154037952,
              0.032328344881534576
            ],
            [
              0.008467056788504124,
              -0.07735852897167206,
              -0.1333284080028534
            ],
            [
              -0.09401191771030426,
              -0.02914852648973465,
              -0.09581546485424042
            ]
          ],
          [
            [
              0.03441944345831871,
              0.09477799385786057,
              -0.16836680471897125
            ],
            [
              -0.07296336442232132,
              0.06411539018154144,
              -0.1236141249537468
            ],
            [
              -0.13768769800662994,
              -0.11201943457126617,
              -0.03203923627734184
            ]
          ],
          [
            [
              0.1722417026758194,
              0.08831287920475006,
              0.17962434887886047
            ],
            [
              0.21185435354709625,
              0.08667150884866714,
              0.020585253834724426
            ],
            [
              -0.15371009707450867,
              0.20921090245246887,
              0.15826433897018433
            ]
          ],
          [
            [
              -0.07873374968767166,
              0.002266720635816455,
              0.06574494391679764
            ],
            [
              0.18175581097602844,
              0.13176195323467255,
              -0.09979526698589325
            ],
            [
              0.1329544484615326,
              0.08694838732481003,
              0.13968832790851593
            ]
          ],
          [
            [
              -0.03435659036040306,
              -0.022890567779541016,
              -0.1519903838634491
            ],
            [
              -0.0704207718372345,
              -0.3010045289993286,
              -0.2705736458301544
            ],
            [
              -0.022506926208734512,
              -0.2129797786474228,
              -0.17577050626277924
            ]
          ],
          [
            [
              -0.06987898796796799,
              -0.04679761826992035,
              0.18926666676998138
            ],
            [
              0.12707534432411194,
              0.12162070721387863,
              -0.08013007044792175
            ],
            [
              -0.09792272001504898,
              0.26577362418174744,
              0.11759456992149353
            ]
          ],
          [
            [
              0.10463254153728485,
              -0.06293375790119171,
              0.20383287966251373
            ],
            [
              0.13124263286590576,
              0.13377219438552856,
              -0.07286675274372101
            ],
            [
              0.2269914299249649,
              0.18650776147842407,
              -0.11297643929719925
            ]
          ],
          [
            [
              0.00881020538508892,
              -0.0196621622890234,
              -0.11397174000740051
            ],
            [
              -0.19096800684928894,
              -0.10075460374355316,
              0.009242902509868145
            ],
            [
              0.05140746012330055,
              0.05261842906475067,
              -0.029587751254439354
            ]
          ],
          [
            [
              0.260874480009079,
              0.3054850995540619,
              0.04611462354660034
            ],
            [
              -0.014289332553744316,
              0.17677618563175201,
              0.12922173738479614
            ],
            [
              -0.2877909243106842,
              0.02842092141509056,
              -0.16501569747924805
            ]
          ]
        ]
      },
      {
        "bias": 0.13769307732582092,
        "weights": [
          [
            [
              -0.04050655663013458,
              -0.20201870799064636,
              -0.046504128724336624
            ],
            [
              -0.1568552553653717,
              0.09809709340333939,
              0.05532493069767952
            ],
            [
              0.09542424976825714,
              -0.15629498660564423,
              0.06275728344917297
            ]
          ],
          [
            [
              -0.04552140831947327,
              0.08351677656173706,
              0.09823992103338242
            ],
            [
              -0.16660527884960175,
              -0.11342543363571167,
              0.054304495453834534
            ],
            [
              0.07152368873357773,
              0.16941331326961517,
              0.08350275456905365
            ]
          ],
          [
            [
              -0.08749425411224365,
              0.0677703395485878,
              0.06572923064231873
            ],
            [
              -0.03315844014286995,
              -0.011583738029003143,
              0.10733061283826828
            ],
            [
              -0.15345191955566406,
              -0.05000493675470352,
              0.1831180602312088
            ]
          ],
          [
            [
              -0.016952354460954666,
              0.07474119961261749,
              -0.08498064428567886
            ],
            [
              0.004314855206757784,
              0.0681910291314125,
              -0.009211677126586437
            ],
            [
              0.010475927032530308,
              -0.16244561970233917,
              0.14645075798034668
            ]
          ],
          [
            [
              0.11470150947570801,
              -0.1267082691192627,
              -0.15125058591365814
            ],
            [
              -0.12624308466911316,
              0.026929667219519615,
              0.16536124050617218
            ],
            [
              0.13312162458896637,
              0.03101898729801178,
              -0.045630138367414474
            ]
          ],
          [
            [
              0.0013058854965493083,
              0.07143029570579529,
              0.27916309237480164
            ],
            [
              0.2934853732585907,
              0.3009946048259735,
              0.11105778068304062
            ],
            [
              0.20719470083713531,
              0.22226276993751526,
              0.13398143649101257
            ]
          ],
          [
            [
              -0.1462761014699936,
              0.15478841960430145,
              -0.11803819239139557
            ],
            [
              0.12419027835130692,
              -0.07557379454374313,
              0.0035682953894138336
            ],
            [
              -0.06551580131053925,
              -0.18849734961986542,
              -0.06289590895175934
            ]
          ],
          [
            [
              -0.04613834619522095,
              -0.09836896508932114,
              0.1330728381872177
            ],
            [
              -0.05751393362879753,
              0.00032503606053069234,
              0.04120190441608429
            ],
            [
              0.1775519698858261,
              0.06320159137248993,
              0.06872712075710297
            ]
          ],
          [
            [
              -0.12151707708835602,
              0.13370148837566376,
              -0.17964477837085724
            ],
            [
              0.02031858265399933,
              0.020224932581186295,
              0.10753809660673141
            ],
            [
              -0.07151739299297333,
              0.014316888526082039,
              0.10456822067499161
            ]
          ],
          [
            [
              0.0374608114361763,
              0.16847559809684753,
              0.029790354892611504
            ],
            [
              0.08752697706222534,
              0.07881893217563629,
              -0.026369353756308556
            ],
            [
              0.011636880226433277,
              -0.10387150198221207,
              0.08624403923749924
            ]
          ]
        ]
      },
      {
        "bias": 0.1476970911026001,
        "weights": [
          [
            [
              -0.09004158526659012,
              -0.003719031810760498,
              0.06676410883665085
            ],
            [
              -0.17519153654575348,
              0.10020477324724197,
              -0.16775791347026825
            ],
            [
              -0.1872997283935547,
              -0.09745369851589203,
              0.05725764483213425
            ]
          ],
          [
            [
              -0.15737201273441315,
              0.1129792183637619,
              -0.17436674237251282
            ],
            [
              -0.0745755210518837,
              -0.15692731738090515,
              0.07998043298721313
            ],
            [
              -0.1068563163280487,
              0.09661953151226044,
              0.11130920052528381
            ]
          ],
          [
            [
              0.18898801505565643,
              -0.024976670742034912,
              0.05153440311551094
            ],
            [
              -0.00286447093822062,
              -0.017157088965177536,
              0.08243397623300552
            ],
            [
              -0.13119734823703766,
              0.16183511912822723,
              0.12940503656864166
            ]
          ],
          [
            [
              0.04095699265599251,
              0.017776910215616226,
              -0.07859427481889725
            ],
            [
              0.049321409314870834,
              0.13332907855510712,
              0.03868443891406059
            ],
            [
              0.05326659604907036,
              -0.10592058300971985,
              0.060714319348335266
            ]
          ],
          [
            [
              -0.1490970253944397,
              -0.023592934012413025,
              -0.029426738619804382
            ],
            [
              -0.1292492300271988,
              -0.10668796300888062,
              0.05103946849703789
            ],
            [
              -0.11887454241514206,
              -0.15980492532253265,
              0.16222260892391205
            ]
          ],
          [
            [
              -0.03878430277109146,
              0.16285452246665955,
              0.13106019794940948
            ],
            [
              0.16091011464595795,
              0.12191567569971085,
              0.21479560434818268
            ],
            [
              0.1353510171175003,
              0.17831294238567352,
              0.13381777703762054
            ]
          ],
          [
            [
              0.16498379409313202,
              0.10238426923751831,
              -0.08488341420888901
            ],
            [
              -0.06992366909980774,
              0.17444570362567902,
              0.18849748373031616
            ],
            [
              -0.011112195439636707,
              0.14398211240768433,
              0.08565866947174072
            ]
          ],
          [
            [
              0.23295851051807404,
              -0.0367928072810173,
              -0.0540943443775177
            ],
            [
              0.13817700743675232,
              -0.09298740327358246,
              -0.04044688120484352
            ],
            [
              -0.1020575761795044,
              0.07886473834514618,
              0.08585614711046219
            ]
          ],
          [
            [
              0.051978711038827896,
              -0.10856063663959503,
              -0.1311505138874054
            ],
            [
              -0.15130650997161865,
              0.0959453284740448,
              0.015367756597697735
            ],
            [
              -0.0685652643442154,
              0.1675753891468048,
              -0.0016959855565801263
            ]
          ],
          [
            [
              0.1409446895122528,
              -0.0014508682070299983,
              0.255810409784317
            ],
            [
              -0.12733295559883118,
              -0.15640011429786682,
              -0.17416246235370636
            ],
            [
              -0.016208095476031303,
              -0.13845524191856384,
              -0.02239467389881611
            ]
          ]
        ]
      },
      {
        "bias": -0.008593910373747349,
        "weights": [
          [
            [
              -0.12626221776008606,
              0.09959445893764496,
              0.02642572857439518
            ],
            [
              0.11194046586751938,
              -0.16295084357261658,
              0.04624679312109947
            ],
            [
              0.001823736005462706,
              -0.10112355649471283,
              -0.1332954466342926
            ]
          ],
          [
            [
              0.01986090838909149,
              0.06134074181318283,
              0.1527409851551056
            ],
            [
              0.07585333287715912,
              0.07633017003536224,
              -0.06169219687581062
            ],
            [
              0.08549842238426208,
              -0.07029792666435242,
              0.0028759571723639965
            ]
          ],
          [
            [
              -0.16333702206611633,
              0.04798044636845589,
              0.04441265016794205
            ],
            [
              -0.09605062007904053,
              0.09936829656362534,
              -0.155167356133461
            ],
            [
              0.16426555812358856,
              -0.14736871421337128,
              -0.10387840867042542
            ]
          ],
          [
            [
              0.09308745712041855,
              0.12134583294391632,
              0.09984029829502106
            ],
            [
              -0.012322098016738892,
              -0.06693565100431442,
              0.10069601237773895
            ],
            [
              -0.1260383427143097,
              -0.13564741611480713,
              0.03293986991047859
            ]
          ],
          [
            [
              0.11959052830934525,
              -0.09443247318267822,
              0.051510490477085114
            ],
            [
              0.11046667397022247,
              0.02206871099770069,
              0.1022140383720398
            ],
            [
              -0.030894765630364418,
              -0.16471277177333832,
              -0.07592232525348663
            ]
          ],
          [
            [
              -0.065106600522995,
              0.07474974542856216,
              0.019565464928746223
            ],
            [
              -0.07108870148658752,
              0.04304540902376175,
              -0.1560121327638626
            ],
            [
              0.11804407835006714,
              -0.05252673849463463,
              0.026670251041650772
            ]
          ],
          [
            [
              -0.10329432040452957,
              0.09698712825775146,
              0.020142341032624245
            ],
            [
              -0.14617981016635895,
              -0.1705934852361679,
              -0.06190053001046181
            ],
            [
              -0.13416311144828796,
              -0.03040413372218609,
              0.16270779073238373
            ]
          ],
          [
            [
              -0.005570110399276018,
              -0.006107114255428314,
              0.10645627230405807
            ],
            [
              0.13248592615127563,
              -0.04531223699450493,
              0.0058175185695290565
            ],
            [
              0.09716646373271942,
              0.0051109339110553265,
              -0.01779559813439846
            ]
          ],
          [
            [
              0.05126466974616051,
              -0.12198077142238617,
              -0.042428769171237946
            ],
            [
              0.06525812298059464,
              0.06216411292552948,
              -0.14797015488147736
            ],
            [
              0.07253564894199371,
              0.05776078253984451,
              0.038003433495759964
            ]
          ],
          [
            [
              0.09936878830194473,
              -0.12958912551403046,
              -0.03690214082598686
            ],
            [
              -0.09878112375736237,
              -0.15687114000320435,
              -0.058712609112262726
            ],
            [
              0.122481569647789,
              -0.11584638804197311,
              -0.1002136841416359
            ]
          ]
        ]
      },
      {
        "bias": 0.020088449120521545,
        "weights": [
          [
            [
              0.18204087018966675,
              -0.2117202877998352,
              -0.013996514491736889
            ],
            [
              -0.0566721148788929,
              -0.005867603234946728,
              -0.09650257229804993
            ],
            [
              -0.1434773951768875,
              0.06540248543024063,
              0.021419795230031013
            ]
          ],
          [
            [
              0.17558908462524414,
              -0.005082053132355213,
              0.06088970601558685
            ],
            [
              0.022756291553378105,
              -0.1711733043193817,
              0.02283123880624771
            ],
            [
              -0.09512642025947571,
              0.03618619218468666,
              -0.15891744196414948
            ]
          ],
          [
            [
              -0.006665412336587906,
              0.1487288475036621,
              -0.151921808719635
            ],
            [
              0.10578779876232147,
              -0.12571537494659424,
              0.08267522603273392
            ],
            [
              0.016486920416355133,
              -0.09964746236801147,
              -0.09114836901426315
            ]
          ],
          [
            [
              0.10862045735120773,
              0.08258065581321716,
              -0.027729948982596397
            ],
            [
              -0.1480671465396881,
              0.1752382516860962,
              0.013573994860053062
            ],
            [
              -0.11269088834524155,
              0.10790076106786728,
              0.017232192680239677
            ]
          ],
          [
            [
              -0.015809426084160805,
              -0.017668800428509712,
              -0.10384048521518707
            ],
            [
              -0.04456387832760811,
              0.020858678966760635,
              0.17653502523899078
            ],
            [
              0.16562093794345856,
              -0.1697801947593689,
              -0.15057724714279175
            ]
          ],
          [
            [
              0.24717828631401062,
              -0.2434237152338028,
              -0.1174534484744072
            ],
            [
              0.33418887853622437,
              -0.24696004390716553,
              0.14499640464782715
            ],
            [
              0.04704836755990982,
              -0.3046957552433014,
              0.04816479980945587
            ]
          ],
          [
            [
              -0.04784349724650383,
              0.17266415059566498,
              -0.1672534942626953
            ],
            [
              -0.19634875655174255,
              -0.06069246679544449,
              0.13079284131526947
            ],
            [
              -0.014285709708929062,
              0.12020548433065414,
              -0.10623417049646378
            ]
          ],
          [
            [
              -0.22314178943634033,
              0.11587880551815033,
              0.19921690225601196
            ],
            [
              -0.2445676177740097,
              -0.06230597198009491,
              0.12766225636005402
            ],
            [
              0.1023937314748764,
              -0.14211714267730713,
              -0.03503350540995598
            ]
          ],
          [
            [
              -0.01988864317536354,
              0.026966111734509468,
              0.024533778429031372
            ],
            [
              -0.0036370183806866407,
              0.060425203293561935,
              -0.15243111550807953
            ],
            [
              0.08547559380531311,
              -0.1579218953847885,
              -0.1450956165790558
            ]
          ],
          [
            [
              -0.10365632176399231,
              0.13724246621131897,
              -0.0020107829477638006
            ],
            [
              0.0023293111007660627,
              -0.1912459433078766,
              0.22321006655693054
            ],
            [
              0.09891553223133087,
              -0.13748835027217865,
              0.21306511759757996
            ]
          ]
        ]
      },
      {
        "bias": 0.05131902918219566,
        "weights": [
          [
            [
              -0.047924987971782684,
              -0.0643288791179657,
              0.074550561606884
            ],
            [
              0.15563161671161652,
              -0.07076100260019302,
              -0.03594104200601578
            ],
            [
              -0.0635363906621933,
              0.009214658290147781,
              0.17210280895233154
            ]
          ],
          [
            [
              0.1816035658121109,
              0.09660354256629944,
              -0.17053458094596863
            ],
            [
              -0.12319939583539963,
              0.12097620218992233,
              0.1669258326292038
            ],
            [
              0.008172805421054363,
              -0.13444849848747253,
              -0.17454606294631958
            ]
          ],
          [
            [
              0.09900184720754623,
              -0.12550367414951324,
              -0.12596073746681213
            ],
            [
              0.11698227375745773,
              -0.03852056339383125,
              0.14880847930908203
            ],
            [
              -0.04349907487630844,
              -0.1721586287021637,
              -0.00851729977875948
            ]
          ],
          [
            [
              -0.11771305650472641,
              -0.1850534826517105,
              -0.07516025006771088
            ],
            [
              -0.15963011980056763,
              0.08158942312002182,
              0.04036374017596245
            ],
            [
              0.004278568550944328,
              -0.011918912641704082,
              -0.11483883112668991
            ]
          ],
          [
            [
              0.059198103845119476,
              -0.1394328474998474,
              0.16868814826011658
            ],
            [
              -0.03050292283296585,
              -0.14037296175956726,
              -0.06616576015949249
            ],
            [
              -0.020015103742480278,
              -0.020705975592136383,
              -0.16558952629566193
            ]
          ],
          [
            [
              -0.14772893488407135,
              -0.1313493847846985,
              -0.04825695976614952
            ],
            [
              -0.0752706229686737,
              -0.13477890193462372,
              -0.10754730552434921
            ],
            [
              0.04994489625096321,
              -0.08850479125976562,
              -0.10095088183879852
            ]
          ],
          [
            [
              0.10520702600479126,
              -0.026641150936484337,
              -0.15350842475891113
            ],
            [
              0.10668207705020905,
              0.15217188000679016,
              -0.1458514779806137
            ],
            [
              0.012299480848014355,
              0.20877543091773987,
              0.13804695010185242
            ]
          ],
          [
            [
              0.150920107960701,
              0.02580876834690571,
              -0.04248005151748657
            ],
            [
              0.12257866561412811,
              0.19931863248348236,
              0.0649697482585907
            ],
            [
              0.1586926430463791,
              -0.0341670885682106,
              -0.1064598485827446
            ]
          ],
          [
            [
              -0.004458121955394745,
              -0.12873554229736328,
              0.11998177319765091
            ],
            [
              0.15151965618133545,
              0.028873873874545097,
              0.008487469516694546
            ],
            [
              -0.0674443393945694,
              -0.03431712090969086,
              0.16135375201702118
            ]
          ],
          [
            [
              0.015149136073887348,
              0.23827815055847168,
              0.2001156061887741
            ],
            [
              -1.800906034077343e-06,
              0.010243670083582401,
              0.08977462351322174
            ],
            [
              -0.08142814040184021,
              0.14551663398742676,
              0.0560874342918396
            ]
          ]
        ]
      }
    ]
  },
  "relu_1_2": {
    "input_shape": [
      60,
      60,
      10
    ],
    "output_shape": [
      60,
      60,
      10
    ],
    "num_neurons": 10
  },
  "max_pool_1": {
    "input_shape": [
      60,
      60,
      10
    ],
    "output_shape": [
      30,
      30,
      10
    ],
    "num_neurons": 10
  },
  "conv_2_1": {
    "input_shape": [
      30,
      30,
      10
    ],
    "output_shape": [
      28,
      28,
      10
    ],
    "num_neurons": 10,
    "weights": [
      {
        "bias": 0.011815635487437248,
        "weights": [
          [
            [
              -0.11484525352716446,
              0.058392930775880814,
              0.06836089491844177
            ],
            [
              -0.12951965630054474,
              0.06217973306775093,
              -0.09731876850128174
            ],
            [
              -0.02317223884165287,
              0.08160224556922913,
              -0.03924289345741272
            ]
          ],
          [
            [
              0.2125229686498642,
              -0.13582797348499298,
              0.03071761317551136
            ],
            [
              0.03933453932404518,
              -0.06182918697595596,
              0.22885823249816895
            ],
            [
              0.17186109721660614,
              -0.06552490592002869,
              0.2651505172252655
            ]
          ],
          [
            [
              0.1105354055762291,
              0.010262100957334042,
              -0.13042095303535461
            ],
            [
              0.14443208277225494,
              -0.05727342143654823,
              -0.04206512123346329
            ],
            [
              -0.10976272076368332,
              0.03119855560362339,
              -0.051193173974752426
            ]
          ],
          [
            [
              0.1482502520084381,
              0.07732291519641876,
              -0.12372035533189774
            ],
            [
              -0.008203564211726189,
              0.06973782181739807,
              -0.06731162220239639
            ],
            [
              -0.04948596656322479,
              -0.10232144594192505,
              -0.10607366263866425
            ]
          ],
          [
            [
              -0.09407427906990051,
              0.05742305889725685,
              0.09257117658853531
            ],
            [
              0.009173828177154064,
              -0.028699005022644997,
              -0.058262135833501816
            ],
            [
              -0.10053420066833496,
              -0.08580096065998077,
              0.16268661618232727
            ]
          ],
          [
            [
              0.08027299493551254,
              0.04604848474264145,
              0.21490028500556946
            ],
            [
              0.17267461121082306,
              0.06389638036489487,
              0.1847228705883026
            ],
            [
              0.13727901875972748,
              0.11877355724573135,
              0.1965261995792389
            ]
          ],
          [
            [
              0.14070674777030945,
              -0.010243537835776806,
              0.20289702713489532
            ],
            [
              -0.051125481724739075,
              0.19118238985538483,
              0.04766391962766647
            ],
            [
              0.1329386681318283,
              0.18287476897239685,
              0.01855473592877388
            ]
          ],
          [
            [
              -0.003802487626671791,
              0.004255977459251881,
              0.01623765379190445
            ],
            [
              -0.17214448750019073,
              -0.16838407516479492,
              -0.004767832346260548
            ],
            [
              -0.10154475271701813,
              -0.054823797196149826,
              0.014353903010487556
            ]
          ],
          [
            [
              0.08425235748291016,
              -0.06645765155553818,
              0.000731772044673562
            ],
            [
              0.19785460829734802,
              0.021801751106977463,
              0.09287259727716446
            ],
            [
              -0.07214006781578064,
              0.0735536515712738,
              0.07998710125684738
            ]
          ],
          [
            [
              -0.01751006208360195,
              -0.08250120282173157,
              0.009667753241956234
            ],
            [
              0.02056119777262211,
              -0.024583088234066963,
              -0.11435160785913467
            ],
            [
              -0.0803164467215538,
              0.07514654844999313,
              -0.0573924258351326
            ]
          ]
        ]
      },
      {
        "bias": 0.07009098678827286,
        "weights": [
          [
            [
              -0.070344477891922,
              0.08192828297615051,
              0.10601271688938141
            ],
            [
              -0.09543347358703613,
              0.04007422551512718,
              0.04310094937682152
            ],
            [
              -0.0018657754408195615,
              -0.09363361448049545,
              0.18242277204990387
            ]
          ],
          [
            [
              -0.04082898050546646,
              -0.0895070806145668,
              -0.028306735679507256
            ],
            [
              0.10638220608234406,
              -0.15993015468120575,
              -0.11626886576414108
            ],
            [
              0.1400417983531952,
              -0.17664556205272675,
              -0.19944357872009277
            ]
          ],
          [
            [
              0.10167133808135986,
              0.016818642616271973,
              0.03875918686389923
            ],
            [
              0.15418392419815063,
              0.16011124849319458,
              -0.12694281339645386
            ],
            [
              -0.09861742705106735,
              -0.06901512295007706,
              -0.03402835875749588
            ]
          ],
          [
            [
              0.17110149562358856,
              0.20279213786125183,
              -0.01670430600643158
            ],
            [
              0.26864781975746155,
              0.1244426742196083,
              -0.18974584341049194
            ],
            [
              0.18847644329071045,
              0.07579035311937332,
              -0.026974337175488472
            ]
          ],
          [
            [
              -0.09720136225223541,
              0.05865464732050896,
              -0.007337218150496483
            ],
            [
              -0.14509163796901703,
              -0.1349109709262848,
              0.1343287229537964
            ],
            [
              -0.05848217010498047,
              0.13874779641628265,
              0.003343952586874366
            ]
          ],
          [
            [
              0.006391443312168121,
              -0.18972361087799072,
              -0.1329975128173828
            ],
            [
              -0.14462149143218994,
              -0.09091804921627045,
              0.04680110514163971
            ],
            [
              0.09517385810613632,
              -0.04852692410349846,
              -0.1712331771850586
            ]
          ],
          [
            [
              -0.0026543268468230963,
              -0.1529632806777954,
              -0.1445930004119873
            ],
            [
              -0.16861426830291748,
              0.0526542104780674,
              0.11633219569921494
            ],
            [
              0.06836266070604324,
              -0.1610092967748642,
              -0.20560002326965332
            ]
          ],
          [
            [
              -0.17697563767433167,
              -0.09919460862874985,
              -0.16133271157741547
            ],
            [
              0.04970747232437134,
              0.09254229813814163,
              0.10206005722284317
            ],
            [
              0.1089683398604393,
              0.13390010595321655,
              0.08653522282838821
            ]
          ],
          [
            [
              -0.1621519774198532,
              0.0025350316427648067,
              -0.15027736127376556
            ],
            [
              -0.16022609174251556,
              0.016238536685705185,
              -0.07725255936384201
            ],
            [
              -0.10051760822534561,
              0.11834584176540375,
              -0.16749867796897888
            ]
          ],
          [
            [
              -0.05000810697674751,
              0.09116843342781067,
              -0.09111081063747406
            ],
            [
              -0.0932372584939003,
              -0.04082643240690231,
              0.16984549164772034
            ],
            [
              0.22960257530212402,
              -0.09667875617742538,
              0.08555899560451508
            ]
          ]
        ]
      },
      {
        "bias": 0.10416626185178757,
        "weights": [
          [
            [
              0.10309506207704544,
              0.07795468717813492,
              0.05470717325806618
            ],
            [
              0.004592589568346739,
              -0.11706043034791946,
              0.11372105032205582
            ],
            [
              -0.050897784531116486,
              0.0863368958234787,
              0.05942252650856972
            ]
          ],
          [
            [
              -0.051574502140283585,
              -0.09968596696853638,
              0.014306051656603813
            ],
            [
              -0.10161535441875458,
              0.025663763284683228,
              0.015068759210407734
            ],
            [
              -0.01956978254020214,
              -0.05377250537276268,
              0.06877264380455017
            ]
          ],
          [
            [
              0.1600605845451355,
              -0.05604109168052673,
              0.007405471056699753
            ],
            [
              -0.07594391703605652,
              0.09908832609653473,
              0.12712611258029938
            ],
            [
              0.014751273207366467,
              -0.035483527928590775,
              -0.0017525037983432412
            ]
          ],
          [
            [
              0.07329096645116806,
              -0.14403273165225983,
              0.1115703359246254
            ],
            [
              -0.05647395923733711,
              0.14013245701789856,
              -0.19961607456207275
            ],
            [
              -0.05570550262928009,
              0.05371924489736557,
              -0.12453977018594742
            ]
          ],
          [
            [
              0.05970350280404091,
              0.257308691740036,
              0.05369449034333229
            ],
            [
              -0.013138319365680218,
              0.20661990344524384,
              0.19604811072349548
            ],
            [
              0.132625013589859,
              -0.05716736987233162,
              0.214053675532341
            ]
          ],
          [
            [
              0.062984898686409,
              -0.07260826230049133,
              0.1410129815340042
            ],
            [
              -0.041304491460323334,
              -0.021146580576896667,
              -0.1928642988204956
            ],
            [
              -0.018512297421693802,
              0.028840327635407448,
              0.12377108633518219
            ]
          ],
          [
            [
              -0.1162898913025856,
              0.16056525707244873,
              0.09983079880475998
            ],
            [
              0.0033866572193801403,
              0.1028219610452652,
              0.034325771033763885
            ],
            [
              0.05956391617655754,
              0.11494278162717819,
              0.024141833186149597
            ]
          ],
          [
            [
              -0.044437434524297714,
              -0.12932837009429932,
              0.0038828211836516857
            ],
            [
              0.028749441727995872,
              0.01786218397319317,
              -0.12284880876541138
            ],
            [
              -0.11220283806324005,
              -0.17209844291210175,
              -0.07184183597564697
            ]
          ],
          [
            [
              -0.1940716654062271,
              0.13155242800712585,
              0.06286167353391647
            ],
            [
              -0.18365712463855743,
              0.012540759518742561,
              -0.13285821676254272
            ],
            [
              -0.11439744383096695,
              -0.20666822791099548,
              -0.18580368161201477
            ]
          ],
          [
            [
              0.1020195260643959,
              -0.06361617892980576,
              -0.1418946534395218
            ],
            [
              -0.00031532623688690364,
              0.17554952204227448,
              -0.07927341759204865
            ],
            [
              0.15645313262939453,
              -0.0028508964460343122,
              0.10589024424552917
            ]
          ]
        ]
      },
      {
        "bias": 0.08933281898498535,
        "weights": [
          [
            [
              0.003035744884982705,
              0.14189496636390686,
              -0.01692771166563034
            ],
            [
              0.11095806211233139,
              -0.19137126207351685,
              -0.1603483259677887
            ],
            [
              -0.18867938220500946,
              -0.1897023767232895,
              -0.09482409060001373
            ]
          ],
          [
            [
              0.17100654542446136,
              0.0446431003510952,
              0.12698209285736084
            ],
            [
              -0.11393291503190994,
              0.19226956367492676,
              -0.10032163560390472
            ],
            [
              0.22194896638393402,
              0.13227027654647827,
              -0.09232182800769806
            ]
          ],
          [
            [
              0.1661359965801239,
              -0.01288951188325882,
              -0.1259792149066925
            ],
            [
              0.15846581757068634,
              0.054190877825021744,
              0.055387724190950394
            ],
            [
              -0.15401847660541534,
              0.027895614504814148,
              -0.08091219514608383
            ]
          ],
          [
            [
              0.10574949532747269,
              -0.24287712574005127,
              -0.03878190740942955
            ],
            [
              0.03079104982316494,
              0.16999244689941406,
              0.1083441749215126
            ],
            [
              -0.07052426040172577,
              0.099058136343956,
              0.2275954931974411
            ]
          ],
          [
            [
              0.03395511582493782,
              0.14902454614639282,
              -0.0756940096616745
            ],
            [
              0.09017933160066605,
              -0.029834089800715446,
              0.05377272516489029
            ],
            [
              0.24570363759994507,
              0.12010623514652252,
              0.1530829817056656
            ]
          ],
          [
            [
              0.05211413651704788,
              -0.1863296627998352,
              0.004244578070938587
            ],
            [
              -0.16954578459262848,
              0.14222076535224915,
              -0.04753073677420616
            ],
            [
              -0.018068963661789894,
              0.029937321320176125,
              0.06574752926826477
            ]
          ],
          [
            [
              -0.1533069759607315,
              -0.15971246361732483,
              -0.030765198171138763
            ],
            [
              -0.008492998778820038,
              0.027691444382071495,
              -0.13681577146053314
            ],
            [
              0.0335594080388546,
              -0.04489180073142052,
              0.09253522008657455
            ]
          ],
          [
            [
              -0.032716572284698486,
              0.1700587272644043,
              0.00453325267881155
            ],
            [
              -0.038628868758678436,
              0.0850277990102768,
              -0.1444883942604065
            ],
            [
              -0.05943614989519119,
              -0.11332277208566666,
              0.05931014195084572
            ]
          ],
          [
            [
              0.08640825748443604,
              0.09206236153841019,
              -0.07223504036664963
            ],
            [
              -0.02372869662940502,
              0.1148393377661705,
              0.09837665408849716
            ],
            [
              -0.03609608858823776,
              0.0786861926317215,
              0.07104624062776566
            ]
          ],
          [
            [
              -0.17194584012031555,
              -0.16728246212005615,
              0.1387578248977661
            ],
            [
              -0.1264849454164505,
              -0.023477347567677498,
              0.04852458834648132
            ],
            [
              0.11755182594060898,
              -0.016586406156420708,
              -0.08006658405065536
            ]
          ]
        ]
      },
      {
        "bias": -0.048437993973493576,
        "weights": [
          [
            [
              0.06377577781677246,
              -0.0640316978096962,
              -0.0416531078517437
            ],
            [
              -0.038655612617731094,
              -0.11650833487510681,
              0.025864673778414726
            ],
            [
              0.11256928741931915,
              0.025198746472597122,
              -0.06050405278801918
            ]
          ],
          [
            [
              0.040387112647295,
              0.1307249218225479,
              0.2630627453327179
            ],
            [
              0.18700051307678223,
              0.24903224408626556,
              0.23202335834503174
            ],
            [
              0.14800025522708893,
              -0.08430345356464386,
              -0.03006022609770298
            ]
          ],
          [
            [
              0.003997510299086571,
              -0.029015053063631058,
              0.23602598905563354
            ],
            [
              0.2574305534362793,
              -0.015365294180810452,
              0.13400937616825104
            ],
            [
              -0.024463312700390816,
              0.09214413166046143,
              -0.04804262891411781
            ]
          ],
          [
            [
              0.03128146752715111,
              0.3473120927810669,
              0.32378658652305603
            ],
            [
              0.11202861368656158,
              -0.1801929920911789,
              -0.05119858682155609
            ],
            [
              -0.10220344364643097,
              -0.3708333969116211,
              -0.21694618463516235
            ]
          ],
          [
            [
              0.01889675296843052,
              0.10742688179016113,
              -0.064004085958004
            ],
            [
              0.13322703540325165,
              0.008849170990288258,
              0.09631595760583878
            ],
            [
              -0.17644232511520386,
              0.06295503675937653,
              -0.2169291079044342
            ]
          ],
          [
            [
              -0.03342338651418686,
              -0.054856497794389725,
              0.18313735723495483
            ],
            [
              -0.1594693660736084,
              0.006569282617419958,
              -0.12766815721988678
            ],
            [
              -0.24508430063724518,
              -0.2964804470539093,
              -0.09859520196914673
            ]
          ],
          [
            [
              0.1533353328704834,
              -0.14713893830776215,
              0.1680964082479477
            ],
            [
              0.1519399732351303,
              0.156093567609787,
              0.1102149486541748
            ],
            [
              0.19768792390823364,
              0.18076354265213013,
              -0.20387545228004456
            ]
          ],
          [
            [
              0.09885694831609726,
              -0.09595060348510742,
              -0.11965985596179962
            ],
            [
              0.06475159525871277,
              -0.17903245985507965,
              -0.04889465123414993
            ],
            [
              -0.00849988404661417,
              0.15836374461650848,
              0.15333297848701477
            ]
          ],
          [
            [
              -0.1348639577627182,
              -0.09490931779146194,
              -0.030341120436787605
            ],
            [
              0.02767704613506794,
              -0.09375343471765518,
              -0.03458458557724953
            ],
            [
              -0.02418803609907627,
              -0.009057773277163506,
              -0.1792750507593155
            ]
          ],
          [
            [
              0.15309977531433105,
              -0.08630773425102234,
              0.18522335588932037
            ],
            [
              0.16077673435211182,
              0.19681349396705627,
              0.11594586074352264
            ],
            [
              -0.18315346539020538,
              -0.11120211333036423,
              0.09783530980348587
            ]
          ]
        ]
      },
      {
        "bias": -0.009472580626606941,
        "weights": [
          [
            [
              -0.22968629002571106,
              -0.13484367728233337,
              -0.01599312759935856
            ],
            [
              -0.1387454718351364,
              -0.07441845536231995,
              -0.05329731106758118
            ],
            [
              -0.13497689366340637,
              -0.07367853075265884,
              -0.09993109852075577
            ]
          ],
          [
            [
              0.0671117901802063,
              -0.01708202250301838,
              -0.11895773559808731
            ],
            [
              0.13096705079078674,
              0.10994734615087509,
              0.08375541120767593
            ],
            [
              0.08559510856866837,
              0.24622054398059845,
              0.03427117317914963
            ]
          ],
          [
            [
              0.16087740659713745,
              0.20603430271148682,
              0.10259132087230682
            ],
            [
              -0.017500359565019608,
              0.13489048182964325,
              -0.0045667896047234535
            ],
            [
              -0.024002108722925186,
              0.1973181962966919,
              0.11182322353124619
            ]
          ],
          [
            [
              0.015711819753050804,
              0.05303918942809105,
              -0.1435055285692215
            ],
            [
              0.14512865245342255,
              0.10817775130271912,
              -0.13876408338546753
            ],
            [
              0.2046271711587906,
              0.18759869039058685,
              0.018460256978869438
            ]
          ],
          [
            [
              -0.23321714997291565,
              0.11631081998348236,
              0.05029318109154701
            ],
            [
              -0.03991437330842018,
              -0.14593864977359772,
              0.07088552415370941
            ],
            [
              -0.27432864904403687,
              -0.24731417000293732,
              -0.06372581422328949
            ]
          ],
          [
            [
              -0.13122014701366425,
              0.047325413674116135,
              -0.16981154680252075
            ],
            [
              -0.1397186666727066,
              0.1910841166973114,
              0.0056532020680606365
            ],
            [
              0.14390210807323456,
              0.021463118493556976,
              0.1984836310148239
            ]
          ],
          [
            [
              0.1712532490491867,
              0.09664703160524368,
              0.007282881066203117
            ],
            [
              0.12735645473003387,
              -0.1210336983203888,
              0.14112712442874908
            ],
            [
              -0.024134410545229912,
              0.07567759603261948,
              0.2153291404247284
            ]
          ],
          [
            [
              0.04826069995760918,
              -0.0238029882311821,
              0.14710377156734467
            ],
            [
              -0.12122389674186707,
              -0.13979148864746094,
              -0.13936486840248108
            ],
            [
              -0.11750462651252747,
              -0.09581611305475235,
              0.10033652186393738
            ]
          ],
          [
            [
              -0.152349054813385,
              0.07100076973438263,
              -0.05977809056639671
            ],
            [
              0.134218230843544,
              -0.1066192239522934,
              0.17913098633289337
            ],
            [
              0.18558837473392487,
              0.2335822880268097,
              -0.0646936371922493
            ]
          ],
          [
            [
              -0.16268180310726166,
              0.017538294196128845,
              -0.019346777349710464
            ],
            [
              -0.1759844422340393,
              0.04464282467961311,
              -0.1883028894662857
            ],
            [
              0.012539233081042767,
              0.056473325937986374,
              -0.21127887070178986
            ]
          ]
        ]
      },
      {
        "bias": 0.2493169605731964,
        "weights": [
          [
            [
              0.11524408310651779,
              0.007194827310740948,
              -0.00718346145004034
            ],
            [
              0.11355046182870865,
              -0.13003136217594147,
              0.1378016322851181
            ],
            [
              0.10008449852466583,
              -0.13758839666843414,
              -0.15158309042453766
            ]
          ],
          [
            [
              -0.20731216669082642,
              -0.1848101168870926,
              -0.1492207646369934
            ],
            [
              -0.0008838913636282086,
              -0.14777235686779022,
              -0.018316559493541718
            ],
            [
              -0.10909968614578247,
              -0.036532215774059296,
              -0.015108141116797924
            ]
          ],
          [
            [
              -0.1936952769756317,
              0.0040615033358335495,
              -0.2086072862148285
            ],
            [
              -0.007819068618118763,
              0.004165705759078264,
              -0.21214306354522705
            ],
            [
              0.14430926740169525,
              -0.10927961766719818,
              -0.11446109414100647
            ]
          ],
          [
            [
              0.1850251853466034,
              0.1846638321876526,
              0.10927534848451614
            ],
            [
              -0.26645025610923767,
              -0.06915277242660522,
              0.07830913364887238
            ],
            [
              -0.1358642727136612,
              -0.22729413211345673,
              -0.15393787622451782
            ]
          ],
          [
            [
              0.10474992543458939,
              0.10121780633926392,
              0.21710044145584106
            ],
            [
              -0.13941438496112823,
              0.16093507409095764,
              0.18424013257026672
            ],
            [
              -0.15836498141288757,
              -0.10523179173469543,
              0.03566208481788635
            ]
          ],
          [
            [
              0.13770560920238495,
              0.06055952608585358,
              0.11877445131540298
            ],
            [
              0.03760366514325142,
              0.1325979381799698,
              -0.0519477054476738
            ],
            [
              0.033523041754961014,
              0.10159369558095932,
              0.21449407935142517
            ]
          ],
          [
            [
              0.07459560036659241,
              -0.04213529825210571,
              -0.15013574063777924
            ],
            [
              0.23393674194812775,
              0.025291670113801956,
              0.07726650685071945
            ],
            [
              0.11133841425180435,
              0.19472751021385193,
              0.2016192376613617
            ]
          ],
          [
            [
              -0.006905108690261841,
              -0.05800170823931694,
              -0.010099225677549839
            ],
            [
              -0.12393461167812347,
              0.06503108143806458,
              -0.0868939459323883
            ],
            [
              0.09675385057926178,
              -0.12889711558818817,
              -0.10482790321111679
            ]
          ],
          [
            [
              0.13468743860721588,
              -0.1271112859249115,
              -0.003554626600816846
            ],
            [
              -0.09673312306404114,
              -0.15438321232795715,
              0.10719192773103714
            ],
            [
              -0.12481097131967545,
              0.12945954501628876,
              0.22328609228134155
            ]
          ],
          [
            [
              0.22136954963207245,
              0.05895253270864487,
              0.03665580600500107
            ],
            [
              0.015179583802819252,
              -0.08781840652227402,
              0.11739601939916611
            ],
            [
              0.1405547559261322,
              -0.155018612742424,
              -0.017825176939368248
            ]
          ]
        ]
      },
      {
        "bias": -0.10306306183338165,
        "weights": [
          [
            [
              -0.003130610566586256,
              -0.05189712718129158,
              -0.11407150328159332
            ],
            [
              -0.1439162641763687,
              -0.18031439185142517,
              0.16673709452152252
            ],
            [
              -0.1746586561203003,
              -0.13610415160655975,
              0.18512177467346191
            ]
          ],
          [
            [
              0.2607993483543396,
              0.18499189615249634,
              0.24966388940811157
            ],
            [
              0.31447163224220276,
              0.2476738542318344,
              0.11329327523708344
            ],
            [
              0.20101086795330048,
              0.018459171056747437,
              0.255400687456131
            ]
          ],
          [
            [
              0.12210101634263992,
              -0.16904814541339874,
              0.1371150016784668
            ],
            [
              0.1313072293996811,
              0.017470596358180046,
              -0.17426437139511108
            ],
            [
              0.13321851193904877,
              -0.17803137004375458,
              -0.0021785683929920197
            ]
          ],
          [
            [
              -0.04930781200528145,
              0.17942827939987183,
              0.2517499029636383
            ],
            [
              -0.10590849071741104,
              0.16959227621555328,
              0.2106086015701294
            ],
            [
              -0.14782343804836273,
              0.1528891623020172,
              0.16718272864818573
            ]
          ],
          [
            [
              0.04729193076491356,
              0.20028281211853027,
              -0.05644778534770012
            ],
            [
              0.10727853327989578,
              0.21498431265354156,
              0.27305904030799866
            ],
            [
              0.033953431993722916,
              -0.10027254372835159,
              0.26958420872688293
            ]
          ],
          [
            [
              0.10430584847927094,
              -0.17601872980594635,
              0.0005129886558279395
            ],
            [
              -0.09760323166847229,
              -0.18726381659507751,
              0.017706727609038353
            ],
            [
              -0.2646515965461731,
              0.012630855664610863,
              -0.012353241443634033
            ]
          ],
          [
            [
              0.03209882974624634,
              -0.09076279401779175,
              -0.050251226872205734
            ],
            [
              -0.04269653558731079,
              -0.025448685511946678,
              -0.15550872683525085
            ],
            [
              -0.1492101103067398,
              -0.10767076164484024,
              0.024653909727931023
            ]
          ],
          [
            [
              -0.1622660905122757,
              -0.14822372794151306,
              0.02189849503338337
            ],
            [
              0.09782762080430984,
              0.016069186851382256,
              -0.10958549380302429
            ],
            [
              -0.15676087141036987,
              0.01731039211153984,
              0.0541633665561676
            ]
          ],
          [
            [
              0.2440412938594818,
              0.20136000216007233,
              0.13421626389026642
            ],
            [
              0.28753921389579773,
              0.2474077194929123,
              0.037291519343853
            ],
            [
              -0.0048501514829695225,
              0.04484067112207413,
              0.11107049137353897
            ]
          ],
          [
            [
              -0.1824311763048172,
              0.0011558349942788482,
              -0.11297067254781723
            ],
            [
              -0.07359194755554199,
              0.15014927089214325,
              0.16198252141475677
            ],
            [
              -0.01394253596663475,
              0.19778428971767426,
              0.07778920233249664
            ]
          ]
        ]
      },
      {
        "bias": 0.05079179257154465,
        "weights": [
          [
            [
              0.009223279543220997,
              -0.07715410739183426,
              0.18164817988872528
            ],
            [
              0.18953990936279297,
              -0.01978171244263649,
              0.11761066317558289
            ],
            [
              -0.1544467806816101,
              0.18492603302001953,
              0.1889379322528839
            ]
          ],
          [
            [
              -0.11192324757575989,
              -0.24789045751094818,
              -0.09021288901567459
            ],
            [
              -0.2608279883861542,
              -0.14580829441547394,
              -0.13049693405628204
            ],
            [
              -0.24833619594573975,
              -0.2973809838294983,
              0.03614827245473862
            ]
          ],
          [
            [
              0.1517951786518097,
              -0.0023655076511204243,
              0.16344992816448212
            ],
            [
              -0.09040983021259308,
              0.12780366837978363,
              0.059372592717409134
            ],
            [
              -0.10092100501060486,
              -0.16831648349761963,
              -0.049201905727386475
            ]
          ],
          [
            [
              0.13459546864032745,
              0.18470609188079834,
              -0.18711663782596588
            ],
            [
              0.06278839707374573,
              0.34053725004196167,
              0.18594659864902496
            ],
            [
              0.2736765742301941,
              0.279739648103714,
              0.18935395777225494
            ]
          ],
          [
            [
              -0.3050677478313446,
              -0.28120702505111694,
              -0.20240862667560577
            ],
            [
              -0.027675092220306396,
              -0.2199120968580246,
              0.09010978788137436
            ],
            [
              -0.06095552816987038,
              0.03755621239542961,
              -0.022567270323634148
            ]
          ],
          [
            [
              0.22840574383735657,
              0.13209141790866852,
              0.2837936282157898
            ],
            [
              0.1303911805152893,
              0.08774317800998688,
              0.06727518886327744
            ],
            [
              -0.04324965551495552,
              -0.11926591396331787,
              0.04215014725923538
            ]
          ],
          [
            [
              -0.11985175311565399,
              -0.05886328965425491,
              0.1628890186548233
            ],
            [
              0.1721034049987793,
              -0.031017068773508072,
              -0.07457201927900314
            ],
            [
              -0.16791516542434692,
              0.1297203004360199,
              0.06207601726055145
            ]
          ],
          [
            [
              0.08160151541233063,
              -0.01794564351439476,
              0.0048112110234797
            ],
            [
              -0.024485541507601738,
              0.0289626345038414,
              -0.02761915884912014
            ],
            [
              0.1373397260904312,
              -0.017209943383932114,
              0.010969430208206177
            ]
          ],
          [
            [
              0.009042812511324883,
              -0.0973312184214592,
              0.07120172679424286
            ],
            [
              0.01591431349515915,
              -0.07028499245643616,
              -0.08836544305086136
            ],
            [
              -0.16374893486499786,
              -0.21360480785369873,
              -0.0022631576284766197
            ]
          ],
          [
            [
              -0.14489927887916565,
              0.1725819855928421,
              0.034574542194604874
            ],
            [
              -0.0325707383453846,
              0.11043888330459595,
              -0.145512193441391
            ],
            [
              0.029658833518624306,
              -0.09738717973232269,
              0.10139408707618713
            ]
          ]
        ]
      },
      {
        "bias": -0.029566645622253418,
        "weights": [
          [
            [
              0.08894208073616028,
              -0.07091334462165833,
              0.03508846461772919
            ],
            [
              0.11651425063610077,
              0.049052149057388306,
              0.1483444720506668
            ],
            [
              0.01867830753326416,
              -0.07524222880601883,
              0.09748624265193939
            ]
          ],
          [
            [
              0.06506600230932236,
              -0.06752230226993561,
              0.001278037903830409
            ],
            [
              0.05604219064116478,
              -0.06744608283042908,
              -0.006299642380326986
            ],
            [
              -0.048097070306539536,
              -0.16458268463611603,
              0.08289915323257446
            ]
          ],
          [
            [
              0.0810358077287674,
              -0.07417524605989456,
              0.1530526727437973
            ],
            [
              -0.11021338403224945,
              0.082023486495018,
              -0.11569131910800934
            ],
            [
              0.11151372641324997,
              -0.15310007333755493,
              -0.002427702769637108
            ]
          ],
          [
            [
              -0.03224249929189682,
              0.07460841536521912,
              0.07686097174882889
            ],
            [
              -0.1322897970676422,
              0.14435450732707977,
              -0.07215840369462967
            ],
            [
              -0.027461370453238487,
              -0.010192965157330036,
              0.1208769679069519
            ]
          ],
          [
            [
              -0.12537409365177155,
              0.08205452561378479,
              0.12455412745475769
            ],
            [
              -0.020924478769302368,
              -0.14502239227294922,
              0.11552762985229492
            ],
            [
              0.0385841429233551,
              -0.1569531112909317,
              -0.11200978606939316
            ]
          ],
          [
            [
              -0.11927352100610733,
              -0.10025250911712646,
              0.03715658187866211
            ],
            [
              -0.1238020732998848,
              0.12461996078491211,
              0.009993192739784718
            ],
            [
              -0.10590720921754837,
