{
  "conv_1_1": {
    "input_shape": [
      64,
      64,
      3
    ],
    "output_shape": [
      62,
      62,
      10
    ],
    "num_neurons": 10,
    "weights": [
      {
        "bias": 0.055933739989995956,
        "weights": [
          [
            [
              0.02820955403149128,
              0.10486938059329987,
              0.15769657492637634
            ],
            [
              -0.0002769138664007187,
              0.012386218644678593,
              0.010755481198430061
            ],
            [
              -0.18394514918327332,
              0.09264139831066132,
              0.21890141069889069
            ]
          ],
          [
            [
              0.19943080842494965,
              0.09691479802131653,
              0.09263042360544205
            ],
            [
              0.0928574800491333,
              0.3171677887439728,
              0.3715417683124542
            ],
            [
              -0.052036579698324203,
              0.1736144721508026,
              0.31175264716148376
            ]
          ],
          [
            [
              -0.3714885115623474,
              -0.2872064411640167,
              -0.23208124935626984
            ],
            [
              -0.3755719065666199,
              -0.06208142265677452,
              -0.1924893707036972
            ],
            [
              -0.41273459792137146,
              -0.33318233489990234,
              0.03244776651263237
            ]
          ]
        ]
      },
      {
        "bias": 0.07874369621276855,
        "weights": [
          [
            [
              0.01220948901027441,
              0.3367493152618408,
              0.14808620512485504
            ],
            [
              0.17048169672489166,
              0.27122655510902405,
              0.3816891312599182
            ],
            [
              0.23364025354385376,
              -0.06144646927714348,
              0.28164762258529663
            ]
          ],
          [
            [
              -0.0617900975048542,
              0.04073033481836319,
              -0.3067323565483093
            ],
            [
              -0.027004772797226906,
              0.2007644921541214,
              -0.07388056069612503
            ],
            [
              -0.2670574486255646,
              -0.2956311106681824,
              -0.28806623816490173
            ]
          ],
          [
            [
              0.05321730300784111,
              -0.2892286777496338,
              -0.0772937461733818
            ],
            [
              -0.12838007509708405,
              -0.05353710800409317,
              -0.13575145602226257
            ],
            [
              0.035894766449928284,
              -0.2406851202249527,
              -0.08740806579589844
            ]
          ]
        ]
      },
      {
        "bias": -0.0002974455419462174,
        "weights": [
          [
            [
              0.12152090668678284,
              0.141325905919075,
              -0.022616032510995865
            ],
            [
              -0.022526409476995468,
              -0.19285160303115845,
              -0.1381586343050003
            ],
            [
              -0.07159175723791122,
              0.07762231677770615,
              -0.10120877623558044
            ]
          ],
          [
            [
              0.18981708586215973,
              -0.2032105177640915,
              0.15521983802318573
            ],
            [
              0.03177063912153244,
              -0.21459144353866577,
              -0.14457955956459045
            ],
            [
              0.07279986888170242,
              0.16419441998004913,
              -0.11518437415361404
            ]
          ],
          [
            [
              0.05145341902971268,
              -0.05863228067755699,
              -0.21805289387702942
            ],
            [
              0.20309409499168396,
              -0.17869673669338226,
              -0.1375618427991867
            ],
            [
              0.04427793249487877,
              -0.1397387534379959,
              -0.201711505651474
            ]
          ]
        ]
      },
      {
        "bias": 0.03670971468091011,
        "weights": [
          [
            [
              -0.2141185998916626,
              -0.09198897331953049,
              0.0982666164636612
            ],
            [
              0.27460673451423645,
              0.1338505893945694,
              0.16616737842559814
            ],
            [
              -0.10278686136007309,
              -0.19157195091247559,
              0.20844335854053497
            ]
          ],
          [
            [
              0.1359633356332779,
              0.018576757982373238,
              0.1367952972650528
            ],
            [
              0.050519127398729324,
              -0.09691566973924637,
              0.025211047381162643
            ],
            [
              0.2009151726961136,
              0.009823297150433064,
              -0.03610936179757118
            ]
          ],
          [
            [
              0.056010134518146515,
              -0.21168707311153412,
              -0.20491541922092438
            ],
            [
              0.107602559030056,
              0.13655129075050354,
              -0.22640933096408844
            ],
            [
              0.06783875077962875,
              0.0013170561287552118,
              0.08444152772426605
            ]
          ]
        ]
      },
      {
        "bias": -0.010912368074059486,
        "weights": [
          [
            [
              0.057295672595500946,
              -0.10340521484613419,
              0.01784275472164154
            ],
            [
              0.2522341012954712,
              -0.21854813396930695,
              0.06611474603414536
            ],
            [
              0.08898229897022247,
              0.13336555659770966,
              0.14265593886375427
            ]
          ],
          [
            [
              0.00640135770663619,
              -0.002098443917930126,
              -0.18477508425712585
            ],
            [
              -0.17236076295375824,
              -0.2053987979888916,
              0.004355507902801037
            ],
            [
              0.15478843450546265,
              -0.09310046583414078,
              0.11275599896907806
            ]
          ],
          [
            [
              0.0674072802066803,
              0.19548100233078003,
              0.34237802028656006
            ],
            [
              0.428466260433197,
              -0.16392956674098969,
              0.12032946944236755
            ],
            [
              0.14331448078155518,
              -0.09532047063112259,
              0.2335507720708847
            ]
          ]
        ]
      },
      {
        "bias": -0.040734339505434036,
        "weights": [
          [
            [
              0.2620982229709625,
              0.20491288602352142,
              0.009195542894303799
            ],
            [
              0.14188966155052185,
              -0.03599633648991585,
              0.4068751037120819
            ],
            [
              -0.11091665178537369,
              0.17444735765457153,
              0.20675034821033478
            ]
          ],
          [
            [
              0.10604015737771988,
              0.10489115864038467,
              0.05715521425008774
            ],
            [
              0.2323623150587082,
              -0.15483365952968597,
              0.054927993565797806
            ],
            [
              -0.06309197098016739,
              0.062141627073287964,
              -0.2695959806442261
            ]
          ],
          [
            [
              -0.0029833249282091856,
              -0.22863273322582245,
              -0.09471488744020462
            ],
            [
              0.19092290103435516,
              -0.3113739788532257,
              0.01185244508087635
            ],
            [
              -0.29817458987236023,
              0.05117425695061684,
              -0.005266212858259678
            ]
          ]
        ]
      },
      {
        "bias": -0.05073236674070358,
        "weights": [
          [
            [
              -0.10014263540506363,
              -0.10343801230192184,
              0.11517700552940369
            ],
            [
              0.1722729206085205,
              -0.06428342312574387,
              -0.12564527988433838
            ],
            [
              0.06357095390558243,
              -0.08017415553331375,
              -0.2278948873281479
            ]
          ],
          [
            [
              -0.1627420336008072,
              0.08830219507217407,
              0.14842921495437622
            ],
            [
              0.03154733404517174,
              0.08743413537740707,
              -0.20783741772174835
            ],
            [
              -0.14264607429504395,
              -0.1402919739484787,
              0.014363737776875496
            ]
          ],
          [
            [
              0.07507816702127457,
              0.12416601181030273,
              -0.09759949892759323
            ],
            [
              0.10547290742397308,
              0.08930090069770813,
              -0.2324005514383316
            ],
            [
              0.05484593287110329,
              0.15231089293956757,
              -0.18697760999202728
            ]
          ]
        ]
      },
      {
        "bias": 0.20397397875785828,
        "weights": [
          [
            [
              -0.3075421452522278,
              -0.12381067126989365,
              -0.2865026593208313
            ],
            [
              0.43365755677223206,
              0.25564324855804443,
              0.2704300582408905
            ],
            [
              0.10902343690395355,
              -0.018680604174733162,
              0.15036140382289886
            ]
          ],
          [
            [
              -0.34711700677871704,
              -0.2433561235666275,
              -0.1326117366552353
            ],
            [
              0.42945462465286255,
              0.2523370385169983,
              0.12630727887153625
            ],
            [
              0.04527408257126808,
              0.26623716950416565,
              0.11646319180727005
            ]
          ],
          [
            [
              -0.28547403216362,
              -0.22384284436702728,
              -0.3420810401439667
            ],
            [
              0.1136959120631218,
              0.16136766970157623,
              0.310208797454834
            ],
            [
              -0.022095538675785065,
              0.19013237953186035,
              -0.05254947021603584
            ]
          ]
        ]
      },
      {
        "bias": 0.06622462719678879,
        "weights": [
          [
            [
              0.008491192013025284,
              0.22039951384067535,
              0.20916175842285156
            ],
            [
              0.25387606024742126,
              0.10668527334928513,
              -0.17937840521335602
            ],
            [
              -0.04272285848855972,
              0.35570207238197327,
              -0.007597039453685284
            ]
          ],
          [
            [
              -0.02751385234296322,
              -0.07346087694168091,
              -0.058592539280653
            ],
            [
              -0.11126167327165604,
              0.22279971837997437,
              -0.12305779755115509
            ],
            [
              -0.001402681809850037,
              0.21722252666950226,
              -0.07535362243652344
            ]
          ],
          [
            [
              -0.14326433837413788,
              -0.1506129503250122,
              -0.14680035412311554
            ],
            [
              -0.1346200704574585,
              -0.08400110900402069,
              -0.24643123149871826
            ],
            [
              0.1991732269525528,
              0.12388551980257034,
              -0.1680711954832077
            ]
          ]
        ]
      },
      {
        "bias": 0.004943313542753458,
        "weights": [
          [
            [
              -0.1377539336681366,
              0.04265982657670975,
              -0.1108526736497879
            ],
            [
              -0.07731512933969498,
              -0.13776569068431854,
              -0.07699865847826004
            ],
            [
              0.13790233433246613,
              0.0035326110664755106,
              -0.04577955603599548
            ]
          ],
          [
            [
              -0.2028706967830658,
              0.1531793624162674,
              -0.0035369046963751316
            ],
            [
              -0.06502831727266312,
              0.1194203719496727,
              0.24695520102977753
            ],
            [
              0.17933039367198944,
              0.08745753020048141,
              0.012931575998663902
            ]
          ],
          [
            [
              -0.1251346319913864,
              0.17531368136405945,
              0.23042011260986328
            ],
            [
              -0.19876040518283844,
              0.2120848447084427,
              -0.1659175008535385
            ],
            [
              -0.09597359597682953,
              -0.09175314754247665,
              -0.14195671677589417
            ]
          ]
        ]
      }
    ]
  },
  "relu_1_1": {
    "input_shape": [
      62,
      62,
      10
    ],
    "output_shape": [
      62,
      62,
      10
    ],
    "num_neurons": 10
  },
  "conv_1_2": {
    "input_shape": [
      62,
      62,
      10
    ],
    "output_shape": [
      60,
      60,
      10
    ],
    "num_neurons": 10,
    "weights": [
      {
        "bias": 0.23568114638328552,
        "weights": [
          [
            [
              -0.22209763526916504,
              0.008173448033630848,
              -0.0014080263208597898
            ],
            [
              -0.11417887359857559,
              -0.08710268884897232,
              -0.19137249886989594
            ],
            [
              -0.21512819826602936,
              -0.24566462635993958,
              0.03125024959445
            ]
          ],
          [
            [
              -0.12173290550708771,
              0.17298761010169983,
              0.19167359173297882
            ],
            [
              0.10333111882209778,
              0.17096368968486786,
              0.08246009796857834
            ],
            [
              -0.12444395571947098,
              -0.1524372398853302,
              -0.12323441356420517
            ]
          ],
          [
            [
              0.01070026308298111,
              -0.10907237231731415,
              0.13467995822429657
            ],
            [
              0.12528792023658752,
              -0.1158815249800682,
              0.15205052495002747
            ],
            [
              0.11562051624059677,
              0.0606522373855114,
              0.005897349212318659
            ]
          ],
          [
            [
              -0.008161368779838085,
              0.13729363679885864,
              0.07052070647478104
            ],
            [
              -0.061542898416519165,
              0.015094581991434097,
              -0.08548995852470398
            ],
            [
              0.1417919099330902,
              -0.02112787589430809,
              -0.17240455746650696
            ]
          ],
          [
            [
              0.16193854808807373,
              -0.016615480184555054,
              -0.02863484062254429
            ],
            [
              -0.11312522739171982,
              -0.1759827882051468,
              0.13501745462417603
            ],
            [
              -0.11754948645830154,
              0.0528486892580986,
              0.14597530663013458
            ]
          ],
          [
            [
              -0.035447098314762115,
              -0.1814744472503662,
              0.15587998926639557
            ],
            [
              -0.004265479277819395,
              -0.20927152037620544,
              -0.17962364852428436
            ],
            [
              -0.13252805173397064,
              -0.05967492237687111,
              0.025550704449415207
            ]
          ],
          [
            [
              -0.0760994702577591,
              -0.03606899082660675,
              0.04016995429992676
            ],
            [
              -0.16922764480113983,
              0.1106138527393341,
              -0.019376901909708977
            ],
            [
              0.0650911033153534,
              -0.1444002091884613,
              0.15338332951068878
            ]
          ],
          [
            [
              0.10779039561748505,
              0.0891295000910759,
              -0.010650621727108955
            ],
            [
              0.0777147188782692,
              0.16634266078472137,
              0.17531906068325043
            ],
            [
              -0.17277859151363373,
              -0.0995638370513916,
              -0.00945955142378807
            ]
          ],
          [
            [
              0.021071111783385277,
              -0.1229652464389801,
              0.05553785711526871
            ],
            [
              -0.20103543996810913,
              -0.1023903638124466,
              -0.13179223239421844
            ],
            [
              -0.19441907107830048,
              -0.0505407489836216,
              -0.16443318128585815
            ]
          ],
          [
            [
              -0.16016268730163574,
              0.035439349710941315,
              0.03006974421441555
            ],
            [
              0.04243803769350052,
              -0.15807665884494781,
              -0.16639845073223114
            ],
            [
              0.03643771633505821,
              0.05712787061929703,
              -0.11738573759794235
            ]
          ]
        ]
      },
      {
        "bias": 0.048520516604185104,
        "weights": [
          [
            [
              0.1501627117395401,
              0.05001327022910118,
              -0.0035540240351110697
            ],
            [
              0.24360013008117676,
              0.18588502705097198,
              0.016526447609066963
            ],
            [
              0.29165318608283997,
              0.15508346259593964,
              0.10985775291919708
            ]
          ],
          [
            [
              -0.0032329210080206394,
              -0.08606106787919998,
              0.07859713584184647
            ],
            [
              -0.19345474243164062,
              0.0037424317561089993,
              -0.1184549480676651
            ],
            [
              -0.1382259875535965,
              -0.07682063430547714,
              -0.028334373608231544
            ]
          ],
          [
            [
              0.18062803149223328,
              -0.06332002580165863,
              0.17456147074699402
            ],
            [
              -0.06943268328905106,
              0.033915385603904724,
              0.04072761535644531
            ],
            [
              0.15225420892238617,
              -0.06958477199077606,
              -0.1646459698677063
            ]
          ],
          [
            [
              0.007311697583645582,
              0.19260814785957336,
              0.14190706610679626
            ],
            [
              -0.018864363431930542,
              -0.12268716841936111,
              -0.03337967395782471
            ],
            [
              0.0937633216381073,
              -0.04937317967414856,
              0.1907161921262741
            ]
          ],
          [
            [
              0.08646366000175476,
              -0.15178315341472626,
              0.16078102588653564
            ],
            [
              0.2238306999206543,
              -0.1588170975446701,
              -0.07828003913164139
            ],
            [
              0.05870053544640541,
              0.0738847553730011,
              0.07274967432022095
            ]
          ],
          [
            [
              -0.13587982952594757,
              0.08550232648849487,
              -0.1423870176076889
            ],
            [
              0.15191324055194855,
              0.015553301200270653,
              -0.10674863308668137
            ],
            [
              0.08708737790584564,
              -0.13958588242530823,
              0.20504334568977356
            ]
          ],
          [
            [
              0.05572369322180748,
              0.024335481226444244,
              0.12062492221593857
            ],
            [
              0.06698992103338242,
              -0.04440494626760483,
              -0.05952293053269386
            ],
            [
              -0.024373307824134827,
              -0.15561747550964355,
              0.15781269967556
            ]
          ],
          [
            [
              -0.055809520184993744,
              0.08490186929702759,
              -0.16899017989635468
            ],
            [
              0.2562350928783417,
              -0.1374572217464447,
              -0.11309333145618439
            ],
            [
              -0.120758555829525,
              0.10468611866235733,
              0.058713845908641815
            ]
          ],
          [
            [
              -0.06972125172615051,
              0.013216869905591011,
              -0.14140886068344116
            ],
            [
              -0.0918114185333252,
              0.14584794640541077,
              0.04238838329911232
            ],
            [
              -0.025526514276862144,
              0.13721509277820587,
              0.03750165179371834
            ]
          ],
          [
            [
              0.17264913022518158,
              0.06033289432525635,
              0.0496574342250824
            ],
            [
              0.14857017993927002,
              -0.04790819063782692,
              -0.021400604397058487
            ],
            [
              0.014417177997529507,
              0.14926151931285858,
              0.0833330824971199
            ]
          ]
        ]
      },
      {
        "bias": 0.00017869172734208405,
        "weights": [
          [
            [
              0.10057707875967026,
              -0.1684008687734604,
              -0.16244006156921387
            ],
            [
              -0.04654468595981598,
              -0.07137162238359451,
              -0.14791297912597656
            ],
            [
              -0.12567585706710815,
              0.11521854996681213,
              -0.16686145961284637
            ]
          ],
          [
            [
              0.06469239294528961,
              -0.12279967218637466,
              -0.1594131737947464
            ],
            [
              -0.014715036377310753,
              0.11153702437877655,
              -0.18014411628246307
            ],
            [
              0.02507328987121582,
              -0.16344121098518372,
              -0.12473371624946594
            ]
          ],
          [
            [
              -0.006254980806261301,
              -0.011757627129554749,
              0.007613635156303644
            ],
            [
              -0.16757018864154816,
              -0.09534323215484619,
              -0.15175870060920715
            ],
            [
              0.1615198403596878,
              0.03918181359767914,
              0.1095995083451271
            ]
          ],
          [
            [
              0.12767411768436432,
              -0.0942886471748352,
              -0.11776027828454971
            ],
            [
              -0.17539408802986145,
              -0.10935182124376297,
              -0.10124338418245316
            ],
            [
              0.14217661321163177,
              -0.14760556817054749,
              -0.06123519316315651
            ]
          ],
          [
            [
              0.05266502872109413,
              -0.14844030141830444,
              -0.14114145934581757
            ],
            [
              0.03820567578077316,
              -0.07448571175336838,
              -0.08580346405506134
            ],
            [
              0.08613277226686478,
              -0.026012737303972244,
              0.017204497009515762
            ]
          ],
          [
            [
              -0.12918046116828918,
              0.0405716598033905,
              0.14807216823101044
            ],
            [
              0.0439920574426651,
              -0.16886305809020996,
              -0.10645487904548645
            ],
            [
              -0.05385661870241165,
              -0.10825701802968979,
              0.04222692921757698
            ]
          ],
          [
            [
              0.10856381803750992,
              0.04429871588945389,
              -0.05489126965403557
            ],
            [
              -0.09070894122123718,
              -0.06659896671772003,
              -0.11239336431026459
            ],
            [
              0.08911426365375519,
              0.1398112028837204,
              0.09709496796131134
            ]
          ],
          [
            [
              0.0010415370343253016,
              -0.07078587263822556,
              0.1592407077550888
            ],
            [
              -0.017119145020842552,
              -0.08579344302415848,
              0.15760228037834167
            ],
            [
              -0.11475247889757156,
              -0.05481409281492233,
              0.06605859100818634
            ]
          ],
          [
            [
              -0.1342984139919281,
              -0.09656452387571335,
              0.09592138230800629
            ],
            [
              -0.07420266419649124,
              -0.03798063471913338,
              0.04741798713803291
            ],
            [
              0.022801091894507408,
              0.1462283879518509,
              -0.0527598075568676
            ]
          ],
          [
            [
              -0.06620095670223236,
              -0.07741141319274902,
              0.11288707703351974
            ],
            [
              -0.06360090523958206,
              0.056613482534885406,
              -0.11752650141716003
            ],
            [
              0.07582904398441315,
              -0.01297542080283165,
              -0.10920219868421555
            ]
          ]
        ]
      },
      {
        "bias": -0.0300146397203207,
        "weights": [
          [
            [
              -0.07825938612222672,
              -0.1255849003791809,
              -0.11537595838308334
            ],
            [
              0.054403841495513916,
              0.012777752242982388,
              -0.08640456944704056
            ],
            [
              -0.0026660352014005184,
              -0.0012084501795470715,
              0.323814332485199
            ]
          ],
          [
            [
              0.06241007521748543,
              -0.033403534442186356,
              -0.11560729891061783
            ],
            [
              -0.1000606119632721,
              -0.18549536168575287,
              -0.20370611548423767
            ],
            [
              0.14469704031944275,
              0.1028149351477623,
              0.2001989334821701
            ]
          ],
          [
            [
              0.03497983142733574,
              -0.019927378743886948,
              -0.029497850686311722
            ],
            [
              0.08154956251382828,
              0.07390331476926804,
              0.07990875840187073
            ],
            [
              0.1536852866411209,
              -0.0393386147916317,
              0.13670645654201508
            ]
          ],
          [
            [
              -0.2118763029575348,
              -0.06994547694921494,
              -0.20933550596237183
            ],
            [
              -0.10057045519351959,
              -0.006080219987779856,
              -0.02146538719534874
            ],
            [
              0.11491445451974869,
              0.19636374711990356,
              -0.055907007306814194
            ]
          ],
          [
            [
              -0.21788689494132996,
              0.18010546267032623,
              -0.24647673964500427
            ],
            [
              -0.010120609775185585,
              0.08755629509687424,
              -0.12376655638217926
            ],
            [
              0.04544978588819504,
              0.15734681487083435,
              -0.22638124227523804
            ]
          ],
          [
            [
              0.12767279148101807,
              0.02167179062962532,
              -0.11148092150688171
            ],
            [
              -0.1910959631204605,
              -0.09536199271678925,
              -0.10023369640111923
            ],
            [
              -0.13195665180683136,
              0.1772650182247162,
              0.21143166720867157
            ]
          ],
          [
            [
              -0.0713144987821579,
              0.06289097666740417,
              0.004598661791533232
            ],
            [
              -0.07979415357112885,
              -0.03431779518723488,
              -0.17557644844055176
            ],
            [
              -0.1255340874195099,
              -0.17118704319000244,
              0.011105985380709171
            ]
          ],
          [
            [
              -0.3791549801826477,
              -0.28357264399528503,
              -0.37462490797042847
            ],
            [
              0.09465239942073822,
              -0.07803154736757278,
              0.19792751967906952
            ],
            [
              0.40810626745224,
              0.3654111623764038,
              0.3565942049026489
            ]
          ],
          [
            [
              0.06446316093206406,
              -0.22059011459350586,
              0.15573368966579437
            ],
            [
              0.09741362929344177,
              -0.02721792832016945,
              0.023182794451713562
            ],
            [
              0.19932235777378082,
              -0.06300601363182068,
              0.12680140137672424
            ]
          ],
          [
            [
              0.04919177666306496,
              -0.08138009905815125,
              0.06010451167821884
            ],
            [
              0.10556235909461975,
              -0.07656164467334747,
              -0.014961647801101208
            ],
            [
              0.052382539957761765,
              -0.07867452502250671,
              -0.06520051509141922
            ]
          ]
        ]
      },
      {
        "bias": 0.02546054497361183,
        "weights": [
          [
            [
              0.09210155159235,
              -0.06780999898910522,
              -0.17072169482707977
            ],
            [
              -0.18701662123203278,
              -0.1718379706144333,
              -0.03356776759028435
            ],
            [
              0.07564277946949005,
              0.08930736035108566,
              -0.07287679612636566
            ]
          ],
          [
            [
              0.1593097448348999,
              0.11037873476743698,
              -0.0476834662258625
            ],
            [
              -0.14259377121925354,
              -0.23605561256408691,
              -0.02913401648402214
            ],
            [
              -0.015467943623661995,
              0.1384689211845398,
              0.05025546997785568
            ]
          ],
          [
            [
              0.041828107088804245,
              0.08214318007230759,
              -0.033299386501312256
            ],
            [
              0.018900195136666298,
              -0.06417613476514816,
              0.0417800173163414
            ],
            [
              0.1585070937871933,
              0.11165215075016022,
              -0.06116391718387604
            ]
          ],
          [
            [
              0.09750189632177353,
              0.043995149433612823,
              0.011205160990357399
            ],
            [
              -0.028076864778995514,
              0.04806731268763542,
              0.10824530571699142
            ],
            [
              0.11864102631807327,
              -0.09274448454380035,
              0.2326326221227646
            ]
          ],
          [
            [
              0.052965328097343445,
              -0.05885990709066391,
              0.02128560096025467
            ],
            [
              0.22635796666145325,
              -0.02188056707382202,
              0.13240474462509155
            ],
            [
              -0.10782448202371597,
              0.046879466623067856,
              0.10208717733621597
            ]
          ],
          [
            [
              0.1211695522069931,
              0.0035804063081741333,
              0.18336468935012817
            ],
            [
              -0.14948901534080505,
              -0.11437948048114777,
              0.05589453503489494
            ],
            [
              -0.08374721556901932,
              -0.026509827002882957,
              0.038437921553850174
            ]
          ],
          [
            [
              -0.12263691425323486,
              -0.13065795600414276,
              0.1413590908050537
            ],
            [
              -0.09939553588628769,
              -0.1478801667690277,
              0.16855305433273315
            ],
            [
              0.01958077773451805,
              0.13267633318901062,
              -0.1737654209136963
            ]
          ],
          [
            [
              -0.03451213613152504,
              0.15669789910316467,
              0.19342099130153656
            ],
            [
              -0.15817542374134064,
              -0.3193308711051941,
              -0.2507270872592926
            ],
            [
              0.23828773200511932,
              0.32387810945510864,
              0.24547286331653595
            ]
          ],
          [
            [
              -0.12215711176395416,
              0.10881008207798004,
              -0.19358359277248383
            ],
            [
              -0.013311498798429966,
              0.07829438149929047,
              -0.07730505615472794
            ],
            [
              0.08781148493289948,
              -0.1630024015903473,
              0.11914098262786865
            ]
          ],
          [
            [
              -0.0014674693811684847,
              -0.09340912103652954,
              -0.015217362903058529
            ],
            [
              -0.02277970500290394,
              -0.15513046085834503,
              -0.06728680431842804
            ],
            [
              0.15501464903354645,
              -0.17562931776046753,
              0.07493570446968079
            ]
          ]
        ]
      },
      {
        "bias": -0.07633998245000839,
        "weights": [
          [
            [
              0.19294682145118713,
              0.11637405306100845,
              0.048501089215278625
            ],
            [
              0.050760719925165176,
              0.2872495949268341,
              0.23119190335273743
            ],
            [
              -0.01237763836979866,
              0.2422100007534027,
              0.11698421090841293
            ]
          ],
          [
            [
              0.19210582971572876,
              0.27571743726730347,
              0.10465119034051895
            ],
            [
              0.01868477649986744,
              0.11892961710691452,
              0.18632373213768005
            ],
            [
              -0.026387764140963554,
              0.1678895652294159,
              0.2586691677570343
            ]
          ],
          [
            [
              0.12611383199691772,
              -0.00993537250906229,
              0.158305823802948
            ],
            [
              0.08272428065538406,
              0.0727664977312088,
              0.08158982545137405
            ],
            [
              -0.1325695812702179,
              0.16453856229782104,
              -0.02902119606733322
            ]
          ],
          [
            [
              -0.16083760559558868,
              0.11108376085758209,
              -0.127782940864563
            ],
            [
              0.15446576476097107,
              0.13871723413467407,
              -0.0034334398806095123
            ],
            [
              0.08185972273349762,
              0.06541277468204498,
              0.1096767857670784
            ]
          ],
          [
            [
              -0.023504681885242462,
              0.12856437265872955,
              0.04668648540973663
            ],
            [
              -0.12240026891231537,
              -0.16225533187389374,
              -0.1114526093006134
            ],
            [
              0.08296684920787811,
              0.09875606745481491,
              -0.10532280802726746
            ]
          ],
          [
            [
              0.1834416389465332,
              0.1544373780488968,
              0.07370029389858246
            ],
            [
              0.09232190996408463,
              0.08409377187490463,
              0.10640401393175125
            ],
            [
              0.1254376471042633,
              0.19596627354621887,
              0.10939028859138489
            ]
          ],
          [
            [
              0.14919321238994598,
              0.03124544769525528,
              0.167178675532341
            ],
            [
              -0.12265706062316895,
              -0.04244139418005943,
              -0.17502860724925995
            ],
            [
              0.08826432377099991,
              0.07840254157781601,
              -0.1420505791902542
            ]
          ],
          [
            [
              -0.12180687487125397,
              0.006747609004378319,
              -0.1042008325457573
            ],
            [
              -0.0236495528370142,
              0.07804244011640549,
              -0.10063771158456802
            ],
            [
              -0.21874164044857025,
              0.14787976443767548,
              -0.18930308520793915
            ]
          ],
          [
            [
              0.057117264717817307,
              0.011646348983049393,
              -0.004255043808370829
            ],
            [
              -0.10434019565582275,
              0.09901146590709686,
              0.035007622092962265
            ],
            [
              0.11893678456544876,
              0.1820380985736847,
              0.1838838756084442
            ]
          ],
          [
            [
              0.13261689245700836,
              0.07428871840238571,
              0.07291024923324585
            ],
            [
              0.18422210216522217,
              -0.15090574324131012,
              0.16741307079792023
            ],
            [
              -0.053125545382499695,
              -0.15710307657718658,
              -0.07988227158784866
            ]
          ]
        ]
      },
      {
        "bias": 0.06273701041936874,
        "weights": [
          [
            [
              -0.15816332399845123,
              0.014075076207518578,
              0.15110331773757935
            ],
            [
              0.11314771324396133,
              -0.14511756598949432,
              -0.17791001498699188
            ],
            [
              -0.11246132850646973,
              0.005211081821471453,
              -0.045285627245903015
            ]
          ],
          [
            [
              0.14341916143894196,
              -0.03333071619272232,
              0.06969165802001953
            ],
            [
              0.0745006576180458,
              0.1879386007785797,
              0.23373977839946747
            ],
            [
              0.1906217783689499,
              0.17638207972049713,
              0.1832425445318222
            ]
          ],
          [
            [
              0.13911767303943634,
              -0.013347793370485306,
              -0.046005986630916595
            ],
            [
              -0.029620381072163582,
              0.10795929282903671,
              -0.07774657011032104
            ],
            [
              0.04296223446726799,
              -0.175078883767128,
              -0.154906764626503
            ]
          ],
          [
            [
              -0.02369670756161213,
              -0.0427548810839653,
              0.12181031703948975
            ],
            [
              0.09103550016880035,
              -0.12255965173244476,
              -0.12748782336711884
            ],
            [
              -0.20154936611652374,
              0.112299844622612,
              0.051977936178445816
            ]
          ],
          [
            [
              -0.02144702523946762,
              -0.14318454265594482,
              0.20679226517677307
            ],
            [
              -0.20890986919403076,
              0.19352561235427856,
              -0.13040582835674286
            ],
            [
              0.11478452384471893,
              -0.023898139595985413,
              -0.03716293349862099
            ]
          ],
          [
            [
              0.17213770747184753,
              -0.15981163084506989,
              -0.10001799464225769
            ],
            [
              -0.052703551948070526,
              -0.046681955456733704,
              -0.01699863001704216
            ],
            [
              0.05871986597776413,
              0.10958703607320786,
              -0.11010698229074478
            ]
          ],
          [
            [
              0.09825494140386581,
              0.08257681131362915,
              0.1798699051141739
            ],
            [
              0.13127505779266357,
              0.15258340537548065,
              -0.14855070412158966
            ],
            [
              -0.11032100766897202,
              0.10041090846061707,
              -0.06823364645242691
            ]
          ],
          [
            [
              0.21315377950668335,
              0.05551689863204956,
              0.11078481376171112
            ],
            [
              -0.1935974657535553,
              -0.06311368197202682,
              -0.018835950642824173
            ],
            [
              -0.1586502343416214,
              0.06634290516376495,
              -0.018427109345793724
            ]
          ],
          [
            [
              0.001743078464642167,
              -0.14996619522571564,
              0.11660247296094894
            ],
            [
              0.17684322595596313,
              -0.11173997074365616,
              0.04852217063307762
            ],
            [
              0.11899156123399734,
              0.061300452798604965,
              -0.0265854112803936
            ]
          ],
          [
            [
              -0.10925821959972382,
              0.13411195576190948,
              -0.0531453937292099
            ],
            [
              -0.05299121141433716,
              0.07648210227489471,
              0.15445391833782196
            ],
            [
              0.0026447693817317486,
              0.1686016321182251,
              -0.013539228588342667
            ]
          ]
        ]
      },
      {
        "bias": 0.12451942265033722,
        "weights": [
          [
            [
              -0.04244663566350937,
              0.09336592257022858,
              0.17527298629283905
            ],
            [
              0.08076358586549759,
              0.04253421723842621,
              0.15269805490970612
            ],
            [
              -0.08230695128440857,
              -0.022521082311868668,
              -0.04471438378095627
            ]
          ],
          [
            [
              0.1487039476633072,
              -0.06483491510152817,
              0.13089223206043243
            ],
            [
              -0.027057182043790817,
              -0.1773291379213333,
              0.08191771805286407
            ],
            [
              0.04080512002110481,
              0.112278513610363,
              -0.1982751488685608
            ]
          ],
          [
            [
              0.16012942790985107,
              -0.08090788125991821,
              -0.17929884791374207
            ],
            [
              0.1121659055352211,
              0.13546323776245117,
              -0.04770083725452423
            ],
            [
              -0.12024575471878052,
              0.010323752649128437,
              0.03409653902053833
            ]
          ],
          [
            [
              0.1624630093574524,
              -0.1268269121646881,
              0.06919579207897186
            ],
            [
              -0.12822219729423523,
              0.08707046508789062,
              -0.14287790656089783
            ],
            [
              -0.038080934435129166,
              -0.03838765248656273,
              -0.08424189686775208
            ]
          ],
          [
            [
              -0.08560417592525482,
              -0.07137484848499298,
              -0.11899688094854355
            ],
            [
              0.0942290872335434,
              -0.23159831762313843,
              0.16941553354263306
            ],
            [
              0.2039031684398651,
              0.10780209302902222,
              0.1344238519668579
            ]
          ],
          [
            [
              0.19774529337882996,
              0.1684393286705017,
              0.15965873003005981
            ],
            [
              0.019265230745077133,
              -0.20559687912464142,
              0.23629894852638245
            ],
            [
              -0.15133634209632874,
              -0.1638219654560089,
              -0.10984180122613907
            ]
          ],
          [
            [
              0.08749478310346603,
              0.1634329855442047,
              -0.00868955161422491
            ],
            [
              -0.15811166167259216,
              0.03157158941030502,
              0.16116364300251007
            ],
            [
              -0.1665685474872589,
              0.15533295273780823,
              -0.09577570110559464
            ]
          ],
          [
            [
              -0.043471820652484894,
              -0.1104290634393692,
              0.23953500390052795
            ],
            [
              -0.19884273409843445,
              -0.13318409025669098,
              0.05576780065894127
            ],
            [
              -0.10275140404701233,
              -0.011903440579771996,
              -0.0072168828919529915
            ]
          ],
          [
            [
              -0.18187174201011658,
              -0.08428642153739929,
              -0.21116618812084198
            ],
            [
              -0.19409799575805664,
              0.08990295976400375,
              -0.2391042560338974
            ],
            [
              0.06698025017976761,
              0.07404422014951706,
              0.1407812386751175
            ]
          ],
          [
            [
              -0.17716600000858307,
              -0.006693415343761444,
              0.004706013947725296
            ],
            [
              -0.04072127863764763,
              0.06645789742469788,
              -0.15794283151626587
            ],
            [
              0.026595959439873695,
              -0.16835236549377441,
              -0.09568426758050919
            ]
          ]
        ]
      },
      {
        "bias": 0.21219025552272797,
        "weights": [
          [
            [
              0.030469488352537155,
              0.25498560070991516,
              -0.07000389695167542
            ],
            [
              0.17009563744068146,
              0.014503651298582554,
              0.08238737285137177
            ],
            [
              -0.028358977288007736,
              0.17712891101837158,
              0.19215330481529236
            ]
          ],
          [
            [
              0.06646806746721268,
              -0.00808824971318245,
              0.013193713501095772
            ],
            [
              -0.03486454859375954,
              -0.19089803099632263,
              -0.10558389872312546
            ],
            [
              -0.07517600804567337,
              -0.08561249822378159,
              -0.23027671873569489
            ]
          ],
          [
            [
              0.1141374409198761,
              0.1494142711162567,
              0.05466588959097862
            ],
            [
              0.1095367893576622,
              0.17488646507263184,
              0.11378568410873413
            ],
            [
              -0.03831592947244644,
              0.015553201548755169,
              0.07068078964948654
            ]
          ],
          [
            [
              -0.03222552314400673,
              0.1079498901963234,
              0.03230075538158417
            ],
            [
              0.02904014103114605,
              -0.08123540878295898,
              0.20438408851623535
            ],
            [
              0.04748709872364998,
              0.03242291510105133,
              0.12494835257530212
            ]
          ],
          [
            [
              0.0265573151409626,
              0.18342135846614838,
              -0.15321482717990875
            ],
            [
              -0.25016218423843384,
              -0.04868486523628235,
              0.07323744148015976
            ],
            [
              -0.20913875102996826,
              -0.1804596185684204,
              0.07536359876394272
            ]
          ],
          [
            [
              -0.09699888527393341,
              -0.19662579894065857,
              0.1425793170928955
            ],
            [
              -0.23538252711296082,
              0.22155511379241943,
              0.05580650269985199
            ],
            [
              0.05153479054570198,
              -0.04958948865532875,
              0.04129554331302643
            ]
          ],
          [
            [
              -0.07691644877195358,
              -0.02661033906042576,
              -0.025311218574643135
            ],
            [
              -0.16709542274475098,
              0.11724896728992462,
              -0.13249416649341583
            ],
            [
              -0.0982670783996582,
              -0.03568216413259506,
              0.0634252279996872
            ]
          ],
          [
            [
              0.0905534029006958,
              0.21202026307582855,
              -0.03384973853826523
            ],
            [
              0.060750797390937805,
              -0.02992998994886875,
              0.17003682255744934
            ],
            [
              -0.06680646538734436,
              0.06264128535985947,
              0.26157432794570923
            ]
          ],
          [
            [
              0.13911888003349304,
              0.17557740211486816,
              -0.03206231817603111
            ],
            [
              -0.022219309583306313,
              -0.1345100700855255,
              0.09925587475299835
            ],
            [
              -0.22277598083019257,
              -0.1930062472820282,
              0.17288054525852203
            ]
          ],
          [
            [
              -0.13995786011219025,
              0.16198687255382538,
              0.14883320033550262
            ],
            [
              0.1257142871618271,
              0.09269934147596359,
              -0.017882969230413437
            ],
            [
              -0.028643455356359482,
              0.10542115569114685,
              0.08450374752283096
            ]
          ]
        ]
      },
      {
        "bias": 0.06293419003486633,
        "weights": [
          [
            [
              0.05260023474693298,
              -0.24794229865074158,
              -0.2864212989807129
            ],
            [
              -0.0402168445289135,
              0.05147484689950943,
              -0.17518958449363708
            ],
            [
              0.029148289933800697,
              -0.11475089192390442,
              -0.10561862587928772
            ]
          ],
          [
            [
              0.03502828627824783,
              0.13007329404354095,
              -0.06388399004936218
            ],
            [
              0.17129501700401306,
              0.2099529206752777,
              -0.12002603709697723
            ],
            [
              0.118353471159935,
              -0.0966811552643776,
              0.2551552653312683
            ]
          ],
          [
            [
              -0.13408434391021729,
              -0.1552286446094513,
              -0.1326582133769989
            ],
            [
              -0.10995500534772873,
              0.15942859649658203,
              0.03380231559276581
            ],
            [
              -0.18194088339805603,
              -0.06765700876712799,
              0.1434459090232849
            ]
          ],
          [
            [
              0.026715409010648727,
              0.15888643264770508,
              0.16857025027275085
            ],
            [
              0.10510877519845963,
              0.047747351229190826,
              -0.14805497229099274
            ],
            [
              -0.07118207216262817,
              -0.14181943237781525,
              -0.009327896870672703
            ]
          ],
          [
            [
              0.24549764394760132,
              0.10549065470695496,
              0.19037652015686035
            ],
            [
              -0.042118508368730545,
              0.2455562949180603,
              0.13054989278316498
            ],
            [
              0.23179902136325836,
              0.16089054942131042,
              -0.12639902532100677
            ]
          ],
          [
            [
              0.19434517621994019,
              -0.048183098435401917,
              -0.06203409656882286
            ],
            [
              -0.17866533994674683,
              0.11760763823986053,
              0.20332011580467224
            ],
            [
              0.036642592400312424,
              0.03255481272935867,
              -0.2407733052968979
            ]
          ],
          [
            [
              -0.1767982393503189,
              -0.1051720604300499,
              0.04591686651110649
            ],
            [
              -0.1372903287410736,
              0.08460152894258499,
              0.1602119356393814
            ],
            [
              -0.07713431864976883,
              -0.1283997744321823,
              -0.10081787407398224
            ]
          ],
          [
            [
              0.14202293753623962,
              -0.1770140826702118,
              0.18684402108192444
            ],
            [
              -0.0680994987487793,
              0.002785478252917528,
              0.15092189610004425
            ],
            [
              -0.21594718098640442,
              0.06681293994188309,
              0.12460256367921829
            ]
          ],
          [
            [
              -0.03491008281707764,
              0.0012267461279407144,
              -0.10326416790485382
            ],
            [
              0.07637818157672882,
              0.15466955304145813,
              0.13259322941303253
            ],
            [
              0.013128925114870071,
              -0.14328916370868683,
              -0.059739891439676285
            ]
          ],
          [
            [
              -0.06176186352968216,
              0.066667839884758,
              0.05662720277905464
            ],
            [
              -0.06885986775159836,
              -0.042922377586364746,
              -0.1060267835855484
            ],
            [
              0.02954084798693657,
              -0.17564518749713898,
              0.137642502784729
            ]
          ]
        ]
      }
    ]
  },
  "relu_1_2": {
    "input_shape": [
      60,
      60,
      10
    ],
    "output_shape": [
      60,
      60,
      10
    ],
    "num_neurons": 10
  },
  "max_pool_1": {
    "input_shape": [
      60,
      60,
      10
    ],
    "output_shape": [
      30,
      30,
      10
    ],
    "num_neurons": 10
  },
  "conv_2_1": {
    "input_shape": [
      30,
      30,
      10
    ],
    "output_shape": [
      28,
      28,
      10
    ],
    "num_neurons": 10,
    "weights": [
      {
        "bias": -0.12977147102355957,
        "weights": [
          [
            [
              -0.03255437687039375,
              0.018358496949076653,
              0.2034810334444046
            ],
            [
              0.0013303904561325908,
              0.14074158668518066,
              -0.08221285045146942
            ],
            [
              -0.004441339988261461,
              0.05861419439315796,
              -0.05173720046877861
            ]
          ],
          [
            [
              -0.10805150866508484,
              -0.03363582491874695,
              -0.1617652028799057
            ],
            [
              -0.208527609705925,
              -0.016382955014705658,
              -0.09556517004966736
            ],
            [
              0.13926240801811218,
              -0.05621505528688431,
              0.13954336941242218
            ]
          ],
          [
            [
              0.15592345595359802,
              -0.04845689237117767,
              0.0681254118680954
            ],
            [
              0.03926930949091911,
              -0.08712365478277206,
              0.060725048184394836
            ],
            [
              -0.000357024313416332,
              -0.07823517173528671,
              -0.10200472921133041
            ]
          ],
          [
            [
              -0.03804032504558563,
              0.05687103793025017,
              -0.009738580323755741
            ],
            [
              0.05986262485384941,
              -0.17753981053829193,
              -0.11141015589237213
            ],
            [
              -0.13962924480438232,
              0.16544866561889648,
              0.174600288271904
            ]
          ],
          [
            [
              0.06986105442047119,
              0.14358215034008026,
              0.16399133205413818
            ],
            [
              0.21452194452285767,
              0.17060643434524536,
              -0.08007736504077911
            ],
            [
              0.01958705112338066,
              -0.00934978574514389,
              0.09638391435146332
            ]
          ],
          [
            [
              0.05217042937874794,
              0.09110146015882492,
              -0.11497380584478378
            ],
            [
              -0.05502637103199959,
              0.18655718863010406,
              0.008281741291284561
            ],
            [
              0.294772207736969,
              0.1781916320323944,
              0.2782445251941681
            ]
          ],
          [
            [
              -0.17314983904361725,
              0.08741029351949692,
              0.1660408079624176
            ],
            [
              0.1460140198469162,
              0.02968580834567547,
              -0.042556386440992355
            ],
            [
              -0.1554192155599594,
              0.0914716124534607,
              -0.08020562678575516
            ]
          ],
          [
            [
              0.03049597516655922,
              -0.1101769432425499,
              -0.1511046588420868
            ],
            [
              -0.19267220795154572,
              -0.08959446847438812,
              -0.17716987431049347
            ],
            [
              -0.19789759814739227,
              -0.10061418265104294,
              -0.013895698823034763
            ]
          ],
          [
            [
              0.059974197298288345,
              0.019143888726830482,
              -0.07878313958644867
            ],
            [
              -0.06905927509069443,
              -0.18870683014392853,
              -0.24141140282154083
            ],
            [
              -0.14086343348026276,
              -0.041317712515592575,
              0.07830478250980377
            ]
          ],
          [
            [
              0.028767377138137817,
              0.1254265159368515,
              -0.0029138028621673584
            ],
            [
              0.1330174207687378,
              0.15544866025447845,
              0.020595159381628036
            ],
            [
              -0.014419279992580414,
              0.11941242963075638,
              0.078574039041996
            ]
          ]
        ]
      },
      {
        "bias": 0.017239723354578018,
        "weights": [
          [
            [
              -0.07021769881248474,
              0.17632758617401123,
              -0.08717836439609528
            ],
            [
              0.1444258987903595,
              -0.04893440753221512,
              -0.1697099655866623
            ],
            [
              0.012702175416052341,
              0.12199621647596359,
              -0.04720853641629219
            ]
          ],
          [
            [
              0.07211872190237045,
              0.23059092462062836,
              0.07897429913282394
            ],
            [
              0.18408234417438507,
              0.26107874512672424,
              0.21239453554153442
            ],
            [
              0.07669060677289963,
              -0.09606119990348816,
              0.2415200173854828
            ]
          ],
          [
            [
              -0.17603279650211334,
              0.15780572593212128,
              0.12550130486488342
            ],
            [
              0.1077854335308075,
              0.05867326632142067,
              -0.11532603204250336
            ],
            [
              -0.08629059791564941,
              0.17135809361934662,
              0.003587490413337946
            ]
          ],
          [
            [
              -0.05282400920987129,
              0.021165214478969574,
              -0.15724223852157593
            ],
            [
              -0.09158414602279663,
              -0.01694476045668125,
              0.10798672586679459
            ],
            [
              0.06184333562850952,
              0.1650145947933197,
              -0.02109280787408352
            ]
          ],
          [
            [
              -0.07305467873811722,
              0.11351317167282104,
              0.02109058015048504
            ],
            [
              0.11370198428630829,
              -0.1311636120080948,
              -0.08215554803609848
            ],
            [
              -0.11365317553281784,
              -0.14285051822662354,
              -0.02081184647977352
            ]
          ],
          [
            [
              -0.03416476771235466,
              0.04272204264998436,
              -0.07719838619232178
            ],
            [
              -0.2369997203350067,
              0.11980314552783966,
              0.18644434213638306
            ],
            [
              0.041536763310432434,
              0.015158671885728836,
              0.0015731179155409336
            ]
          ],
          [
            [
              -0.022432876750826836,
              -0.10505323112010956,
              0.009364848025143147
            ],
            [
              -0.15735602378845215,
              -0.1484377384185791,
              -0.06270511448383331
            ],
            [
              0.007681806571781635,
              0.12766185402870178,
              -0.040504079312086105
            ]
          ],
          [
            [
              -0.08100777864456177,
              -0.059557512402534485,
              -0.04679546877741814
            ],
            [
              0.16811177134513855,
              0.082178495824337,
              -0.15187956392765045
            ],
            [
              -0.1818641722202301,
              0.16346459090709686,
              0.17069722712039948
            ]
          ],
          [
            [
              0.06897225975990295,
              0.05798895284533501,
              -0.06381737440824509
            ],
            [
              0.21740444004535675,
              0.20037077367305756,
              -0.11132514476776123
            ],
            [
              -0.13502487540245056,
              0.22527684271335602,
              0.19954602420330048
            ]
          ],
          [
            [
              0.1085304245352745,
              -0.16003389656543732,
              0.031102575361728668
            ],
            [
              -0.16465133428573608,
              -0.14180700480937958,
              0.0511261485517025
            ],
            [
              -0.04576829448342323,
              -0.10577250272035599,
              -0.1355421543121338
            ]
          ]
        ]
      },
      {
        "bias": -0.09589023143053055,
        "weights": [
          [
            [
              -0.08430434763431549,
              0.18512876331806183,
              0.037166528403759
            ],
            [
              0.2428373396396637,
              -0.11034180968999863,
              0.19014637172222137
            ],
            [
              0.20828907191753387,
              0.21481136977672577,
              0.04678770527243614
            ]
          ],
          [
            [
              0.0897442102432251,
              -0.21543283760547638,
              -0.02451709285378456
            ],
            [
              -0.1070377379655838,
              -0.21299850940704346,
              -0.19748133420944214
            ],
            [
              -0.12239448726177216,
              -0.20216161012649536,
              0.06576552242040634
            ]
          ],
          [
            [
              0.09073477238416672,
              0.14746464788913727,
              0.07899127900600433
            ],
            [
              -0.12640051543712616,
              -0.13217231631278992,
              -0.11285530030727386
            ],
            [
              0.0746661126613617,
              -0.01880793832242489,
              0.11975199729204178
            ]
          ],
          [
            [
              0.20242874324321747,
              0.22085921466350555,
              -0.07048555463552475
            ],
            [
              0.2873651087284088,
              0.2411748617887497,
              0.21700750291347504
            ],
            [
              0.2853013873100281,
              -0.004741166718304157,
              0.18620577454566956
            ]
          ],
          [
            [
              0.08833856880664825,
              -0.002350629074499011,
              0.10488466918468475
            ],
            [
              0.03952600806951523,
              -0.09829387813806534,
              -0.055807601660490036
            ],
            [
              -0.07273302972316742,
              0.13020388782024384,
              0.20839913189411163
            ]
          ],
          [
            [
              0.21678249537944794,
              0.1322588473558426,
              0.22813695669174194
            ],
            [
              0.2920227348804474,
              -0.035239603370428085,
              -0.053223852068185806
            ],
            [
              0.10417351126670837,
              0.20878419280052185,
              0.051534708589315414
            ]
          ],
          [
            [
              -0.10777169466018677,
              -0.05944273993372917,
              0.05278373137116432
            ],
            [
              0.03944575414061546,
              0.21715080738067627,
              -0.03764220327138901
            ],
            [
              0.17901423573493958,
              0.005191592965275049,
              0.007126337382942438
            ]
          ],
          [
            [
              -0.06157656013965607,
              0.0637584924697876,
              -0.06896284967660904
            ],
            [
              0.09534478932619095,
              -0.06798165291547775,
              0.19624364376068115
            ],
            [
              -0.05612512305378914,
              0.060259364545345306,
              -0.03205017000436783
            ]
          ],
          [
            [
              0.06542590260505676,
              -0.18070127069950104,
              -0.0203587356954813
            ],
            [
              -0.13316963613033295,
              -0.13066579401493073,
              0.028714170679450035
            ],
            [
              0.1035274788737297,
              -0.10588226467370987,
              -0.1616906076669693
            ]
          ],
          [
            [
              -0.13040776550769806,
              0.10768161714076996,
              0.010361685417592525
            ],
            [
              -0.14248140156269073,
              0.08839861303567886,
              -0.11501293629407883
            ],
            [
              0.0032284187618643045,
              -0.15537941455841064,
              -0.12867139279842377
            ]
          ]
        ]
      },
      {
        "bias": 0.0029027399141341448,
        "weights": [
          [
            [
              0.14653392136096954,
              -0.07087597995996475,
              0.09252364188432693
            ],
            [
              -0.022957896813750267,
              -0.05052541196346283,
              -0.15001723170280457
            ],
            [
              -0.04467141628265381,
              0.021456794813275337,
              0.1513577103614807
            ]
          ],
          [
            [
              0.03121063858270645,
              -0.0930914580821991,
              0.11598795652389526
            ],
            [
              -0.012358308769762516,
              0.09231239557266235,
              -0.0848885104060173
            ],
            [
              0.03311792388558388,
              -0.014418087899684906,
              0.0020547346211969852
            ]
          ],
          [
            [
              -0.008298038505017757,
              -0.1025066152215004,
              -0.14874118566513062
            ],
            [
              -0.058632850646972656,
              0.007244928739964962,
              -0.16935208439826965
            ],
            [
              -0.17630338668823242,
              -0.09550420939922333,
              0.10447990894317627
            ]
          ],
          [
            [
              0.017990443855524063,
              0.026702769100666046,
              0.11457078158855438
            ],
            [
              -0.0027627088129520416,
              -0.0031880419701337814,
              0.009848622605204582
            ],
            [
              -0.17792220413684845,
              -0.11511015892028809,
              0.02287563867866993
            ]
          ],
          [
            [
              -0.0575726218521595,
              0.03284313529729843,
              0.14708024263381958
            ],
            [
              -0.018814817070961,
              -0.09067182242870331,
              0.020860008895397186
            ],
            [
              -0.13308416306972504,
              0.06554373353719711,
              0.019644618034362793
            ]
          ],
          [
            [
              0.1331508755683899,
              0.023221176117658615,
              0.0008440519450232387
            ],
            [
              -0.05110454931855202,
              -0.12726978957653046,
              -0.04957761615514755
            ],
            [
              -0.05323607474565506,
              0.11616700142621994,
              -0.12785476446151733
            ]
          ],
          [
            [
              0.1309053599834442,
              0.15529535710811615,
              -0.07599077373743057
            ],
            [
              -0.1455184668302536,
              0.008431627415120602,
              0.0478331483900547
            ],
            [
              0.07778117805719376,
              -0.116374671459198,
              -0.13524079322814941
            ]
          ],
          [
            [
              0.13593673706054688,
              0.15359418094158173,
              0.1072641909122467
            ],
            [
              -0.03328203782439232,
              -0.06791657954454422,
              -0.056404951959848404
            ],
            [
              0.06541504710912704,
              -0.022224076092243195,
              0.03557519614696503
            ]
          ],
          [
            [
              -0.13518008589744568,
              -0.08343721181154251,
              0.09699127823114395
            ],
            [
              -0.07828253507614136,
              0.12161252647638321,
              0.12524089217185974
            ],
            [
              -0.0941389724612236,
              0.11212503165006638,
              -0.10883218795061111
            ]
          ],
          [
            [
              -0.1734735518693924,
              -0.16577547788619995,
              -0.12162437289953232
            ],
            [
              -0.10486622899770737,
              -0.039576560258865356,
              -0.08628562837839127
            ],
            [
              0.038549989461898804,
              -0.01902139186859131,
              -0.007221456617116928
            ]
          ]
        ]
      },
      {
        "bias": -0.13817913830280304,
        "weights": [
          [
            [
              -0.15021832287311554,
              0.05511182174086571,
              -0.1718607097864151
            ],
            [
              -0.17002534866333008,
              -0.09757572412490845,
              -0.17855142056941986
            ],
            [
              -0.03489067777991295,
              0.0398450642824173,
              -0.1774262636899948
            ]
          ],
          [
            [
              0.09763939678668976,
              -0.06067414954304695,
              0.2456681728363037
            ],
            [
              0.2092452049255371,
              0.02680516056716442,
              0.05024067685008049
            ],
            [
              -0.1268823891878128,
              0.15011706948280334,
              0.1643783450126648
            ]
          ],
          [
            [
              -0.049437619745731354,
              -0.04742993786931038,
              -0.10540013015270233
            ],
            [
              -0.026968717575073242,
              -0.005861242767423391,
              0.14782898128032684
            ],
            [
              -0.17685580253601074,
              0.05421837791800499,
              -0.13196028769016266
            ]
          ],
          [
            [
              0.17642472684383392,
              -0.04407418146729469,
              0.16129356622695923
            ],
            [
              -0.04850752279162407,
              -0.03439147770404816,
              0.009230906143784523
            ],
            [
              0.1406490057706833,
              -0.033896636217832565,
              0.026944786310195923
            ]
          ],
          [
            [
              0.04338956996798515,
              -0.1358710378408432,
              0.13752546906471252
            ],
            [
              -0.02174566313624382,
              -0.1418645977973938,
              -0.10706309229135513
            ],
            [
              0.043747760355472565,
              -0.047010138630867004,
              0.06159752979874611
            ]
          ],
          [
            [
              0.2832987308502197,
              -0.06744755059480667,
              -0.15660642087459564
            ],
            [
              0.3378162384033203,
              0.2756405174732208,
              0.10088293999433517
            ],
            [
              -0.04464102163910866,
              0.1789197325706482,
              -0.03583896905183792
            ]
          ],
          [
            [
              0.1327977478504181,
              -0.08740914613008499,
              0.15727201104164124
            ],
            [
              -0.01755358837544918,
              -0.01952645182609558,
              0.022446732968091965
            ],
            [
              0.17648829519748688,
              -0.10945931077003479,
              0.17045046389102936
            ]
          ],
          [
            [
              0.02039673738181591,
              0.048796407878398895,
              -0.056025534868240356
            ],
            [
              0.0801083967089653,
              0.08739040046930313,
              0.09121595323085785
            ],
            [
              0.2435077279806137,
              0.17948080599308014,
              0.020323578268289566
            ]
          ],
          [
            [
              -0.037572961300611496,
              0.021390758454799652,
              0.11074520647525787
            ],
            [
              0.11269161850214005,
              0.09762749820947647,
              -0.023177936673164368
            ],
            [
              0.04483838379383087,
              -0.022063497453927994,
              0.1441856324672699
            ]
          ],
          [
            [
              0.03277093172073364,
              -0.05251874029636383,
              0.06535898894071579
            ],
            [
              -0.13541370630264282,
              0.04836757481098175,
              0.1796850711107254
            ],
            [
              0.012621462345123291,
              -0.12445786595344543,
              -0.043895550072193146
            ]
          ]
        ]
      },
      {
        "bias": -0.0029476024210453033,
        "weights": [
          [
            [
              -0.07764320075511932,
              -0.09488365799188614,
              -0.17764171957969666
            ],
            [
              0.02898552082479,
              0.009040393866598606,
              0.07351863384246826
            ],
            [
              -0.04463524743914604,
              -0.06597544997930527,
              0.09514003247022629
            ]
          ],
          [
            [
              0.08558709919452667,
              -0.05641263723373413,
              0.010742543265223503
            ],
            [
              -0.03181492164731026,
              0.05694493278861046,
              0.07324404269456863
            ],
            [
              -0.11148649454116821,
              -0.06756788492202759,
              -0.013685181736946106
            ]
          ],
          [
            [
              -0.09248152375221252,
              -0.11759834736585617,
              0.07989117503166199
            ],
            [
              0.044399194419384,
              0.07761917263269424,
              0.17605791985988617
            ],
            [
              0.14080405235290527,
              -0.14607113599777222,
              0.15740162134170532
            ]
          ],
          [
            [
              -0.07993390411138535,
              -0.09533118456602097,
              -0.07653266191482544
            ],
            [
              0.12228335440158844,
              -0.10728027671575546,
              0.12624095380306244
            ],
            [
              -0.1534312665462494,
              0.09649325907230377,
              -0.09182451665401459
            ]
          ],
          [
            [
              -0.12666438519954681,
              -0.09063619375228882,
              0.1311490535736084
            ],
            [
              -0.07394842803478241,
              -0.13807226717472076,
              0.030591031536459923
            ],
            [
              0.11401373147964478,
              0.038764677941799164,
              0.1727263331413269
            ]
          ],
          [
            [
              -0.03521375358104706,
              0.040776729583740234,
              -0.0492713637650013
            ],
            [
              -0.13003061711788177,
              -0.12261607497930527,
              -0.08591430634260178
            ],
            [
              -0.06475827097892761,
              0.10556594282388687,
              -0.0064974199049174786
            ]
          ],
          [
            [
              0.09569615125656128,
              0.0743958130478859,
              -0.08129667490720749
            ],
            [
              0.10241220146417618,
              0.044042158871889114,
              -0.005253431387245655
            ],
            [
              -0.08421771973371506,
              -0.02287302166223526,
              0.1582069844007492
            ]
          ],
          [
            [
              0.17464469373226166,
              -0.004759327974170446,
              -0.05373360216617584
            ],
            [
              -0.0574435219168663,
              -0.10978808254003525,
              -0.06311788409948349
            ],
            [
              0.12036288529634476,
              0.1261303722858429,
              -0.0014633856480941176
            ]
          ],
          [
            [
              -0.015105150640010834,
              -0.0620230995118618,
              0.05886382609605789
            ],
            [
              0.03950042277574539,
              -0.12277045845985413,
              -0.1155344620347023
            ],
            [
              0.15445230901241302,
              -0.02329144813120365,
              0.0021877761464565992
            ]
          ],
          [
            [
              -0.15150602161884308,
              0.003520508296787739,
              -0.02569047547876835
            ],
            [
              -0.10195229947566986,
              0.010095835663378239,
              -0.1599566787481308
            ],
            [
              0.12181681394577026,
              0.14893516898155212,
              -0.10974260419607162
            ]
          ]
        ]
      },
      {
        "bias": 0.12114853411912918,
        "weights": [
          [
            [
              0.18296974897384644,
              -0.12809862196445465,
              -0.14669640362262726
            ],
            [
              -0.11561082303524017,
              -0.1661384254693985,
              0.022055014967918396
            ],
            [
              0.08669634163379669,
              0.12828736007213593,
              -0.12403936684131622
            ]
          ],
          [
            [
              0.07987998425960541,
              0.2419109344482422,
              0.20445944368839264
            ],
            [
              -0.10823317617177963,
              0.09543751180171967,
              -0.050093136727809906
            ],
            [
              0.004185022786259651,
              0.17944006621837616,
              -0.07345515489578247
            ]
          ],
          [
            [
              0.0013245628215372562,
              0.1235923022031784,
              0.024186747148633003
            ],
            [
              0.11089097708463669,
              0.149331197142601,
              -0.13549448549747467
            ],
            [
              -0.005959019530564547,
              0.15116539597511292,
              -0.13432572782039642
            ]
          ],
          [
            [
              0.04169134050607681,
              0.20962493121623993,
              0.03081643022596836
            ],
            [
              -0.04594748467206955,
              -0.06880307197570801,
              0.1698445975780487
            ],
            [
              0.0708509087562561,
              0.18609754741191864,
              -0.03765900060534477
            ]
          ],
          [
            [
              -0.02725823037326336,
              -0.1592773199081421,
              0.060165293514728546
            ],
            [
              0.03448891639709473,
              -0.03427081182599068,
              0.02784988470375538
            ],
            [
              0.08597239851951599,
              0.1448868364095688,
              0.011200206354260445
            ]
          ],
          [
            [
              -0.15762194991111755,
              -0.023864610120654106,
              0.1937761902809143
            ],
            [
              0.05401460826396942,
              0.1338137984275818,
              0.19478030502796173
            ],
            [
              -0.0403972789645195,
              -0.08266633749008179,
              0.16600029170513153
            ]
          ],
          [
            [
              -0.07822193950414658,
              -0.07480243593454361,
              -0.0663146823644638
            ],
            [
              -0.21309061348438263,
              0.03785296157002449,
              -0.18160569667816162
            ],
            [
              -0.20719312131404877,
              -0.2007254660129547,
              0.00015547069779131562
            ]
          ],
          [
            [
              0.01985744573175907,
              0.004170106258243322,
              -0.06071342155337334
            ],
            [
              0.1874227523803711,
              0.13876499235630035,
              -0.11546853184700012
            ],
            [
              -0.08829240500926971,
              -0.07469508051872253,
              -0.10581059008836746
            ]
          ],
          [
            [
              0.2955218255519867,
              0.1959114819765091,
              0.16662344336509705
            ],
            [
              0.2799350619316101,
              -0.0027217476163059473,
              0.2591608166694641
            ],
            [
              0.09334971755743027,
              0.0702303871512413,
              0.052982449531555176
            ]
          ],
          [
            [
              0.206203892827034,
              0.08418811857700348,
              -0.17647837102413177
            ],
            [
              -0.0681862086057663,
              -0.06076250225305557,
              -0.11248106509447098
            ],
            [
              -0.14953464269638062,
              -0.17491255700588226,
              -0.16291289031505585
            ]
          ]
        ]
      },
      {
        "bias": 0.19459320604801178,
        "weights": [
          [
            [
              0.1514769345521927,
              0.05938129872083664,
              0.08364816755056381
            ],
            [
              -0.14224372804164886,
              -0.12113974988460541,
              0.07634097337722778
            ],
            [
              -0.07723039388656616,
              -0.0872444361448288,
              -0.05068923532962799
            ]
          ],
          [
            [
              -0.12419942021369934,
              -0.1395666003227234,
              -0.1455443948507309
            ],
            [
              0.002038110513240099,
              0.19522923231124878,
              -0.017225302755832672
            ],
            [
              -0.084190733730793,
              0.10637078434228897,
              -0.0922846570611
            ]
          ],
          [
            [
              0.17039328813552856,
              -0.17677432298660278,
              -0.12394260615110397
            ],
            [
              0.03780452907085419,
              0.17131264507770538,
              -0.09608082473278046
            ],
            [
              0.11977460980415344,
              0.17727117240428925,
              -0.08620647341012955
            ]
          ],
          [
            [
              -0.19997037947177887,
              -0.2913624942302704,
              -0.1602543294429779
            ],
            [
              -0.20313173532485962,
              -0.052757058292627335,
              -0.1529880166053772
            ],
            [
              -0.1386885643005371,
              -0.28514716029167175,
              -0.28686317801475525
            ]
          ],
          [
            [
              -0.12160662561655045,
              -0.044039614498615265,
              -0.042221203446388245
            ],
            [
              -0.0874420627951622,
              -0.24049614369869232,
              0.08808517456054688
            ],
            [
              -0.19168365001678467,
              -0.17360490560531616,
              -0.08350948244333267
            ]
          ],
          [
            [
              -0.10152209550142288,
              0.17120270431041718,
              0.23463039100170135
            ],
            [
              -0.06729988753795624,
              0.09866217523813248,
              -0.052430905401706696
            ],
            [
              0.09456989914178848,
              0.1015491858124733,
              -0.03165590763092041
            ]
          ],
          [
            [
              0.06942664086818695,
              -0.11885619163513184,
              0.036924686282873154
            ],
            [
              0.16471296548843384,
              0.11284922063350677,
              -0.11259087175130844
            ],
            [
              0.06669933348894119,
              -0.031888142228126526,
              0.1439908891916275
            ]
          ],
          [
            [
              0.09270009398460388,
              -0.14056837558746338,
              0.004976232536137104
            ],
            [
              0.008111322298645973,
              0.00567896431311965,
              -0.11870823055505753
            ],
            [
              -0.1281406432390213,
              0.17350727319717407,
              0.08155322074890137
            ]
          ],
          [
            [
              0.03442322090268135,
              0.2100599855184555,
              0.028051208704710007
            ],
            [
              0.122585229575634,
              0.01141385082155466,
              0.21893034875392914
            ],
            [
              0.010093243792653084,
              0.16293461620807648,
              -0.045580778270959854
            ]
          ],
          [
            [
              0.09880731254816055,
              0.08290800452232361,
              0.23494897782802582
            ],
            [
              0.2026379257440567,
              0.28023192286491394,
              0.3571791350841522
            ],
            [
              -0.08217968791723251,
              0.2558155655860901,
              0.2715531289577484
            ]
          ]
        ]
      },
      {
        "bias": 0.10717850923538208,
        "weights": [
          [
            [
              -0.11427167803049088,
              0.033320195972919464,
              -0.10342808812856674
            ],
            [
              0.08701848238706589,
              0.12891942262649536,
              -0.04096484184265137
            ],
            [
              0.11453112959861755,
              0.09261266142129898,
              -0.04248601570725441
            ]
          ],
          [
            [
              0.05299720540642738,
              -0.15161603689193726,
              -0.11334613710641861
            ],
            [
              -0.07141664624214172,
              0.045953720808029175,
              -0.1181342676281929
            ],
            [
              0.021846512332558632,
              0.06222192570567131,
              0.16470050811767578
            ]
          ],
          [
            [
              0.07626191526651382,
              -0.009651032276451588,
              0.020057762041687965
            ],
            [
              0.15507648885250092,
              0.1149924173951149,
              -0.12786531448364258
            ],
            [
              0.07905665040016174,
              0.14299841225147247,
              -0.09648273140192032
            ]
          ],
          [
            [
              0.000547650852240622,
              0.1398892104625702,
              -0.06927435100078583
            ],
            [
              -0.04815325513482094,
              -0.05535098537802696,
              -0.11442936211824417
            ],
            [
              0.08791537582874298,
              -0.01620779186487198,
              -0.1487550139427185
            ]
          ],
          [
            [
              -0.13976849615573883,
              -0.02593058906495571,
              -0.08123485743999481
            ],
            [
              -0.02738291025161743,
              -0.029043318703770638,
              -0.013698937371373177
            ],
            [
              -0.15780381858348846,
              0.016584275290369987,
              0.10081189125776291
            ]
          ],
          [
            [
              0.21738389134407043,
              0.003982977941632271,
              0.027326153591275215
            ],
            [
              -0.08406128734350204,
              0.17079977691173553,
              0.08515200763940811
            ],
            [
              0.11319263279438019,
              -0.11395210772752762,
              -0.13678409159183502
            ]
          ],
          [
            [
              0.19477009773254395,
              -0.12585656344890594,
              0.16526727378368378
            ],
            [
              0.19352060556411743,
              0.13400863111019135,
              -0.014043576084077358
            ],
            [
              0.1400499790906906,
              0.11523634195327759,
              0.06606367230415344
            ]
          ],
          [
            [
              0.13529060781002045,
              -0.1866740733385086,
              -0.048188500106334686
            ],
            [
              0.1513550877571106,
              -0.04683656245470047,
              -0.1726418286561966
            ],
            [
              -0.023782189935445786,
              -0.1525663435459137,
              0.04844696819782257
            ]
          ],
          [
            [
              -0.018081700429320335,
              0.15763023495674133,
              0.14221061766147614
            ],
            [
              0.19707250595092773,
              -0.14014552533626556,
              0.1455543041229248
            ],
            [
              0.12630419433116913,
              0.1279045194387436,
              -0.09378276020288467
            ]
          ],
          [
            [
              -0.16949300467967987,
              0.020854825153946877,
              0.19731707870960236
            ],
            [
              -0.03915754333138466,
              -0.09359918534755707,
              0.07421944290399551
            ],
            [
              -0.17555277049541473,
              0.06336045265197754,
              0.027394549921154976
            ]
          ]
        ]
      },
      {
        "bias": -0.029243098571896553,
        "weights": [
          [
            [
              0.1476978361606598,
              0.140096053481102,
              -0.03898463770747185
            ],
            [
              0.13042190670967102,
              0.12580426037311554,
              0.1236029788851738
            ],
            [
              0.06190130487084389,
              0.051789283752441406,
              0.2192600816488266
            ]
          ],
          [
            [
              -0.1630067527294159,
              0.18594981729984283,
              0.1567183881998062
            ],
            [
              0.17020586133003235,
              0.13407756388187408,
              0.08362580090761185
            ],
            [
              0.05984038487076759,
              0.0004079548816662282,
              -0.028454795479774475
            ]
          ],
          [
            [
              0.17413371801376343,
              0.14247746765613556,
              -0.11904522031545639
            ],
            [
              -0.06140103191137314,
              0.09554106742143631,
              -0.05983537808060646
            ],
            [
              0.08690427243709564,
              -0.0069995759986341,
              -0.13297535479068756
            ]
          ],
          [
            [
              0.10137180984020233,
              0.2964780032634735,
              0.1611647605895996
            ],
            [
              0.2008943408727646,
              0.2494923174381256,
              0.31812959909439087
            ],
            [
              0.2922897934913635,
              -0.06817792356014252,
              0.18404459953308105
            ]
          ],
          [
            [
              -0.11196120083332062,
              0.10745713114738464,
              0.06226890906691551
            ],
            [
              0.2244108021259308,
              0.31398648023605347,
              0.20990993082523346
            ],
            [
              0.08488298207521439,
              0.1821851134300232,
              0.14156191051006317
            ]
          ],
          [
            [
              -0.15498793125152588,
              -0.06818368285894394,
              0.08075152337551117
            ],
            [
              -0.04881016165018082,
              -0.27364176511764526,
              -0.006447068881243467
            ],
            [
              -0.030402233824133873,
              0.13333414494991302,
              0.0710369125008583
